/**
 * @file mamba_weights.h
 * @brief Auto-generated weight file for MambaLite-Micro.
 *
 * Copyright (c) 2025 MambaLite-Micro Authors
 * Licensed under the MIT License.
 *
 * Generated by export_weights.py from a PyTorch .pth checkpoint.
 * Do not edit manually.
 */

#ifndef MAMBA_WEIGHTS_H
#define MAMBA_WEIGHTS_H

#define mamba_d_model 64
#define mamba_d_state 16
#define mamba_d_conv 4
#define mamba_expand 2
#define mamba_dt_min 0.001
#define mamba_dt_max 0.1
#define mamba_dt_scale 1.0
#define mamba_dt_rank 4

#define linear_in_weight_rows 64
#define linear_in_weight_cols 40
const float linear_in_weight[2560] = {
    0.09319963f,     0.06314775f,     0.05183006f,     0.01199374f,     0.09712721f,     0.11505378f,     -0.05096990f,     -0.12375408f, 
    0.03680631f,     -0.17958631f,     -0.15917034f,     0.02126328f,     -0.17636192f,     0.08318415f,     -0.11570901f,     0.06585521f, 
    0.08958809f,     0.05408949f,     -0.12436239f,     -0.10833018f,     0.09702015f,     0.07980803f,     0.02497470f,     0.01154079f, 
    0.09963357f,     -0.05018650f,     -0.12565009f,     0.01159736f,     -0.01293047f,     -0.11674035f,     0.06477453f,     -0.01988521f, 
    -0.06595917f,     0.01622027f,     0.07415377f,     -0.06714051f,     0.08078140f,     -0.19337514f,     -0.07367003f,     0.08339545f, 
    -0.18597399f,     0.02260219f,     -0.12743075f,     -0.05504365f,     0.09549975f,     0.06175911f,     0.05676116f,     -0.08097115f, 
    -0.04815033f,     0.02089710f,     -0.06918958f,     -0.02299992f,     -0.06930392f,     0.09531903f,     -0.12878829f,     -0.08370664f, 
    -0.01955348f,     -0.05885553f,     -0.18662335f,     -0.18052176f,     -0.05600353f,     -0.11776958f,     -0.07779185f,     0.05975134f, 
    0.00804327f,     0.09486642f,     -0.04981750f,     0.00760497f,     -0.09955456f,     -0.16032678f,     0.02774334f,     -0.13508807f, 
    -0.13612399f,     -0.09470106f,     0.02975642f,     0.08247602f,     -0.19068517f,     0.07846726f,     -0.19543251f,     -0.15021704f, 
    -0.03568141f,     0.14039549f,     0.04852834f,     -0.01427779f,     -0.09405627f,     -0.10747527f,     -0.01348007f,     -0.06978673f, 
    -0.15244791f,     0.02363087f,     -0.16032395f,     0.09299891f,     0.12371004f,     -0.09552125f,     -0.04062236f,     -0.01384296f, 
    0.12869689f,     0.11308169f,     -0.05168835f,     -0.02526768f,     -0.05435438f,     0.07807352f,     0.09781309f,     0.10825116f, 
    -0.18722530f,     0.07502024f,     -0.11356514f,     0.02652088f,     -0.04049094f,     -0.05243161f,     0.05313543f,     -0.11661711f, 
    0.07670934f,     0.09897389f,     0.13849539f,     0.04617587f,     -0.04715811f,     -0.01490641f,     -0.05264995f,     -0.07351672f, 
    0.12355004f,     -0.00523275f,     0.12649611f,     -0.02114956f,     0.05383450f,     -0.09579772f,     0.06645386f,     0.05583299f, 
    -0.03802609f,     -0.07833543f,     -0.10773808f,     0.13256319f,     -0.11423605f,     0.11242069f,     0.16706271f,     0.04111336f, 
    -0.15710226f,     -0.11429749f,     -0.12881459f,     -0.01776397f,     -0.03312188f,     0.16558740f,     0.06531430f,     -0.03575358f, 
    0.05455633f,     0.00034420f,     0.04155525f,     -0.02293653f,     -0.00838979f,     0.07387958f,     0.12987971f,     0.09843568f, 
    0.05992295f,     -0.15395711f,     -0.02051618f,     -0.03860284f,     -0.03761382f,     0.02823884f,     0.00251656f,     0.07648300f, 
    -0.06983327f,     0.06696362f,     -0.10477348f,     -0.17854176f,     -0.14584561f,     -0.06524705f,     -0.02952805f,     0.10892064f, 
    0.03286865f,     -0.01287545f,     0.00768346f,     -0.07891795f,     0.11945849f,     -0.11179005f,     -0.02072427f,     -0.08354869f, 
    -0.06575251f,     -0.04288220f,     0.02795295f,     -0.18002641f,     -0.19716948f,     -0.12106553f,     0.03755347f,     0.00931483f, 
    0.04578011f,     -0.01243687f,     -0.12606846f,     -0.13722114f,     -0.06222860f,     -0.15419009f,     0.00830982f,     -0.04697941f, 
    0.11373693f,     0.09885284f,     0.09018734f,     -0.08949743f,     0.04785777f,     -0.18161601f,     0.07316428f,     -0.18140459f, 
    0.09851446f,     0.01137522f,     0.06313764f,     -0.03447105f,     0.06390304f,     -0.02824815f,     -0.13645898f,     -0.09827489f, 
    -0.18078691f,     0.01137962f,     -0.18052101f,     0.11632600f,     0.05377996f,     -0.04008678f,     -0.12652639f,     -0.12006035f, 
    -0.16078921f,     0.06508015f,     0.01631944f,     -0.11192376f,     0.04273875f,     0.11968011f,     -0.12831670f,     0.03599143f, 
    0.08784877f,     -0.07154529f,     -0.12493984f,     -0.11926302f,     -0.16303998f,     0.08856627f,     -0.08452199f,     -0.14453052f, 
    0.15210006f,     0.09022324f,     0.10947235f,     0.08106091f,     -0.00109057f,     -0.10099480f,     -0.17390358f,     0.11187299f, 
    -0.17517507f,     -0.05690601f,     0.08865996f,     -0.07160430f,     0.17584231f,     0.05841188f,     0.06475135f,     -0.14852095f, 
    -0.19831826f,     -0.02572082f,     -0.01766617f,     -0.06485555f,     0.05753297f,     -0.15789692f,     0.00205032f,     -0.01293037f, 
    -0.16297676f,     -0.11188748f,     0.15899789f,     -0.00118144f,     0.09018401f,     0.01288863f,     0.11540536f,     0.04046318f, 
    0.12956312f,     -0.02720194f,     0.05993519f,     0.12619065f,     -0.08961052f,     -0.06625031f,     -0.07484448f,     -0.09410770f, 
    -0.01896549f,     -0.13170187f,     -0.16780895f,     -0.13199104f,     -0.02441471f,     0.06544111f,     0.04773830f,     -0.00487516f, 
    -0.09460974f,     -0.09724499f,     -0.01503401f,     -0.06047880f,     -0.13569729f,     -0.13072273f,     0.09394210f,     0.09168480f, 
    0.00072635f,     -0.09828977f,     0.04400502f,     0.12204983f,     0.13707021f,     0.10461283f,     -0.10916173f,     -0.07722322f, 
    -0.13999166f,     -0.11233868f,     -0.03418251f,     -0.08067750f,     -0.00796324f,     0.03109975f,     -0.15086004f,     0.14087586f, 
    0.07360842f,     0.06318998f,     -0.13586852f,     -0.00671497f,     -0.11911581f,     0.12977529f,     -0.01206448f,     -0.09697004f, 
    -0.04557459f,     0.10089432f,     -0.00746738f,     -0.11525998f,     0.13641438f,     -0.11146231f,     -0.03272560f,     0.05598546f, 
    -0.01484079f,     0.14622010f,     0.05236835f,     -0.05876905f,     -0.10657843f,     0.08927003f,     -0.04782522f,     0.10545254f, 
    -0.00504647f,     0.02951990f,     0.18532491f,     -0.06403798f,     0.06780646f,     0.08390652f,     0.15348236f,     -0.04199748f, 
    0.12617187f,     0.04219201f,     -0.06563418f,     -0.08298344f,     0.16059105f,     -0.09064627f,     0.14753501f,     0.02504851f, 
    0.06831038f,     -0.11549161f,     -0.02187332f,     -0.10317487f,     -0.04321917f,     0.00077027f,     0.09926753f,     0.05035707f, 
    0.11258753f,     0.08959955f,     0.07164018f,     0.00830940f,     0.04373320f,     -0.03184396f,     0.06942689f,     0.08016498f, 
    -0.15960114f,     -0.01801662f,     0.01894575f,     -0.00197591f,     -0.10327498f,     0.05419249f,     -0.16528015f,     -0.04704697f, 
    0.01262213f,     -0.11506821f,     -0.06009088f,     0.01677504f,     -0.01151150f,     -0.14587612f,     -0.12056118f,     -0.15329164f, 
    0.04725539f,     -0.04383310f,     -0.07360464f,     0.03361417f,     -0.08446774f,     -0.16028142f,     -0.13916422f,     0.04191701f, 
    -0.06833401f,     0.08662084f,     -0.09048828f,     0.04049043f,     -0.09304175f,     -0.08149419f,     0.06565691f,     -0.07566024f, 
    0.12153199f,     0.01899491f,     0.02842236f,     -0.13159451f,     -0.18952361f,     -0.00417160f,     -0.09242833f,     -0.19472268f, 
    0.11062022f,     -0.07506439f,     -0.06551389f,     0.10389569f,     -0.12247401f,     0.10950187f,     0.03441983f,     -0.13562760f, 
    0.02326724f,     0.09331579f,     0.05309686f,     0.04880370f,     -0.12552810f,     -0.12420893f,     0.02584448f,     -0.10834618f, 
    0.14556929f,     -0.06531666f,     0.11768433f,     0.09901579f,     -0.05770874f,     -0.16006269f,     0.10556159f,     -0.09867026f, 
    0.00059339f,     -0.01531349f,     -0.03110026f,     -0.06137490f,     0.13935800f,     0.13957144f,     0.02242191f,     -0.04818803f, 
    0.06161446f,     0.05308565f,     0.01863226f,     0.07449304f,     -0.13417710f,     -0.02288698f,     -0.13997523f,     -0.13218643f, 
    -0.08882108f,     0.11403761f,     -0.12603521f,     -0.09516084f,     -0.01978682f,     -0.14442217f,     -0.14051080f,     0.00081305f, 
    0.06153886f,     0.13806051f,     0.08351725f,     -0.09349699f,     -0.00029919f,     0.05390741f,     0.10770548f,     -0.07327978f, 
    -0.12671070f,     -0.11985470f,     -0.02179822f,     -0.04116953f,     -0.04881777f,     0.10996886f,     0.07497966f,     0.15288757f, 
    0.01941997f,     -0.07863685f,     -0.11874996f,     -0.05613057f,     -0.14677167f,     0.09590793f,     0.07843710f,     -0.09973514f, 
    0.04125947f,     -0.05687742f,     -0.04985199f,     0.02825473f,     -0.08449634f,     -0.01283228f,     0.13659471f,     -0.12351231f, 
    0.04635084f,     -0.07194280f,     0.11126895f,     -0.04743039f,     0.08443570f,     -0.13127932f,     0.08482946f,     -0.02063241f, 
    0.05641339f,     -0.19783506f,     -0.00412139f,     0.09506007f,     -0.17316476f,     -0.09899674f,     -0.09726761f,     -0.14935997f, 
    -0.11141446f,     0.08156691f,     0.01011346f,     -0.09959200f,     0.07980281f,     0.07570009f,     -0.16929093f,     0.04608456f, 
    -0.05596208f,     0.03246536f,     -0.02136376f,     -0.00755797f,     0.06058291f,     -0.17691952f,     -0.00820359f,     0.04797386f, 
    0.11119130f,     0.12405023f,     -0.07311690f,     -0.16020441f,     0.00860951f,     -0.02726348f,     0.00672993f,     0.01627026f, 
    0.07720564f,     -0.05474390f,     -0.08758047f,     0.04283047f,     0.05882716f,     -0.13925573f,     0.05759336f,     -0.02840945f, 
    0.08407184f,     0.04658764f,     -0.19512899f,     0.01802638f,     -0.02286822f,     0.05378781f,     0.02672708f,     0.02493959f, 
    -0.04834483f,     -0.12167592f,     0.08339406f,     -0.02717935f,     0.07393889f,     -0.15008703f,     -0.07719620f,     0.09087131f, 
    0.03626851f,     0.10108042f,     -0.09708674f,     0.04784781f,     0.06945527f,     -0.07895154f,     0.01050719f,     -0.05879886f, 
    0.08657772f,     0.03802172f,     -0.06827876f,     0.01964913f,     0.05607172f,     -0.17029594f,     0.08178084f,     -0.09110078f, 
    -0.15465763f,     0.02807409f,     -0.01024710f,     -0.06446712f,     -0.17202450f,     -0.10239399f,     -0.19217141f,     0.08857807f, 
    0.00003825f,     -0.08883464f,     0.12533370f,     -0.08292934f,     -0.10423629f,     0.00762347f,     -0.15874824f,     -0.07854123f, 
    0.08249136f,     0.10397680f,     -0.05756699f,     0.03177635f,     0.09499465f,     -0.08521061f,     0.05711380f,     0.09282696f, 
    0.00759803f,     -0.17735329f,     0.00840727f,     0.07680669f,     -0.10383927f,     0.01475198f,     -0.19050160f,     -0.11487088f, 
    -0.15529175f,     0.09540642f,     -0.12486275f,     0.09020628f,     -0.17556337f,     -0.06397914f,     -0.11608344f,     -0.13535082f, 
    -0.06402015f,     0.06174020f,     0.09461096f,     -0.12602539f,     -0.12550695f,     0.17723119f,     0.06213312f,     0.11614651f, 
    0.02117118f,     -0.02874721f,     -0.08554365f,     -0.11339942f,     0.12046620f,     0.09649058f,     -0.06022788f,     0.16864353f, 
    0.04455945f,     0.16496733f,     0.08663104f,     -0.13109082f,     0.04271697f,     0.01635436f,     -0.10614222f,     0.05911774f, 
    0.09075124f,     0.06802312f,     0.03741428f,     0.08509579f,     0.00467879f,     -0.03415814f,     -0.00177088f,     0.03613406f, 
    0.12881482f,     -0.11195949f,     -0.02143877f,     0.11881311f,     -0.06859749f,     0.16874416f,     0.05525501f,     0.06963409f, 
    -0.14919253f,     -0.07256501f,     -0.10406759f,     -0.03104057f,     0.11936380f,     -0.00977181f,     -0.15728310f,     0.14734019f, 
    -0.14107239f,     0.13321419f,     -0.05080995f,     -0.04403094f,     -0.05853705f,     0.05073810f,     0.05221198f,     0.02899596f, 
    -0.04483052f,     0.12092443f,     0.02890687f,     0.14202051f,     -0.07530663f,     0.02397210f,     -0.10622738f,     0.01926522f, 
    0.00492767f,     -0.13637553f,     0.13940503f,     0.02320229f,     -0.02928341f,     -0.05411834f,     -0.04918828f,     0.06249202f, 
    -0.03847680f,     -0.02136830f,     0.06034619f,     -0.12876989f,     -0.13181210f,     0.00723312f,     0.08007489f,     -0.02194368f, 
    0.10368956f,     -0.08013558f,     0.06887835f,     -0.02542634f,     -0.10833077f,     -0.03169674f,     -0.13108040f,     0.09570104f, 
    -0.07401795f,     0.12166473f,     0.05521813f,     -0.09881024f,     0.02164330f,     -0.13498847f,     -0.02349290f,     0.05380862f, 
    0.00200267f,     -0.13746199f,     0.00001732f,     -0.12565102f,     0.07419087f,     -0.11583759f,     -0.09856696f,     0.10005129f, 
    0.03593242f,     -0.06127958f,     -0.04412621f,     0.10759675f,     0.10254607f,     0.02390313f,     0.03202072f,     -0.17440727f, 
    -0.19646010f,     0.12038586f,     0.07181238f,     0.04270594f,     -0.14568393f,     0.09794036f,     0.02241720f,     -0.09604921f, 
    0.02147777f,     -0.07038850f,     -0.18819223f,     -0.06207690f,     0.10533578f,     -0.08023253f,     -0.06130026f,     -0.06814509f, 
    -0.16605927f,     0.06087547f,     -0.19125737f,     0.06956274f,     -0.09332781f,     -0.12890945f,     0.02446718f,     0.04585804f, 
    -0.17596442f,     -0.12819076f,     -0.12884222f,     -0.05601413f,     -0.06591909f,     -0.03622336f,     0.04323482f,     0.11843141f, 
    -0.12038856f,     0.02838189f,     -0.13042603f,     -0.09231299f,     0.03169918f,     0.04144472f,     -0.05016732f,     -0.01986664f, 
    -0.13776912f,     -0.09738065f,     -0.08182891f,     -0.01041679f,     -0.11398755f,     -0.08823509f,     -0.17485192f,     0.10403182f, 
    0.05918113f,     -0.14463639f,     -0.06098362f,     -0.03055829f,     0.14053914f,     0.07414012f,     0.12679790f,     -0.01374871f, 
    0.10677610f,     0.10298885f,     0.00906856f,     -0.02448353f,     0.09347770f,     -0.06534232f,     -0.01653613f,     0.07732274f, 
    0.00454176f,     -0.10729526f,     0.06344011f,     0.09153891f,     0.11883449f,     0.07492481f,     0.02468075f,     -0.01402404f, 
    -0.14740397f,     -0.04512335f,     0.04482679f,     0.11733772f,     0.11759784f,     0.06591977f,     0.10174934f,     0.03255920f, 
    0.10703766f,     0.01458846f,     0.09396317f,     -0.10565734f,     0.06676405f,     -0.05149902f,     0.05658027f,     0.10314494f, 
    -0.06402031f,     0.02120964f,     -0.10217325f,     -0.00880540f,     0.11391260f,     0.00970463f,     -0.05480810f,     0.05313504f, 
    0.17219108f,     -0.02621624f,     0.07146018f,     -0.01913090f,     0.05920455f,     -0.09730020f,     -0.08207937f,     0.08291560f, 
    -0.07816609f,     0.08484640f,     -0.01936740f,     0.07343005f,     -0.02249546f,     -0.07181360f,     0.11460298f,     0.14320996f, 
    -0.07168967f,     -0.01046292f,     0.06812734f,     -0.12015553f,     0.04497801f,     -0.04102283f,     0.14960518f,     0.03864084f, 
    0.01576998f,     -0.01832240f,     0.10067949f,     0.10050349f,     0.17843285f,     -0.09726026f,     0.00643674f,     0.13917796f, 
    -0.03586388f,     -0.10105220f,     0.01064378f,     -0.09432613f,     0.09391864f,     -0.12322477f,     -0.05165888f,     0.12446902f, 
    -0.02493088f,     -0.06484043f,     0.09591256f,     0.03204451f,     0.10277419f,     -0.01305072f,     0.07928900f,     0.05088617f, 
    -0.07453856f,     -0.06813832f,     0.04999230f,     0.00155240f,     0.15429030f,     -0.10363057f,     -0.01888769f,     -0.03664150f, 
    -0.05444283f,     -0.13076812f,     -0.01829897f,     0.07211687f,     0.12710021f,     -0.06648695f,     -0.01916561f,     0.14521766f, 
    -0.11595047f,     -0.02845619f,     -0.06927306f,     0.13091908f,     -0.00963756f,     -0.08289979f,     0.06512154f,     -0.08518398f, 
    0.09961142f,     -0.17662744f,     0.05451931f,     -0.08784698f,     -0.14267725f,     -0.17705780f,     -0.04597189f,     -0.01153468f, 
    -0.10699002f,     -0.03058721f,     -0.17144166f,     0.09580307f,     0.07499938f,     0.00092753f,     0.07226400f,     -0.04200584f, 
    -0.05629231f,     0.08151297f,     0.08542110f,     0.05330796f,     -0.16901480f,     -0.10189988f,     -0.08042480f,     -0.09079047f, 
    -0.11775939f,     -0.18726203f,     0.01647741f,     0.03714019f,     0.05983686f,     -0.03386938f,     0.10275084f,     -0.16158457f, 
    -0.17677379f,     -0.12456395f,     -0.01041657f,     0.08303519f,     0.03795673f,     -0.06388192f,     0.02227038f,     0.00183005f, 
    -0.05401200f,     -0.10430132f,     0.06214740f,     0.02837068f,     -0.09236176f,     -0.10245050f,     -0.10523736f,     -0.11600067f, 
    -0.09119279f,     -0.10283896f,     0.10952098f,     -0.10220963f,     0.14384928f,     0.03888481f,     -0.02673906f,     0.00978638f, 
    0.06848706f,     -0.06817346f,     -0.09673163f,     0.02320014f,     0.16652997f,     0.12953766f,     -0.05953444f,     0.00167882f, 
    -0.07185642f,     0.10009039f,     -0.07557701f,     0.08718406f,     0.01795116f,     0.01115229f,     -0.03266411f,     -0.07475619f, 
    0.01411102f,     -0.08857276f,     0.07768072f,     0.09215698f,     0.15258120f,     -0.01616394f,     0.09918532f,     0.03190136f, 
    0.01124627f,     0.11383291f,     0.01605748f,     -0.15144226f,     0.07482109f,     -0.12939572f,     0.02098304f,     -0.11707461f, 
    0.11648905f,     0.13859332f,     -0.12414229f,     0.15582052f,     0.09273385f,     0.16755697f,     -0.05202707f,     0.08795129f, 
    0.04017502f,     -0.13071507f,     -0.08780878f,     -0.16752090f,     -0.17472737f,     0.02921038f,     -0.11014947f,     -0.12975936f, 
    -0.00908005f,     0.01680508f,     0.11894976f,     0.10838157f,     0.09720559f,     -0.05668993f,     0.13742715f,     -0.07345033f, 
    0.12709631f,     0.03982400f,     -0.08314271f,     -0.09481284f,     0.07206064f,     0.04681386f,     -0.03384559f,     0.15701720f, 
    0.05121840f,     0.03457816f,     -0.14036250f,     -0.13956201f,     0.02914102f,     -0.03540986f,     0.02760540f,     -0.04132420f, 
    0.05278154f,     0.02195653f,     -0.16294074f,     -0.13210385f,     -0.03033936f,     0.10237808f,     -0.14949118f,     -0.08409499f, 
    -0.14453347f,     -0.12420115f,     0.02019281f,     -0.10085271f,     -0.10183190f,     0.08184563f,     0.10584432f,     -0.00637250f, 
    -0.16673793f,     -0.14933115f,     -0.03517947f,     -0.00561017f,     0.12499619f,     -0.15121622f,     -0.15159476f,     -0.07958516f, 
    -0.08071814f,     -0.12608135f,     -0.17989004f,     0.12724021f,     0.02416017f,     0.03383319f,     -0.10290906f,     -0.04006739f, 
    -0.15274619f,     0.01299769f,     -0.02218980f,     0.00624732f,     0.10007150f,     -0.02655645f,     -0.06121411f,     0.06575157f, 
    -0.01001727f,     -0.11834107f,     -0.02098712f,     -0.02580079f,     -0.10171933f,     0.14558864f,     0.05553784f,     0.00299468f, 
    0.12019652f,     0.11744373f,     -0.11567797f,     -0.11650460f,     -0.11572931f,     -0.03100869f,     0.03956839f,     -0.13495649f, 
    0.03690410f,     0.10544381f,     -0.09165004f,     0.00010804f,     -0.09633573f,     0.09412971f,     0.07070869f,     0.10156590f, 
    0.05534234f,     -0.14156140f,     0.04324442f,     -0.06489581f,     0.03980738f,     0.02459810f,     -0.09121072f,     0.03531869f, 
    -0.04496353f,     -0.01298172f,     0.14386082f,     0.03445765f,     0.19707786f,     0.16411966f,     0.13486792f,     -0.04799058f, 
    -0.06331410f,     -0.12558335f,     -0.12647001f,     -0.02974609f,     -0.11938944f,     -0.00610936f,     0.16766949f,     0.06055046f, 
    -0.09382581f,     0.15101166f,     0.07113951f,     0.12429871f,     -0.07447567f,     0.03812138f,     -0.03780619f,     -0.11127978f, 
    0.00075696f,     0.08219974f,     0.07757003f,     -0.07843652f,     -0.08962956f,     0.15156157f,     -0.03313927f,     -0.01329312f, 
    0.07327368f,     -0.06952964f,     0.10764948f,     -0.07824560f,     0.03566568f,     -0.07104284f,     0.11693488f,     -0.07045922f, 
    -0.17475398f,     -0.01255124f,     -0.06702571f,     -0.14615314f,     -0.08409204f,     -0.01959082f,     0.12516750f,     0.15084128f, 
    -0.03909025f,     0.06898896f,     -0.16711347f,     0.08729132f,     -0.16423717f,     -0.07275966f,     -0.19182087f,     -0.05566011f, 
    -0.02960353f,     -0.03738489f,     0.02615895f,     0.09265532f,     0.01510824f,     -0.11243515f,     0.06228041f,     0.03055630f, 
    -0.17954355f,     -0.07897308f,     -0.11379228f,     0.00066240f,     -0.20168279f,     -0.04213086f,     -0.00997474f,     0.10317414f, 
    -0.07424425f,     -0.13648057f,     0.09531959f,     0.01762556f,     0.07838563f,     0.02801253f,     -0.10463564f,     0.00650764f, 
    0.04132233f,     0.07372269f,     0.06894740f,     -0.06058440f,     -0.05111493f,     -0.01478818f,     -0.11932675f,     -0.03767618f, 
    -0.12933382f,     0.10079104f,     0.09168144f,     0.05361939f,     -0.16960429f,     0.03444547f,     -0.12200537f,     -0.13094026f, 
    0.06327398f,     -0.12056711f,     0.08421282f,     0.02081233f,     -0.01162396f,     0.05239581f,     -0.15957576f,     0.12218365f, 
    0.03265278f,     0.05024209f,     -0.07565697f,     0.12353819f,     0.08827487f,     0.01508697f,     0.07433766f,     -0.05330334f, 
    -0.02833082f,     0.07674722f,     -0.05253725f,     -0.04583653f,     0.13423735f,     -0.01660249f,     -0.01696469f,     -0.12652874f, 
    0.07612070f,     0.05541974f,     0.08690513f,     -0.17537303f,     0.00177810f,     0.11587208f,     -0.01005958f,     -0.03515914f, 
    0.04999138f,     -0.07646479f,     0.10693564f,     0.16675432f,     -0.05524927f,     -0.05471842f,     0.07532045f,     -0.13251990f, 
    -0.08830613f,     -0.12864076f,     -0.07825495f,     0.12009327f,     0.14038624f,     -0.12749098f,     -0.06814328f,     0.10377953f, 
    -0.09658746f,     0.08263980f,     0.05299844f,     0.03853898f,     -0.09533806f,     0.16087379f,     0.03839592f,     0.12479004f, 
    -0.01233979f,     -0.13170712f,     -0.00620953f,     0.12810358f,     0.04393014f,     0.00716228f,     -0.10643601f,     -0.09922551f, 
    -0.07214335f,     -0.02695584f,     -0.16489200f,     0.10025143f,     0.08241172f,     0.03306620f,     0.02373590f,     -0.18560091f, 
    -0.13229126f,     0.06171698f,     -0.14811939f,     -0.14314172f,     0.12444934f,     -0.01169309f,     0.00165677f,     -0.08703187f, 
    -0.07948512f,     0.13612145f,     0.12464066f,     -0.08980116f,     -0.12478108f,     -0.09194510f,     0.00227326f,     -0.13409519f, 
    -0.05634636f,     -0.14571336f,     -0.11617349f,     -0.14477798f,     -0.00715105f,     0.08077645f,     0.01040819f,     -0.06333320f, 
    -0.12456274f,     -0.08621976f,     -0.09140056f,     0.04935627f,     -0.00041770f,     -0.00139347f,     0.11567166f,     -0.06607817f, 
    0.10703404f,     0.03386171f,     0.10816193f,     -0.16468146f,     -0.10650763f,     -0.03109684f,     -0.06198576f,     -0.12687886f, 
    0.10357087f,     -0.09236785f,     -0.06663300f,     -0.10220853f,     0.01054743f,     0.08703259f,     0.03152148f,     0.02075891f, 
    -0.10010736f,     -0.17288278f,     0.08177736f,     -0.02461077f,     0.08211844f,     -0.04271686f,     0.06030573f,     -0.03448526f, 
    0.00972482f,     -0.14334182f,     -0.11508105f,     -0.11416441f,     -0.13577366f,     0.11597714f,     0.05683288f,     0.01510682f, 
    -0.12225278f,     -0.08100599f,     -0.05706121f,     -0.10154339f,     -0.11602367f,     -0.17825116f,     0.09949181f,     -0.10828228f, 
    -0.07770003f,     -0.03485201f,     0.03887981f,     -0.12730268f,     0.10017962f,     0.07085417f,     -0.02958751f,     -0.15648001f, 
    0.04432739f,     0.06275522f,     -0.04229570f,     -0.13025127f,     0.06304121f,     -0.03644263f,     -0.09882101f,     0.09887988f, 
    -0.13009857f,     0.03060035f,     -0.09444687f,     0.03519928f,     0.11153126f,     0.05033023f,     -0.01223726f,     0.00365566f, 
    0.06835929f,     0.02852220f,     0.08876634f,     0.09507086f,     -0.10150515f,     -0.01959776f,     -0.13942954f,     -0.06828994f, 
    0.08000562f,     -0.07774767f,     0.04863859f,     -0.04511870f,     -0.10540412f,     0.09891969f,     0.05409832f,     0.03824426f, 
    -0.12587939f,     0.06495027f,     0.00592066f,     0.12648252f,     0.10242633f,     -0.14610079f,     -0.13953122f,     0.09136938f, 
    0.04364800f,     -0.02696894f,     -0.10721283f,     -0.10993040f,     0.02735616f,     -0.13070063f,     0.08534630f,     0.10296812f, 
    -0.09703670f,     -0.16496001f,     -0.12590130f,     0.09765378f,     -0.08535314f,     0.07096204f,     0.10343297f,     -0.02641305f, 
    -0.04087826f,     0.02429806f,     -0.05201000f,     0.12396045f,     0.12119783f,     -0.10209225f,     0.00289472f,     -0.08270235f, 
    0.09748375f,     -0.12454530f,     0.09903631f,     -0.02737424f,     -0.08648299f,     -0.10567693f,     -0.01458470f,     -0.09267183f, 
    -0.03982054f,     0.15151720f,     -0.02121883f,     -0.13663913f,     0.12292303f,     -0.08411986f,     0.16294068f,     0.14044212f, 
    0.08632144f,     0.11534794f,     -0.03759998f,     -0.10584483f,     -0.05110167f,     -0.14894179f,     0.02948877f,     -0.11672730f, 
    0.10542887f,     0.08845915f,     0.03569660f,     0.09209661f,     0.02787923f,     0.11949423f,     -0.04631989f,     -0.00094539f, 
    0.06138490f,     0.15682125f,     -0.06253986f,     0.03322924f,     0.04698579f,     0.06132641f,     0.04200049f,     -0.08583472f, 
    -0.01798882f,     0.05637407f,     0.08977541f,     -0.11000150f,     -0.02070559f,     0.12773386f,     0.07500816f,     -0.01167043f, 
    0.04565145f,     0.11239648f,     -0.00478222f,     -0.10106779f,     0.02763740f,     -0.16004352f,     0.01102917f,     -0.11560335f, 
    0.17024498f,     0.14730848f,     0.14976186f,     0.15798962f,     0.14913659f,     0.15782785f,     -0.08661394f,     0.07284389f, 
    0.12948653f,     -0.12341765f,     0.06491168f,     -0.00176425f,     -0.10839656f,     -0.04426524f,     -0.03433780f,     0.10057849f, 
    0.15087771f,     0.04009268f,     -0.01704603f,     0.03238263f,     0.02742232f,     -0.00175502f,     -0.08974986f,     0.02005074f, 
    0.12678753f,     -0.03454523f,     -0.02251830f,     0.13729098f,     0.11143444f,     -0.03500878f,     0.07010331f,     0.11641888f, 
    0.01185180f,     0.08104982f,     -0.07101190f,     -0.01786178f,     0.10807148f,     0.04684230f,     -0.04489087f,     0.23282944f, 
    0.00706600f,     0.04509332f,     0.00184761f,     0.16581991f,     0.04847318f,     -0.06611138f,     -0.06217825f,     -0.07401858f, 
    -0.04094505f,     -0.13382660f,     -0.05032609f,     -0.00300848f,     0.09610747f,     0.16968927f,     0.19956335f,     -0.01479212f, 
    0.02305037f,     0.00533491f,     0.01685617f,     -0.04690313f,     0.18742271f,     0.00952442f,     0.10824279f,     -0.03527721f, 
    0.03181261f,     -0.03216033f,     0.14809942f,     -0.05782366f,     0.17947328f,     0.04567821f,     0.10507593f,     -0.02330428f, 
    0.14813639f,     0.06700866f,     0.00257438f,     0.11230280f,     0.01998204f,     0.04885038f,     0.13989255f,     0.16325590f, 
    -0.15138862f,     0.10240346f,     0.02087578f,     0.08202517f,     0.08102809f,     0.02388871f,     -0.00251200f,     -0.00024935f, 
    0.03236934f,     0.00787750f,     -0.15681909f,     -0.05095198f,     0.09632801f,     0.15611054f,     0.04615022f,     0.11963850f, 
    -0.02231636f,     0.07960235f,     0.02505937f,     -0.09028852f,     0.10204899f,     0.07051255f,     -0.06381253f,     0.08189517f, 
    0.13167293f,     -0.00305244f,     0.02354323f,     0.09987670f,     -0.10638253f,     0.00108006f,     0.13585819f,     -0.05849025f, 
    0.02225903f,     -0.15193538f,     0.11458710f,     0.18346502f,     -0.06244592f,     -0.09211975f,     -0.03716328f,     0.10618021f, 
    0.02313060f,     0.08273771f,     -0.10477409f,     -0.12550834f,     0.08098624f,     0.14705381f,     -0.00251088f,     -0.08945350f, 
    -0.09766305f,     0.00523440f,     -0.10169419f,     -0.00663274f,     0.08184450f,     0.15724535f,     0.07108543f,     0.11054043f, 
    0.06549858f,     0.07675813f,     -0.05875992f,     0.03143534f,     -0.12783681f,     -0.03460269f,     -0.02925771f,     0.00592416f, 
    -0.02300360f,     0.02520847f,     0.06427002f,     0.00568756f,     -0.05958400f,     0.11690393f,     -0.12980115f,     0.03514795f, 
    -0.00372998f,     0.12830673f,     0.19090952f,     -0.11471174f,     -0.10413277f,     0.03076684f,     -0.02017846f,     -0.13059132f, 
    0.02241030f,     0.06526185f,     0.18045887f,     -0.07762195f,     0.10582936f,     0.07465353f,     -0.01001465f,     0.10179888f, 
    -0.01419298f,     0.13426189f,     -0.07331493f,     0.06672002f,     0.14316028f,     0.10682707f,     -0.09805555f,     0.18711248f, 
    0.08462819f,     0.18477127f,     0.15799366f,     0.15626167f,     0.09345423f,     0.12545149f,     0.16007167f,     0.09402866f, 
    0.15176271f,     -0.06793771f,     -0.00038876f,     -0.07171274f,     -0.08356737f,     -0.06063052f,     0.11751151f,     0.02923522f, 
    -0.00058388f,     -0.01563330f,     -0.02268023f,     0.10660851f,     -0.01149110f,     0.12337725f,     0.17668246f,     0.11162781f, 
    0.10728317f,     -0.03266349f,     0.04208486f,     0.17366056f,     0.02735433f,     -0.07776241f,     -0.02908976f,     -0.08692373f, 
    0.03184664f,     0.01291039f,     -0.09678952f,     -0.05152483f,     -0.08740091f,     0.11162167f,     0.09082781f,     0.12919471f, 
    -0.04095118f,     0.14476791f,     0.05680437f,     0.17165354f,     0.02742491f,     0.04930715f,     0.08077619f,     -0.11536829f, 
    0.00074505f,     0.05921907f,     -0.11517175f,     0.17970701f,     -0.09313601f,     -0.07900772f,     -0.00928146f,     0.05575137f, 
    -0.08908253f,     0.05770666f,     -0.02676245f,     0.05525357f,     0.04093264f,     -0.11125515f,     -0.01478465f,     0.18794259f, 
    0.10205092f,     -0.07321255f,     -0.08060572f,     -0.15486065f,     0.11639915f,     0.11591330f,     0.14023161f,     0.01009862f, 
    -0.12944296f,     0.05469761f,     -0.18208247f,     -0.13182528f,     0.10350923f,     -0.06652794f,     0.00421445f,     -0.03286996f, 
    0.14297368f,     0.06666826f,     -0.13938440f,     0.03866835f,     0.13225716f,     -0.07723974f,     0.07923866f,     0.00676737f, 
    -0.06779902f,     0.05810850f,     -0.02807043f,     0.04463218f,     0.16207998f,     0.11280766f,     -0.05962179f,     -0.15140077f, 
    -0.03253019f,     0.14840724f,     0.00236118f,     0.00552107f,     -0.07404391f,     -0.03136732f,     0.09871824f,     -0.08002460f, 
    -0.07732545f,     -0.09904253f,     0.11170711f,     0.09231847f,     -0.05253902f,     0.03084276f,     0.15681836f,     -0.06041088f, 
    -0.07674234f,     0.10159858f,     -0.09146975f,     0.12329189f,     -0.04444093f,     -0.08762239f,     -0.00030059f,     -0.05819066f, 
    0.13055597f,     -0.07606278f,     0.02843220f,     -0.02770714f,     0.08446054f,     0.15055461f,     0.04038423f,     0.14300132f, 
    0.08549093f,     -0.06289734f,     0.15918989f,     -0.04870859f,     0.12484044f,     -0.11785682f,     -0.05580958f,     -0.09338482f, 
    -0.11638737f,     0.07872234f,     0.02953602f,     -0.03101173f,     -0.10418037f,     -0.06043316f,     -0.05560930f,     0.00754430f, 
    0.17834564f,     0.10320590f,     -0.05501395f,     -0.08784384f,     0.11451349f,     0.14651461f,     0.14673993f,     -0.01343775f, 
    -0.01257340f,     0.06138776f,     -0.10881754f,     0.11699802f,     -0.13544638f,     -0.08137114f,     -0.07328787f,     0.09634526f, 
    0.01462010f,     -0.01059792f,     0.00421472f,     0.11742309f,     -0.07186388f,     -0.09295017f,     -0.03807257f,     -0.13835247f, 
    0.07962892f,     0.08031876f,     -0.04205578f,     -0.01395509f,     -0.13193347f,     0.06218179f,     -0.08872037f,     0.12206552f, 
    -0.02296541f,     0.11004757f,     -0.07266140f,     0.10822172f,     0.08597606f,     -0.03345369f,     -0.05897859f,     0.09392919f, 
    -0.06569903f,     0.12247851f,     0.12789774f,     -0.09428418f,     -0.00113027f,     0.13505527f,     0.07311828f,     0.13552333f, 
    -0.00617792f,     0.13389081f,     0.15463980f,     -0.05163916f,     -0.05689945f,     0.00288282f,     -0.07366076f,     -0.11065567f, 
    -0.13635045f,     -0.15671694f,     -0.12984744f,     0.00241207f,     -0.07377610f,     -0.13337742f,     0.08736560f,     0.00128473f, 
    -0.13410494f,     -0.06527357f,     -0.07228256f,     -0.03988000f,     0.16117185f,     0.04389870f,     0.07331292f,     0.07380175f, 
    -0.07099001f,     -0.13402548f,     -0.02019932f,     0.08203163f,     -0.15108722f,     -0.11758836f,     0.11082917f,     -0.15562555f, 
    -0.11015899f,     0.06785870f,     -0.11277828f,     -0.11538541f,     0.08124487f,     0.06801463f,     -0.12494520f,     -0.04534331f, 
    0.04605426f,     -0.08190141f,     -0.16965844f,     0.08019366f,     0.11742105f,     -0.06900594f,     -0.11349949f,     -0.10088451f, 
    -0.16350643f,     0.08866128f,     0.08430215f,     -0.07935524f,     -0.04401015f,     -0.16069394f,     -0.06657588f,     -0.12024046f, 
    -0.11431901f,     -0.10704922f,     -0.03956885f,     -0.13205534f,     -0.06058158f,     0.01715955f,     0.01053722f,     -0.17205198f, 
    0.09280709f,     0.04681915f,     -0.13065892f,     -0.01772791f,     -0.06244523f,     0.13964100f,     0.10757083f,     0.03349837f, 
    0.09427393f,     -0.01545136f,     0.13778861f,     -0.06444188f,     0.03803296f,     -0.14529459f,     -0.07191966f,     0.07672528f, 
    0.18682609f,     0.12822521f,     -0.07598062f,     0.09583978f,     -0.01896766f,     -0.06137948f,     -0.03043057f,     -0.13799709f, 
    0.04519155f,     -0.04812126f,     0.04805247f,     -0.06987452f,     0.07307532f,     -0.08977041f,     -0.05277999f,     0.02724106f, 
    0.12881754f,     -0.11698096f,     -0.15339176f,     -0.01537249f,     -0.01596184f,     -0.10016765f,     -0.15648408f,     -0.04351453f, 
    -0.11161819f,     0.05369596f,     -0.08094057f,     0.02439623f,     0.04319624f,     0.19347022f,     0.13447136f,     0.20231213f, 
    -0.11492836f,     0.02035369f,     0.12765716f,     0.03252824f,     0.08891822f,     0.19584745f,     -0.08214428f,     -0.06496280f, 
    0.09310238f,     -0.02692541f,     -0.00116161f,     -0.08816813f,     -0.06223814f,     0.09087455f,     0.07863525f,     -0.08974025f, 
    0.13068287f,     -0.13325082f,     0.08984261f,     0.18904234f,     -0.04145941f,     0.08051108f,     0.03619542f,     0.11853218f, 
    0.06231206f,     -0.10362222f,     0.04313364f,     0.09319194f,     0.05360063f,     -0.00119358f,     0.15275365f,     -0.01605652f, 
    -0.16330606f,     -0.03439829f,     0.11328077f,     -0.14511615f,     -0.14409781f,     -0.11509620f,     0.10201056f,     -0.03104908f, 
    0.00047988f,     -0.03349602f,     -0.09112358f,     0.07626585f,     0.05851657f,     0.05617814f,     -0.19905540f,     0.08349157f, 
    0.09561871f,     0.10274137f,     -0.07662386f,     -0.01455225f,     -0.04206150f,     -0.05962379f,     0.11673391f,     0.03153083f, 
    -0.02537853f,     0.02145710f,     -0.10218178f,     -0.03947603f,     0.12508345f,     -0.10210738f,     -0.04314876f,     0.03631596f, 
    -0.06516946f,     0.05444835f,     -0.01497875f,     -0.13205598f,     -0.12598601f,     0.04599648f,     -0.10278488f,     -0.12575282f, 
    -0.15166010f,     0.15437843f,     -0.03325839f,     -0.06841189f,     0.01402258f,     0.01842652f,     0.16540444f,     0.04967635f, 
    0.13576467f,     -0.13550736f,     -0.12723514f,     -0.02680337f,     -0.06501452f,     0.03685459f,     -0.03137757f,     0.06920883f, 
    0.00054825f,     -0.09534321f,     -0.01061610f,     -0.02268033f,     -0.05070889f,     -0.07302793f,     0.05995288f,     -0.07036928f, 
    -0.14304921f,     0.11608814f,     0.09407439f,     -0.08877677f,     0.13243546f,     -0.10208061f,     0.06066869f,     -0.09402893f, 
    -0.10473048f,     0.08512275f,     -0.13356361f,     -0.03850983f,     0.02562596f,     0.11951771f,     -0.08167924f,     0.15320350f, 
    0.05065041f,     0.05203662f,     0.15041469f,     0.02411939f,     -0.04760593f,     0.04662705f,     0.08316529f,     0.03180362f, 
    0.02468944f,     0.08341293f,     0.00442537f,     -0.15952837f,     0.13216451f,     -0.00904113f,     0.10687083f,     0.18069267f, 
    -0.10070135f,     0.06856313f,     -0.13887291f,     -0.12225225f,     0.11290051f,     -0.10907760f,     0.06120562f,     0.04081749f, 
    0.06804696f,     -0.07504972f,     -0.08945440f,     -0.02135775f,     0.01731962f,     -0.02428564f,     -0.02832443f,     0.00625154f, 
    -0.12814607f,     -0.09038349f,     0.14161119f,     -0.11809517f,     -0.04923633f,     -0.06041458f,     0.10892280f,     -0.11455745f, 
    -0.02492064f,     -0.04167574f,     -0.04139492f,     -0.04576874f,     0.09664211f,     -0.08119902f,     0.09311651f,     -0.10429353f, 
    0.04483128f,     -0.07281642f,     0.13157263f,     -0.02050128f,     -0.00237371f,     0.06370807f,     0.02016890f,     -0.08290444f, 
    0.10067287f,     -0.11527253f,     -0.11027203f,     -0.12316291f,     -0.16389588f,     -0.02775882f,     0.07706884f,     0.12863310f, 
    -0.15079936f,     0.14286302f,     -0.00241012f,     -0.09673608f,     0.09813779f,     -0.02724900f,     -0.00368653f,     -0.06809030f, 
    -0.07087011f,     0.08319896f,     0.05811777f,     0.08702540f,     -0.09428775f,     -0.11833995f,     -0.12597105f,     0.15769085f, 
    0.03059127f,     0.13628504f,     0.02783279f,     0.16335337f,     0.11664754f,     0.11142576f,     -0.13462582f,     -0.08277018f, 
    -0.15564865f,     0.04241152f,     0.04898811f,     -0.09701215f,     0.07263863f,     -0.06586370f,     0.10577319f,     0.12856902f, 
    0.06349279f,     0.07329697f,     -0.11125093f,     -0.16105905f,     -0.09090684f,     -0.09728707f,     -0.01137540f,     0.14567409f, 
    0.09696580f,     0.14044040f,     -0.11913279f,     -0.05864952f,     -0.10187767f,     0.10967805f,     -0.12775099f,     -0.03530654f, 
    -0.01050615f,     0.04087391f,     -0.01662439f,     0.04102567f,     0.15720990f,     0.01954588f,     0.09942324f,     -0.10091376f, 
    -0.04520269f,     -0.05225998f,     -0.03819137f,     0.14532770f,     -0.14365393f,     -0.17184252f,     -0.10678471f,     0.04277362f, 
    -0.05920823f,     -0.02348236f,     -0.00144046f,     -0.05851906f,     0.05212326f,     0.10351395f,     -0.11132704f,     0.03957575f, 
    0.16368514f,     -0.00554073f,     0.12663732f,     0.00998783f,     0.13516532f,     -0.15517025f,     -0.16550337f,     -0.12132051f, 
    0.08133097f,     -0.09736105f,     0.07194644f,     -0.01601726f,     -0.14206052f,     0.11376651f,     0.06799556f,     -0.09900032f, 
    -0.06239624f,     -0.03454226f,     0.03288984f,     -0.07730236f,     0.06220139f,     -0.07492447f,     -0.13852723f,     -0.01571401f, 
    -0.15474682f,     -0.00524037f,     -0.04940961f,     -0.02669825f,     -0.13439183f,     0.03241833f,     0.01388755f,     0.06233371f, 
    -0.03671584f,     -0.12821110f,     0.04116110f,     -0.05229405f,     0.03284214f,     -0.02553103f,     0.12391892f,     -0.06676372f, 
    -0.06354696f,     0.15293363f,     -0.08864646f,     -0.10300867f,     -0.00866189f,     0.09273493f,     0.13420066f,     -0.04417472f, 
    -0.06188733f,     0.00603000f,     -0.07173250f,     0.11790769f,     0.15394016f,     -0.04863106f,     -0.10277211f,     -0.10676137f, 
    0.00271566f,     0.12010925f,     0.00711865f,     -0.05166190f,     0.06758147f,     0.02523870f,     0.12210778f,     -0.10959516f, 
    -0.07123809f,     0.11982451f,     -0.12360574f,     -0.05495559f,     0.12297064f,     -0.02316963f,     -0.06665204f,     -0.15516660f, 
    0.09391569f,     -0.14968526f,     0.01907579f,     0.11265783f,     0.14503159f,     -0.08700258f,     -0.00790654f,     0.07329146f, 
    -0.05281565f,     -0.14135283f,     -0.09596789f,     0.11232775f,     0.04704482f,     0.00830719f,     -0.05192774f,     0.04591620f, 
    -0.11417563f,     0.08849981f,     -0.01924601f,     -0.04541397f,     -0.12907131f,     -0.10619324f,     -0.03390867f,     -0.00627142f, 
    0.03928060f,     0.02535124f,     0.12744768f,     0.14672786f,     0.13480650f,     -0.10921103f,     0.07832062f,     0.04289795f, 
    -0.10947130f,     -0.11918952f,     0.04069855f,     0.05623270f,     -0.01974870f,     0.07312024f,     -0.14311887f,     -0.13349524f, 
    -0.15254126f,     -0.12886205f,     0.02788027f,     0.08657736f,     -0.15329699f,     0.13926063f,     -0.16112310f,     -0.07198617f, 
    -0.08169321f,     0.09160145f,     -0.02992092f,     -0.00610358f,     -0.01644753f,     -0.09409567f,     0.05490935f,     0.07383964f, 
    0.10140453f,     -0.00798951f,     0.11395194f,     0.06156726f,     -0.04987472f,     0.12647326f,     0.05611311f,     0.09452837f, 
    -0.16049351f,     0.09498047f,     -0.14151844f,     0.13885383f,     0.12690139f,     -0.09054717f,     -0.06380162f,     0.07030992f, 
    0.17692283f,     0.17664073f,     0.00227008f,     0.05203786f,     -0.05137524f,     0.01121182f,     -0.11734715f,     -0.03327309f, 
    0.04620659f,     -0.00677503f,     0.00842958f,     -0.11930668f,     -0.05800696f,     -0.00518436f,     0.04365869f,     0.03541894f, 
    -0.10287300f,     0.08544550f,     -0.02960506f,     0.13799445f,     -0.03724799f,     -0.02579231f,     -0.10311548f,     0.17029238f, 
    0.14700954f,     0.17702869f,     0.16392606f,     0.14170602f,     -0.08993112f,     0.09206883f,     -0.08514740f,     0.04421337f, 
    -0.09138108f,     0.01903601f,     -0.03644296f,     -0.07575569f,     0.14282133f,     0.11313396f,     0.00230972f,     -0.03262688f, 
    -0.17546774f,     0.05419537f,     -0.11119024f,     -0.05235981f,     -0.11215659f,     0.08764703f,     0.11309403f,     0.11757120f, 
    0.14601105f,     0.09314870f,     -0.05844713f,     -0.16174595f,     -0.04202455f,     -0.17114118f,     -0.15324026f,     -0.06939324f, 
    0.07039898f,     0.03158507f,     0.00101305f,     0.00989259f,     -0.12385952f,     0.04962948f,     0.08016002f,     -0.12201256f, 
    -0.04495153f,     -0.05775067f,     -0.00006711f,     0.02900583f,     -0.12858064f,     -0.11230532f,     0.03233217f,     0.05549806f, 
    -0.12351392f,     -0.02462739f,     -0.10729934f,     0.10362373f,     -0.12738524f,     0.02270488f,     0.07287681f,     0.09490031f, 
    -0.02049824f,     -0.05475042f,     0.10085931f,     -0.09880743f,     0.03860205f,     0.03453035f,     0.11264000f,     -0.08133297f, 
    0.01248933f,     0.06312992f,     0.03813002f,     -0.03464843f,     -0.04000057f,     0.16173999f,     -0.10461621f,     -0.13290071f, 
    -0.06272282f,     -0.07750826f,     0.00198110f,     0.19322222f,     0.13982214f,     0.04004823f,     -0.01121340f,     0.13940151f, 
    0.12832958f,     -0.03415176f,     -0.07799802f,     -0.02546363f,     0.00394375f,     -0.06998961f,     -0.09261495f,     -0.09649989f, 
    -0.05106085f,     0.11517582f,     0.08261085f,     0.00454303f,     -0.01613407f,     0.00981053f,     0.00800167f,     0.02078080f, 
    0.02128682f,     0.05187386f,     0.01025540f,     -0.14475307f,     -0.14073421f,     0.03648983f,     -0.10914278f,     -0.04716753f, 
    0.17185952f,     0.10850030f,     0.13658807f,     0.11163563f,     0.03717415f,     -0.14565568f,     0.14520302f,     0.03573957f, 
    -0.06964672f,     0.03110047f,     0.13052033f,     0.19089504f,     0.06470743f,     -0.07009728f,     0.15491350f,     0.14813684f, 
    0.15018423f,     0.01292112f,     0.10808314f,     -0.01979395f,     -0.05484931f,     -0.02276668f,     -0.06730916f,     -0.05728989f, 
    0.03672035f,     0.10414812f,     0.17907679f,     0.10745990f,     0.05906802f,     0.05661063f,     -0.05761678f,     -0.10783679f, 
    0.09048761f,     -0.11285055f,     0.05938026f,     -0.00811129f,     -0.03942528f,     -0.01149407f,     -0.07899047f,     0.07489768f, 
    -0.09987155f,     0.05480023f,     -0.07883012f,     0.06837622f,     -0.08395117f,     0.09636123f,     0.17987321f,     0.12438460f, 
    0.13258091f,     -0.09072506f,     0.12278832f,     0.03120576f,     0.13012715f,     -0.11471561f,     0.07332547f,     -0.11003470f, 
    0.00797416f,     0.16075127f,     0.00559334f,     0.15445343f,     -0.03622451f,     0.13922639f,     0.11731249f,     -0.03130980f, 
    -0.09735774f,     0.11045834f,     -0.08894814f,     -0.04069398f,     -0.02453408f,     0.13753283f,     -0.03656363f,     0.02240177f, 
    -0.08450239f,     0.09972339f,     0.10226359f,     0.00710739f,     -0.11868916f,     -0.05021553f,     -0.16626073f,     0.09316316f, 
    0.10710526f,     0.08081221f,     0.09658135f,     -0.15208884f,     -0.00290389f,     -0.10344823f,     -0.13646427f,     -0.05137384f, 
    -0.07158414f,     -0.16441005f,     0.11666723f,     -0.07791083f,     0.06439053f,     0.04476886f,     0.09528391f,     -0.14045198f, 
    -0.00663410f,     0.14741878f,     -0.14731100f,     0.13775288f,     -0.02392038f,     0.03944745f,     0.01549848f,     -0.03868186f, 
    0.11361046f,     -0.02112928f,     0.13114190f,     0.07871162f,     -0.04748397f,     -0.02245061f,     -0.01308078f,     0.00229109f, 

};

extern Matrix linear_in_weight_matrix;

#define linear_in_bias_size 64
const float linear_in_bias[64] = {
    0.14266212f,     -0.15994503f,     0.06642399f,     0.02449415f,     0.01052723f,     -0.03577523f,     -0.18703507f,     -0.04167652f, 
    0.16740620f,     -0.09155017f,     0.19301789f,     -0.00585908f,     0.07781152f,     0.16727328f,     0.03609455f,     -0.10831726f, 
    0.14440225f,     0.09277213f,     0.01056547f,     0.08854425f,     -0.11593413f,     0.10074088f,     0.05567195f,     -0.14052610f, 
    -0.01241367f,     -0.18937851f,     -0.09677017f,     -0.12539001f,     0.16476962f,     -0.03318351f,     -0.12286998f,     0.01512228f, 
    0.07485314f,     -0.01063754f,     0.12262531f,     -0.04654729f,     -0.14664696f,     0.16880322f,     0.06209773f,     0.03139708f, 
    -0.03753533f,     -0.36711168f,     0.24829611f,     -0.14836843f,     -0.12380863f,     -0.03600353f,     -0.03365576f,     0.20037299f, 
    0.06315173f,     0.00555182f,     -0.18065470f,     0.08045659f,     -0.28551212f,     -0.09646126f,     0.14534760f,     -0.03220350f, 
    -0.15904705f,     -0.02713076f,     -0.04000244f,     0.12845616f,     -0.08799843f,     -0.04592219f,     -0.00996779f,     -0.03961815f, 

};

#define mamba_A_log_rows 128
#define mamba_A_log_cols 16
const float mamba_A_log[2048] = {
    0.08213078f,     0.67937237f,     1.17789948f,     1.40183020f,     1.57856214f,     1.81807530f,     1.98614979f,     1.99841440f, 
    2.24564576f,     2.37334800f,     2.54524016f,     2.56710052f,     2.46885467f,     2.74842715f,     2.75162077f,     2.75093317f, 
    -0.17254248f,     1.09231603f,     1.11555481f,     1.48598540f,     1.65416205f,     1.78340495f,     1.93517482f,     2.01147819f, 
    2.34336042f,     2.42455101f,     2.23134255f,     2.56577158f,     2.45044637f,     2.49395251f,     2.70486403f,     2.84287143f, 
    0.05524898f,     0.62170523f,     1.13270736f,     1.26536238f,     1.53814530f,     1.79637122f,     1.84025323f,     2.11099935f, 
    2.15016723f,     2.33603644f,     2.30632257f,     2.40908122f,     2.53904676f,     2.69131994f,     2.74342322f,     2.57501507f, 
    0.15993425f,     0.76599264f,     1.07083416f,     1.27991176f,     1.66879272f,     1.84855974f,     1.89219284f,     2.09781408f, 
    2.20707774f,     2.48015523f,     2.44469237f,     2.45046997f,     2.57267761f,     2.67666101f,     2.77146482f,     2.75182676f, 
    -0.00905061f,     0.82869250f,     1.08535755f,     1.42259097f,     1.68888521f,     1.86386061f,     2.07293773f,     2.06143260f, 
    2.19300246f,     2.36369514f,     2.39595127f,     2.46569991f,     2.55503511f,     2.67828202f,     2.68119216f,     2.78122544f, 
    0.04673843f,     0.84848380f,     1.15462673f,     1.52679944f,     1.59629059f,     1.85519600f,     2.14690185f,     2.10985374f, 
    2.32021189f,     2.35160661f,     2.60046721f,     2.45839691f,     2.74170971f,     2.66813254f,     2.71375537f,     2.82544947f, 
    -0.02082839f,     0.77616429f,     1.28875577f,     1.44576776f,     1.55926466f,     1.90357697f,     1.78906488f,     2.06799841f, 
    2.15774441f,     2.28363800f,     2.42076969f,     2.57690501f,     2.62756109f,     2.60914850f,     2.66789365f,     2.76355243f, 
    -0.03474905f,     0.64784402f,     1.16228056f,     1.46373510f,     1.60280514f,     1.81936657f,     1.88017321f,     2.05117965f, 
    2.23186302f,     2.28180528f,     2.47932696f,     2.54211283f,     2.50801754f,     2.67834377f,     2.71347070f,     2.82540393f, 
    -0.14452624f,     0.59580386f,     1.01641536f,     1.44223499f,     1.64890110f,     1.85220253f,     2.21601295f,     2.11817956f, 
    2.39085960f,     2.03965902f,     2.57022071f,     2.37095165f,     2.48766685f,     2.58326507f,     2.68878579f,     2.71692538f, 
    0.06198891f,     0.64256501f,     1.19803095f,     1.36372375f,     1.58302140f,     1.80828846f,     2.13693070f,     2.06362557f, 
    2.06754112f,     2.35995984f,     2.41898608f,     2.56220317f,     2.47121549f,     2.75308251f,     2.76229763f,     2.85238981f, 
    -0.16609196f,     0.87876219f,     1.20795226f,     1.57068169f,     1.66001797f,     1.67877674f,     1.90884376f,     1.99210083f, 
    2.19820261f,     2.31289792f,     2.52044559f,     2.40973616f,     2.57753110f,     2.59435678f,     2.68652081f,     2.80473185f, 
    -0.01520104f,     0.75093389f,     0.89886987f,     1.24923885f,     1.59923506f,     1.78042746f,     1.85797834f,     1.94999146f, 
    2.19512033f,     2.24345660f,     2.28560162f,     2.51077390f,     2.66778922f,     2.92898464f,     2.87327433f,     2.67081761f, 
    0.06274259f,     0.82443398f,     1.03751230f,     1.44880879f,     1.76220691f,     1.83584297f,     2.00657868f,     2.14339232f, 
    2.19830251f,     2.51150918f,     2.38200712f,     2.53309488f,     2.59713888f,     2.52976370f,     2.94676137f,     2.77218437f, 
    -0.09281506f,     0.71950763f,     1.10405493f,     1.25102222f,     1.52845192f,     1.94642305f,     1.92055774f,     2.07447791f, 
    2.27862835f,     2.07168174f,     2.45522308f,     2.65398884f,     2.54331994f,     2.62204576f,     2.76245260f,     2.98573375f, 
    -0.03098795f,     0.62933034f,     1.10200238f,     1.42939520f,     1.58974636f,     1.84580970f,     1.96374869f,     2.09824920f, 
    2.07958388f,     2.27349281f,     2.40223360f,     2.45547748f,     2.52268600f,     2.69666553f,     2.68891430f,     2.70505118f, 
    0.13747707f,     0.77117431f,     1.33807480f,     1.21446288f,     1.78232944f,     1.72863793f,     1.82309198f,     2.20050263f, 
    2.17506051f,     2.41489887f,     2.23807573f,     2.37768507f,     2.59284520f,     2.35207224f,     2.68693638f,     2.84262729f, 
    -0.08192272f,     0.57366872f,     0.94848233f,     1.40926385f,     1.67136502f,     1.78732765f,     2.07581592f,     2.13884425f, 
    2.11235428f,     2.29541516f,     2.37265944f,     2.56464458f,     2.50306797f,     2.50863242f,     2.70624232f,     2.64232421f, 
    0.11316589f,     0.62229496f,     1.14741766f,     1.33416414f,     1.65603495f,     1.83060443f,     2.00814128f,     2.18662953f, 
    2.30663633f,     2.24019790f,     2.41263962f,     2.48509598f,     2.53390336f,     2.64555168f,     2.81573415f,     2.82934546f, 
    0.13921347f,     0.62677914f,     1.10558796f,     1.31117213f,     1.79183078f,     1.77026093f,     2.35548353f,     2.10315728f, 
    2.52548361f,     2.40463662f,     2.36376548f,     2.25468826f,     2.42962861f,     2.56775880f,     2.89202309f,     2.86233807f, 
    0.04495262f,     0.68206775f,     1.12921369f,     1.44730318f,     1.60451043f,     1.81856847f,     2.20174575f,     2.27456093f, 
    2.20102143f,     2.33023167f,     2.67318249f,     2.42707348f,     2.48383021f,     2.62805080f,     2.72018671f,     2.64880180f, 
    0.06924473f,     0.82359672f,     1.15602517f,     1.37410676f,     1.44664764f,     1.97191834f,     1.76119840f,     1.94879138f, 
    2.26919985f,     2.31446362f,     2.31926084f,     2.65630555f,     2.71831489f,     2.39567018f,     2.59966087f,     2.71638632f, 
    0.18000340f,     0.54018593f,     1.27622771f,     1.18533933f,     1.85503137f,     1.75303853f,     1.89256859f,     2.30318069f, 
    2.36527538f,     2.61729836f,     2.48669338f,     2.44519997f,     2.46360278f,     2.65410423f,     2.64092731f,     2.69096661f, 
    -0.00006117f,     0.83846062f,     0.98506212f,     1.45792806f,     1.44776499f,     2.06057382f,     2.01020908f,     2.13537288f, 
    1.98505116f,     2.39168572f,     2.35289550f,     2.34825373f,     2.75557065f,     2.73034000f,     2.79946017f,     2.77218199f, 
    -0.02152636f,     0.59162873f,     1.13488865f,     1.54071808f,     1.48771715f,     1.85330796f,     2.02455997f,     2.00635576f, 
    2.21547461f,     2.18079972f,     2.32286191f,     2.54092574f,     2.55736780f,     2.60783601f,     2.59824538f,     2.73446560f, 
    0.09665783f,     0.68956572f,     1.22819376f,     1.41904676f,     1.81847358f,     1.70872331f,     2.11110735f,     2.07067513f, 
    2.08953047f,     2.28748775f,     2.36292720f,     2.43315482f,     2.71252632f,     2.82201123f,     2.67818618f,     2.83583975f, 
    0.00177337f,     0.67080855f,     1.17319310f,     1.40932727f,     1.62500727f,     1.87257886f,     1.97019398f,     2.10942364f, 
    2.18258905f,     2.40426040f,     2.42575908f,     2.48214626f,     2.63644075f,     2.71139598f,     2.63414979f,     2.86759591f, 
    0.00137668f,     0.66453850f,     1.15263617f,     1.36981213f,     1.72606540f,     1.85858452f,     2.14813328f,     2.04299784f, 
    2.27650690f,     2.40655613f,     2.40600395f,     2.54845047f,     2.57193470f,     2.62343073f,     2.67950773f,     2.84809399f, 
    0.04383868f,     0.58564049f,     1.05144238f,     1.47166026f,     1.74143314f,     1.81911707f,     2.11866808f,     2.30919194f, 
    2.25499249f,     2.43259287f,     2.39389300f,     2.42243147f,     2.58559394f,     2.65214443f,     2.79977465f,     2.71578288f, 
    0.05638068f,     0.66464323f,     1.18253994f,     1.49294794f,     1.71656823f,     1.93562829f,     2.02056408f,     2.16949081f, 
    2.24294949f,     2.33241296f,     2.70394039f,     2.73567557f,     2.48829293f,     2.77206612f,     2.61387134f,     3.00667071f, 
    0.07389601f,     0.80464566f,     1.18247592f,     1.38195014f,     1.50839674f,     1.74482274f,     1.59234047f,     2.10638952f, 
    2.21749520f,     2.14486957f,     2.53600478f,     2.39326119f,     2.48839331f,     2.39146352f,     2.44419909f,     2.93382740f, 
    0.04378578f,     0.70635766f,     1.09851515f,     1.48399067f,     1.70261025f,     1.77430713f,     2.07874203f,     2.11080027f, 
    2.21306181f,     2.31209588f,     2.41295218f,     2.49400735f,     2.58407426f,     2.64810085f,     2.76183939f,     2.82464361f, 
    0.09950425f,     0.63488722f,     0.83171165f,     1.33336473f,     1.64885676f,     1.70815349f,     1.93192911f,     1.85273945f, 
    2.22197127f,     2.33868909f,     2.55138397f,     2.50064373f,     2.50127602f,     2.56265950f,     2.61076212f,     2.64647865f, 
    -0.02669872f,     0.70982778f,     1.01926291f,     1.31284666f,     1.73899806f,     1.60698879f,     1.96914685f,     2.06227160f, 
    2.26242399f,     2.18322778f,     2.35080314f,     2.53619480f,     2.60616326f,     2.68601847f,     2.86923933f,     2.83573890f, 
    0.05482448f,     0.84807199f,     1.13557029f,     1.29244697f,     1.45615339f,     1.73748636f,     2.03794146f,     2.16832018f, 
    2.07448649f,     2.53921199f,     1.99410915f,     2.44318867f,     3.09220934f,     2.60896707f,     2.71175289f,     2.75376320f, 
    0.07862931f,     0.79152739f,     1.06513238f,     1.32358134f,     1.55694163f,     1.95585752f,     2.01319385f,     2.07403398f, 
    2.15298891f,     2.39241219f,     2.54040980f,     2.48677373f,     2.69380307f,     2.61754394f,     2.57648945f,     2.80300784f, 
    0.03354143f,     0.73770046f,     1.09988618f,     1.41668773f,     1.73824716f,     1.63777208f,     2.00997329f,     2.01071072f, 
    2.13702965f,     2.27171159f,     2.42853260f,     2.44280910f,     2.50483847f,     2.58607078f,     2.77251983f,     2.84637904f, 
    0.02131591f,     0.71591645f,     1.10655308f,     1.41367567f,     1.61979675f,     1.76650727f,     1.89087772f,     2.02261972f, 
    2.19892120f,     2.25284600f,     2.46394825f,     2.51518655f,     2.56087422f,     2.63121367f,     2.73464680f,     2.79715014f, 
    -0.01576381f,     0.96090025f,     1.26873004f,     1.58591950f,     1.74382603f,     1.86368740f,     2.19091725f,     2.06044054f, 
    2.16478586f,     2.12276459f,     2.44554949f,     2.37484527f,     2.59332943f,     2.85546994f,     2.85666132f,     2.83473206f, 
    -0.05519345f,     0.62937039f,     1.01094508f,     1.31852555f,     1.62855506f,     1.76644671f,     1.95863557f,     2.04474187f, 
    2.15687037f,     2.33609986f,     2.34322715f,     2.62609315f,     2.77697492f,     2.76856112f,     2.69705272f,     2.75973368f, 
    -0.08793786f,     0.82429463f,     1.12413383f,     1.27269626f,     1.69587016f,     1.85862517f,     1.83531964f,     2.04743242f, 
    2.26534867f,     2.39265704f,     2.41926217f,     2.43930101f,     2.50833130f,     2.56018281f,     2.80388618f,     2.86961389f, 
    -0.06546141f,     0.74109924f,     1.14271271f,     1.27603126f,     1.54882610f,     1.71445644f,     2.01743436f,     2.18456006f, 
    2.17596102f,     2.33767796f,     2.28834295f,     2.31681204f,     2.48227215f,     3.03009963f,     2.74921346f,     2.65282106f, 
    0.13866833f,     0.95095229f,     1.03656125f,     1.35373163f,     1.34018433f,     1.88925219f,     1.82286704f,     2.12716937f, 
    2.10029221f,     2.27747297f,     2.44008851f,     2.54935145f,     2.56914091f,     2.69109821f,     2.86433721f,     2.82743430f, 
    -0.05777507f,     0.72459269f,     1.06768119f,     1.33354127f,     1.46196282f,     1.65834069f,     1.93464065f,     2.08700395f, 
    2.31042385f,     2.32387376f,     2.51058602f,     2.61522889f,     2.54221416f,     2.86357450f,     2.88192129f,     2.77534676f, 
    0.26182377f,     0.54187381f,     0.99540716f,     1.20020902f,     1.55118477f,     1.71759188f,     1.98783779f,     2.27525902f, 
    2.28953123f,     2.16395807f,     2.51455140f,     2.69457173f,     2.33836269f,     2.81824183f,     2.95107985f,     2.97659779f, 
    0.26014987f,     0.65635359f,     1.38614154f,     1.48937464f,     1.70776880f,     1.98510826f,     2.07597566f,     2.30858636f, 
    2.14583230f,     2.36954355f,     2.34293675f,     2.59443688f,     2.48438668f,     2.60417581f,     2.68834972f,     2.80181265f, 
    0.29356003f,     0.98346037f,     1.08175242f,     1.17372084f,     1.36095572f,     1.78349006f,     2.15718675f,     2.13234448f, 
    2.27045965f,     2.47678232f,     2.32998490f,     2.50372386f,     2.56521845f,     2.77890992f,     2.86585665f,     2.80462146f, 
    -0.13431527f,     0.77950603f,     1.08094800f,     1.44509161f,     1.55181384f,     1.71614647f,     2.15581560f,     2.09920526f, 
    2.25382614f,     2.37694764f,     2.39493990f,     2.60643888f,     2.70502186f,     2.55766892f,     2.75103426f,     2.67050600f, 
    0.05704171f,     0.78747666f,     1.23109508f,     1.34344196f,     1.60155559f,     1.88750064f,     1.94040573f,     2.17799807f, 
    2.18610716f,     2.40641570f,     2.27180672f,     2.34789753f,     2.49602723f,     2.66061997f,     2.66573119f,     2.75480819f, 
    -0.03749073f,     0.71439648f,     1.12195277f,     1.43794191f,     1.61350739f,     1.78293335f,     1.88972723f,     2.04076457f, 
    2.19056296f,     2.32883859f,     2.35582614f,     2.53824854f,     2.66190434f,     2.57656479f,     2.73345852f,     2.76910734f, 
    0.00569585f,     0.64050519f,     1.12353849f,     1.38932621f,     1.71852148f,     1.69827795f,     1.94783831f,     2.08292222f, 
    2.26999283f,     2.22013426f,     2.55889368f,     2.51334023f,     2.54748845f,     2.60531282f,     2.63913941f,     2.98381495f, 
    0.03928676f,     0.66812670f,     1.35784745f,     1.33868802f,     1.69449019f,     1.85093367f,     1.82818866f,     2.13817215f, 
    2.02114606f,     2.33005261f,     2.69475532f,     2.51249957f,     2.86297631f,     2.54833269f,     2.66511202f,     2.64551950f, 
    -0.03171918f,     0.75338286f,     1.08982003f,     1.42017496f,     1.54281354f,     1.72527623f,     2.08541775f,     2.04577327f, 
    2.35069227f,     2.36655164f,     2.34038973f,     2.43183565f,     2.45350027f,     2.60233855f,     2.70919037f,     2.79115796f, 
    0.32371339f,     0.72834253f,     1.20727110f,     1.57551813f,     1.72774303f,     1.90739477f,     2.07743812f,     2.12191033f, 
    2.23140311f,     2.09386945f,     2.41812515f,     2.45355058f,     2.57672882f,     2.98720264f,     2.93367457f,     2.64351702f, 
    0.04507986f,     0.68870252f,     1.12919366f,     1.44764030f,     1.68459988f,     1.75657332f,     1.96098340f,     2.22128010f, 
    2.18794322f,     2.28479004f,     2.56139636f,     2.47063518f,     2.55748081f,     2.39596987f,     2.70643950f,     2.83690715f, 
    0.09206522f,     0.69943577f,     1.05802858f,     1.41030347f,     1.68287110f,     1.82950234f,     1.92669415f,     2.13405204f, 
    2.11597013f,     2.34678817f,     2.50350094f,     2.47148299f,     2.45757818f,     2.66196871f,     2.64000607f,     2.83268714f, 
    0.14304805f,     0.65860856f,     1.02359927f,     1.32483089f,     1.54245996f,     1.77803540f,     1.81862366f,     2.30910802f, 
    2.27145743f,     2.26254320f,     2.59170008f,     2.64281130f,     2.40271020f,     2.62404275f,     2.63622260f,     2.84178352f, 
    0.00404850f,     0.71878576f,     1.13833547f,     1.40067315f,     1.62952352f,     1.77159822f,     1.96182001f,     2.08993626f, 
    2.22811294f,     2.31612730f,     2.41135955f,     2.50505853f,     2.56316996f,     2.67152452f,     2.80725765f,     2.81958914f, 
    0.14412513f,     0.89229411f,     1.29603446f,     1.44520593f,     1.63610530f,     1.68401134f,     2.06738043f,     2.17469525f, 
    2.41892481f,     2.42931247f,     2.59524655f,     2.53326750f,     2.57630181f,     2.75883365f,     2.80234909f,     2.92970133f, 
    0.07666497f,     0.78713328f,     0.95632195f,     1.54401100f,     1.85203767f,     1.92865682f,     2.14228153f,     2.17735934f, 
    2.17933059f,     2.33189726f,     2.23292398f,     2.37987828f,     2.51218724f,     2.65590501f,     2.78925848f,     2.91358399f, 
    -0.02937916f,     0.73717821f,     1.05167282f,     1.29969954f,     1.60607576f,     1.79657590f,     1.97714150f,     2.06103849f, 
    2.26380396f,     2.08454943f,     2.42246842f,     2.46885395f,     2.72489333f,     2.61047006f,     2.91857433f,     2.76425409f, 
    -0.08947278f,     0.84007961f,     1.17637658f,     1.82000828f,     1.42202377f,     1.87979913f,     2.03990269f,     2.06233525f, 
    2.21140862f,     2.53868842f,     2.13359404f,     2.59166813f,     3.01075959f,     2.73571944f,     2.74897623f,     2.58911586f, 
    0.08015803f,     0.75673765f,     0.98160160f,     1.45363939f,     1.60527647f,     1.83316779f,     1.99535036f,     2.00049901f, 
    2.35290217f,     2.27122998f,     2.59671450f,     2.63089085f,     2.69376993f,     2.78692698f,     2.82835126f,     2.68483901f, 
    0.03488762f,     0.64448828f,     1.19937742f,     1.48456204f,     1.79197824f,     1.85025692f,     1.66569185f,     2.05798602f, 
    2.14796352f,     2.45410514f,     2.55682421f,     2.60169983f,     2.40766144f,     2.61217976f,     2.57984686f,     3.08370733f, 
    0.00389950f,     0.71305937f,     1.24314833f,     1.32088542f,     1.70840716f,     1.94775319f,     2.03481579f,     1.95390952f, 
    2.25326490f,     2.21895552f,     2.52311182f,     2.45692468f,     2.48492265f,     2.63795877f,     2.58670855f,     2.77658510f, 
    0.01650004f,     0.87964511f,     1.24706197f,     1.48263896f,     1.60239077f,     1.77810729f,     2.01503086f,     2.01735282f, 
    2.24009514f,     2.36434960f,     2.34533405f,     2.49232006f,     2.62616348f,     2.57817769f,     2.59198570f,     2.73460770f, 
    -0.10707287f,     0.72388595f,     1.08195984f,     1.50950825f,     1.73540270f,     1.86029649f,     2.02943730f,     2.11229777f, 
    2.20291686f,     2.36623335f,     2.49565864f,     2.38101888f,     2.67975140f,     2.58038116f,     2.72537589f,     2.63090801f, 
    -0.00734547f,     0.74183154f,     1.02822924f,     1.34342992f,     1.52753234f,     1.84901524f,     2.02620006f,     2.02336264f, 
    2.20238614f,     2.28793764f,     2.37531614f,     2.48173881f,     2.62742019f,     2.59851909f,     2.71829486f,     2.71990228f, 
    -0.14190057f,     0.87475944f,     0.99877244f,     1.22725308f,     1.68790567f,     1.83559155f,     2.05605984f,     2.11134911f, 
    2.26077294f,     2.49603796f,     2.60663748f,     2.57418394f,     2.63496876f,     2.48264909f,     2.58371806f,     2.72417665f, 
    0.01812496f,     0.78077483f,     1.12357116f,     1.37422729f,     1.67302608f,     1.70779407f,     1.96899188f,     2.15325642f, 
    2.22458959f,     2.35566878f,     2.39149666f,     2.53312993f,     2.49936485f,     2.71698809f,     2.77163506f,     2.77974963f, 
    0.05535701f,     0.58466184f,     0.94244629f,     1.61096752f,     1.33610547f,     1.92826068f,     2.32058263f,     2.11268854f, 
    2.29589009f,     2.16330600f,     2.26447153f,     2.55656242f,     2.58321857f,     2.60387588f,     2.69077444f,     2.83399057f, 
    0.08436388f,     0.93698198f,     0.88806629f,     1.34702384f,     1.56747830f,     1.55015552f,     2.25918889f,     2.30635905f, 
    2.12014151f,     2.34218431f,     2.32546473f,     2.39760923f,     2.73972487f,     2.55728865f,     2.55091929f,     2.98643470f, 
    -0.04593270f,     0.56259912f,     1.06826341f,     1.20111442f,     1.60277236f,     1.84744430f,     2.04466605f,     1.96850061f, 
    2.26152682f,     2.23003674f,     2.40755749f,     2.38263202f,     2.65291858f,     2.44621801f,     2.76222992f,     2.76610923f, 
    0.08624160f,     0.71334863f,     1.21683979f,     1.55495942f,     1.71453476f,     1.94827616f,     1.75868678f,     2.17724609f, 
    2.44791174f,     2.32234979f,     2.37049818f,     2.58637929f,     2.43131113f,     2.76193929f,     2.82866621f,     2.79653525f, 
    0.12950365f,     0.84860855f,     1.06176901f,     1.36162758f,     1.61318290f,     1.95964527f,     2.09222078f,     2.06781483f, 
    2.16983867f,     2.31498098f,     2.39395833f,     2.53187370f,     2.61373615f,     2.83662963f,     2.68598962f,     2.67908549f, 
    -0.13167728f,     0.71386087f,     1.05450594f,     1.49564123f,     1.62929046f,     1.91649342f,     1.92815185f,     2.10548830f, 
    2.18598485f,     2.34447765f,     2.51944757f,     2.56486607f,     2.33317995f,     2.67029500f,     2.77646446f,     2.71834326f, 
    0.05457736f,     0.64425421f,     1.18892646f,     1.50793827f,     1.61712134f,     1.93343163f,     1.90868926f,     2.07097149f, 
    2.18026876f,     2.08319616f,     2.51251578f,     2.67147946f,     2.64998221f,     2.44473195f,     2.57737350f,     2.72612786f, 
    -0.00511066f,     0.77401590f,     1.08801687f,     1.42717993f,     1.63544250f,     1.87385738f,     2.04059219f,     2.06013083f, 
    2.24249291f,     2.33971071f,     2.37656975f,     2.47313857f,     2.59477878f,     2.67033625f,     2.73296499f,     2.74207044f, 
    -0.05609854f,     0.74778253f,     1.11285710f,     1.38931119f,     1.57517934f,     1.84172678f,     1.98790359f,     1.97426474f, 
    2.20967364f,     2.29653597f,     2.42731285f,     2.30932522f,     2.51473618f,     2.59964657f,     2.70398903f,     2.71663761f, 
    0.07840499f,     0.75396770f,     1.01234818f,     1.40139639f,     1.54298592f,     1.72448099f,     2.00928020f,     2.09504938f, 
    2.24121714f,     2.27005649f,     2.29674959f,     2.54980397f,     2.63667989f,     2.70858169f,     2.91646862f,     2.85868311f, 
    0.10540635f,     0.72550148f,     1.18620837f,     1.52042890f,     1.57668746f,     1.94502306f,     1.99636650f,     2.23121524f, 
    2.18642855f,     2.31183648f,     2.50049138f,     2.54472780f,     2.54113102f,     2.70752001f,     2.87533522f,     2.86372352f, 
    -0.25180122f,     0.83775264f,     0.91834605f,     1.58986843f,     1.71121371f,     1.76379800f,     1.84558511f,     2.02346230f, 
    2.27157640f,     2.30681801f,     2.44435239f,     2.50909925f,     2.37099171f,     2.44494462f,     2.72423625f,     2.80629683f, 
    -0.00822750f,     0.76027656f,     1.08171427f,     1.44110298f,     1.72203469f,     1.88525665f,     2.03851342f,     1.94605398f, 
    2.26182079f,     2.23233509f,     2.44252229f,     2.56780100f,     2.62732530f,     2.74091053f,     2.70106006f,     2.62331796f, 
    0.11918844f,     0.64915890f,     1.22181952f,     1.36464095f,     1.50387692f,     1.76839340f,     1.81099641f,     2.17876101f, 
    2.11735511f,     2.35927939f,     2.50620103f,     2.60722828f,     2.56357217f,     2.73152018f,     2.84137654f,     2.82981801f, 
    0.31837592f,     0.88072318f,     1.11503375f,     1.41050828f,     1.69830763f,     1.90912819f,     1.91069436f,     2.20005226f, 
    2.06348705f,     2.43050241f,     2.58216906f,     2.51878047f,     2.58915138f,     2.86273956f,     3.01554132f,     2.76146746f, 
    -0.02438223f,     0.65151763f,     1.06926417f,     1.44160354f,     1.67760003f,     1.73015189f,     1.98906386f,     2.08847332f, 
    2.19297242f,     2.32298660f,     2.37778950f,     2.48121667f,     2.55971289f,     2.64081383f,     2.74239159f,     2.80605388f, 
    0.01941006f,     0.66488099f,     1.20434189f,     1.44577050f,     1.57683301f,     1.77384639f,     1.83350301f,     2.05064583f, 
    2.22579813f,     2.43553686f,     2.40906715f,     2.42819357f,     2.56266665f,     2.69378304f,     2.69911933f,     2.73888993f, 
    -0.00473316f,     0.69954354f,     1.09266663f,     1.42690337f,     1.64051354f,     1.79932618f,     1.94249415f,     2.07020640f, 
    2.15420461f,     2.43598270f,     2.34335113f,     2.37494493f,     2.55904746f,     2.63598943f,     2.76718402f,     2.70616150f, 
    0.03837289f,     0.88078541f,     0.93627137f,     1.40948522f,     1.68318176f,     1.94294727f,     2.03346276f,     2.11106229f, 
    2.07695270f,     2.38311338f,     2.55906320f,     2.60744286f,     2.69850755f,     2.84227133f,     2.79295969f,     2.66874838f, 
    -0.05701203f,     0.55996323f,     1.24162018f,     1.35154414f,     1.61678135f,     1.80269945f,     2.07999325f,     2.27097082f, 
    2.26694870f,     2.38253856f,     2.49410129f,     2.57219410f,     2.49438334f,     2.65017581f,     2.76570010f,     2.90442252f, 
    0.05411247f,     0.61545467f,     1.08605230f,     1.47015584f,     1.61239409f,     1.80937648f,     1.98011076f,     2.09532166f, 
    2.27235746f,     2.35527563f,     2.37399054f,     2.59908366f,     2.57731485f,     2.54343057f,     2.72412324f,     2.81495452f, 
    0.03838402f,     0.76091945f,     0.89502341f,     1.38916671f,     1.63526893f,     1.90310991f,     2.05659485f,     1.97179866f, 
    2.10250831f,     2.33650827f,     2.47812414f,     2.49952269f,     2.60786867f,     2.73182726f,     2.71853232f,     2.75306606f, 
    -0.03709221f,     0.69904506f,     1.09896767f,     1.34540486f,     1.61577117f,     1.92992508f,     1.86882198f,     2.13525271f, 
    2.30554962f,     2.33946228f,     2.51260781f,     2.54616976f,     2.58130026f,     2.60044050f,     2.66585827f,     2.78785205f, 
    -0.06671000f,     0.79248887f,     1.01518214f,     1.45368564f,     1.65057540f,     1.86219537f,     1.99168062f,     1.99924612f, 
    2.28123307f,     2.22840548f,     2.45866609f,     2.54416823f,     2.54858255f,     2.62468481f,     2.70632005f,     2.73912406f, 
    -0.02285946f,     0.72194976f,     1.06560946f,     1.43399167f,     1.62708914f,     1.75098300f,     1.95763838f,     2.04159427f, 
    2.19783926f,     2.27510548f,     2.35758018f,     2.46685266f,     2.57340860f,     2.67620444f,     2.70493817f,     2.69455552f, 
    0.04027474f,     0.68559730f,     1.11996269f,     1.62922347f,     1.49308610f,     1.76467252f,     1.76674795f,     2.19859791f, 
    2.08948207f,     2.42232943f,     2.33559275f,     2.37948060f,     2.63507843f,     2.58131647f,     2.66269779f,     2.77351546f, 
    0.05598537f,     0.71828431f,     1.09953177f,     1.48318374f,     1.75195932f,     1.83519554f,     1.99845433f,     2.03235126f, 
    2.16018033f,     2.37317133f,     2.29367948f,     2.33569169f,     2.58382225f,     2.62778497f,     2.76048994f,     2.72404051f, 
    0.01776208f,     0.64897048f,     1.06804729f,     1.22060740f,     1.58637762f,     1.59294116f,     1.85500038f,     1.85402024f, 
    2.21454525f,     2.44992113f,     2.33275127f,     2.53339529f,     2.53134966f,     2.48216748f,     2.65634084f,     2.59637833f, 
    0.25041720f,     0.73322523f,     1.18108082f,     1.44084609f,     1.45335460f,     1.87934148f,     2.05824471f,     2.21407890f, 
    2.25589705f,     2.42938137f,     2.48646450f,     2.67321157f,     2.54327083f,     2.47711802f,     2.61294246f,     2.93993616f, 
    -0.02487952f,     0.79800367f,     1.10354018f,     1.38312292f,     1.64560890f,     1.70963156f,     1.93031228f,     2.02558875f, 
    2.27024722f,     2.33472109f,     2.25000787f,     2.44755101f,     2.63930774f,     2.66273189f,     2.70393991f,     2.74503970f, 
    0.03985275f,     0.73767459f,     1.20253420f,     1.45733619f,     1.64950716f,     1.92255855f,     1.91277027f,     2.12470269f, 
    2.14679718f,     2.33330154f,     2.47109294f,     2.48112273f,     2.53210282f,     2.71544409f,     2.69568181f,     2.82989120f, 
    0.09137280f,     0.67134929f,     1.00251818f,     1.44838798f,     1.59762466f,     1.76573706f,     1.80424118f,     2.01358628f, 
    2.26450753f,     2.26178479f,     2.35120463f,     2.56645989f,     2.52526951f,     2.54703093f,     2.61882329f,     2.66415715f, 
    0.26317948f,     0.88375604f,     1.29401863f,     1.42845941f,     1.98707771f,     1.98479319f,     1.70510769f,     2.41828966f, 
    1.92723286f,     2.41027689f,     2.35062242f,     2.56536150f,     2.11430764f,     2.57359219f,     2.57374072f,     2.96255159f, 
    0.01956873f,     0.93619788f,     1.06379688f,     1.60523069f,     1.69338703f,     1.70031798f,     1.75391221f,     1.83403802f, 
    2.24562716f,     2.46099877f,     2.30400205f,     2.69162416f,     2.56466746f,     2.76718950f,     2.70140028f,     2.96679044f, 
    0.03822598f,     0.66404194f,     1.03406942f,     1.63824260f,     1.64966536f,     1.82483053f,     2.00951171f,     2.06058431f, 
    2.25938511f,     2.09707260f,     2.47683144f,     2.47472882f,     2.56475282f,     2.54794621f,     2.70522332f,     2.69462109f, 
    -0.02766935f,     0.72858453f,     1.20272481f,     1.50266755f,     1.73153520f,     1.84816825f,     2.08488798f,     2.10458159f, 
    2.09726310f,     2.19160342f,     2.51740742f,     2.43126297f,     2.48795938f,     2.83541322f,     2.77518821f,     2.87239528f, 
    -0.14340527f,     0.57757729f,     1.02775919f,     1.70729244f,     1.76071966f,     1.91618538f,     2.25480747f,     2.28551865f, 
    2.51845264f,     2.33978486f,     2.30754232f,     2.71515989f,     2.70278120f,     2.57364631f,     2.51013350f,     2.89376879f, 
    0.11416186f,     0.70279467f,     1.02460611f,     1.40543389f,     1.64185667f,     1.83167779f,     1.93919134f,     2.17480278f, 
    2.08419013f,     2.28640342f,     2.50498629f,     2.49821305f,     2.52548337f,     2.69168711f,     2.63590765f,     2.93283868f, 
    -0.22682822f,     0.68109512f,     0.93013984f,     1.25301349f,     1.81297100f,     1.85504806f,     1.92699349f,     2.13670325f, 
    2.09724092f,     2.47040939f,     2.49418807f,     2.48672128f,     2.67840743f,     2.28753209f,     2.54326439f,     2.55906987f, 
    0.02526124f,     0.67892313f,     1.00936842f,     1.31567669f,     1.73348486f,     1.82918441f,     2.06044602f,     1.99936235f, 
    2.25057960f,     2.24030066f,     2.55278611f,     2.33441472f,     2.52286673f,     2.64258814f,     2.77286315f,     2.64915967f, 
    0.21043350f,     0.64674550f,     1.00893617f,     1.17993844f,     1.67307568f,     1.69552779f,     1.89076269f,     2.19967031f, 
    2.16179538f,     2.27296948f,     1.98960149f,     2.55400920f,     2.45564294f,     2.37084007f,     2.63346720f,     2.94322634f, 
    -0.04377169f,     0.83133560f,     0.86949974f,     1.54132783f,     1.49048364f,     1.83253205f,     1.66869676f,     2.13708878f, 
    2.30561829f,     2.22470140f,     2.56086564f,     2.44889569f,     2.63218331f,     2.53510785f,     2.67387486f,     2.77209711f, 
    -0.10981554f,     0.73642528f,     0.97442669f,     1.43940651f,     1.70240521f,     1.89279950f,     2.10651565f,     1.99950194f, 
    2.18791032f,     2.37874341f,     2.35673857f,     2.33965302f,     2.64223599f,     2.56463623f,     2.67583966f,     2.53892136f, 
    -0.05718011f,     0.59331042f,     1.33458674f,     1.37077737f,     1.67228532f,     1.63446116f,     2.11383009f,     2.10531664f, 
    2.06069112f,     2.28951120f,     2.47382426f,     2.30918980f,     2.60403967f,     2.71637440f,     2.73472571f,     2.88393569f, 
    0.01127405f,     0.74639606f,     1.49112463f,     1.78924334f,     1.73661363f,     1.93378162f,     1.97470474f,     2.31961942f, 
    2.29796290f,     2.31394839f,     2.36383414f,     2.60589457f,     2.69996405f,     3.02752781f,     2.68003845f,     2.96032572f, 
    -0.00122451f,     0.66008371f,     0.99049723f,     1.37546253f,     1.59555387f,     1.72827423f,     1.98288763f,     2.11768603f, 
    2.12611651f,     2.36606359f,     2.36883569f,     2.41215658f,     2.59858274f,     2.63068318f,     2.75797868f,     2.73020649f, 
    0.04346670f,     0.81913161f,     1.18803215f,     1.34734631f,     1.60689819f,     1.88197792f,     1.93330050f,     2.08191705f, 
    2.22260714f,     2.38184619f,     2.36068630f,     2.51644087f,     2.66601014f,     2.72013259f,     2.69623089f,     2.82396007f, 
    0.11331568f,     0.87429887f,     1.16466653f,     1.33349657f,     1.82398391f,     1.82179666f,     2.10431027f,     2.03030300f, 
    2.37243962f,     2.26380229f,     2.47716570f,     2.73172474f,     2.36036205f,     2.80259848f,     2.88013291f,     2.79720736f, 
    -0.06251029f,     0.75427252f,     1.15375102f,     1.42284882f,     1.69149220f,     1.76857972f,     2.03851986f,     2.13815641f, 
    2.26228619f,     2.37648463f,     2.33524346f,     2.52846527f,     2.63923764f,     2.66846514f,     2.84028959f,     2.71151161f, 
    0.04249047f,     0.76563859f,     1.06711805f,     1.38770723f,     1.67796957f,     1.75154436f,     1.91780651f,     2.17254710f, 
    2.19783020f,     2.30511355f,     2.46331143f,     2.45964122f,     2.58752704f,     2.63616014f,     2.72660542f,     2.76696825f, 
    -0.08079153f,     0.73086143f,     1.19627440f,     1.46314371f,     1.59850264f,     1.98710942f,     1.87601888f,     2.03290510f, 
    2.30928445f,     2.25713348f,     2.50955153f,     2.63468313f,     2.71315384f,     2.69601655f,     2.62199140f,     2.68711090f, 
    0.06311937f,     0.72952104f,     1.14947760f,     1.27954304f,     1.66152132f,     1.83797860f,     2.03295231f,     2.08996630f, 
    2.23396635f,     2.37115407f,     2.45757723f,     2.63370705f,     2.56899500f,     2.62179637f,     2.64948750f,     2.75938082f, 
    -0.01542835f,     0.73813289f,     1.00471628f,     1.36405003f,     1.52508414f,     1.81276715f,     1.89967680f,     2.13796377f, 
    2.18219566f,     2.29467559f,     2.37342525f,     2.46633172f,     2.58414650f,     2.64123011f,     2.83250856f,     2.77716875f, 
    0.11561559f,     0.69054049f,     1.10692179f,     1.33747900f,     1.76092100f,     1.75417340f,     1.83750570f,     2.02809834f, 
    2.17742419f,     2.44758368f,     2.40892625f,     2.33665633f,     2.51304817f,     2.66548967f,     2.56027603f,     2.79839516f, 
    0.05219611f,     0.88887703f,     1.19125962f,     1.42216134f,     1.65212929f,     1.75213683f,     2.02478623f,     2.01379633f, 
    2.10151029f,     2.25800824f,     2.34027958f,     2.66530395f,     2.58377433f,     2.84372854f,     2.80343628f,     2.79955840f, 
    -0.07219002f,     0.74127793f,     1.19211543f,     1.34794390f,     1.57071376f,     1.79647875f,     1.94263935f,     2.10150957f, 
    2.02153397f,     2.37611651f,     2.61280799f,     2.35240960f,     2.59788561f,     2.70822477f,     2.70227671f,     2.70635366f, 
    -0.04286772f,     0.77850997f,     1.08907390f,     1.49996817f,     1.64994955f,     1.89996088f,     2.12012124f,     2.01537657f, 
    2.08280587f,     2.39673567f,     2.36473489f,     2.48699927f,     2.75265884f,     2.63564324f,     2.64842510f,     2.68690062f, 
    0.11442147f,     0.68410975f,     0.82974988f,     0.98688787f,     1.64987850f,     1.59765673f,     1.78575802f,     2.01206446f, 
    2.36758900f,     2.38842940f,     2.46048737f,     2.69608307f,     2.86605096f,     2.70185208f,     2.83715487f,     2.78060770f, 
    -0.11210708f,     0.73361218f,     1.11296546f,     1.30767024f,     1.58574140f,     1.83913112f,     1.85315013f,     2.10971189f, 
    2.06594777f,     2.50098944f,     2.41193247f,     2.41730666f,     2.60728693f,     2.99514103f,     3.04221249f,     2.80630755f, 

};

extern Matrix mamba_A_log_matrix;

#define mamba_D_size 128
const float mamba_D[128] = {
    0.94602901f,     1.29804087f,     1.08644259f,     1.05365205f,     1.00413334f,     1.05929816f,     0.97665113f,     0.99419713f, 
    1.23695219f,     1.01564229f,     1.14676332f,     1.15243495f,     1.31778312f,     1.02763617f,     1.25057673f,     1.08562791f, 
    0.94919294f,     0.94329786f,     1.53402889f,     1.04895866f,     1.10493445f,     1.03431797f,     1.05287921f,     0.94253820f, 
    0.95386475f,     1.05356002f,     1.00147700f,     0.97351623f,     1.76579165f,     0.83502847f,     0.83581215f,     0.94791925f, 
    1.00874937f,     1.09343588f,     1.51043022f,     0.95074409f,     0.94054419f,     1.20325923f,     0.88548613f,     1.25053799f, 
    1.36387074f,     1.11542439f,     0.87009096f,     0.96301979f,     1.32434392f,     1.30753207f,     1.02478766f,     0.96545047f, 
    0.98868358f,     0.77326494f,     1.10448754f,     0.89796692f,     1.50354493f,     1.09387565f,     0.86821139f,     1.00268734f, 
    1.01960576f,     1.79200447f,     1.29293418f,     1.23441470f,     1.11499012f,     0.88447100f,     1.07524800f,     1.05203879f, 
    1.00531006f,     1.18922234f,     1.04007077f,     1.15508258f,     0.96976143f,     0.81940621f,     0.48311299f,     1.50729096f, 
    1.03202927f,     0.97859800f,     0.93905514f,     0.98233092f,     1.04556370f,     1.16914821f,     1.07834709f,     1.31061518f, 
    1.30300593f,     1.01811159f,     1.18861473f,     1.34243536f,     0.91556513f,     1.02497637f,     0.90529954f,     1.19517446f, 
    0.95011497f,     0.92185277f,     1.05642772f,     1.32532263f,     0.99500495f,     0.99927562f,     1.06628084f,     0.89443189f, 
    0.99037105f,     1.22260404f,     0.98251921f,     1.16793501f,     0.79943258f,     1.39206386f,     1.45783806f,     0.93804109f, 
    0.98378122f,     1.46928179f,     1.04869914f,     0.90333998f,     0.96097046f,     0.92206562f,     1.16462219f,     1.13022685f, 
    1.20321107f,     1.74946237f,     0.93055648f,     1.07428360f,     1.02018607f,     0.97420758f,     0.98690850f,     1.03498220f, 
    0.91636562f,     0.97339076f,     0.92820019f,     1.03470457f,     0.94156390f,     0.96928442f,     1.87847137f,     1.21457803f, 

};

#define mamba_in_proj_weight_rows 256
#define mamba_in_proj_weight_cols 64
const float mamba_in_proj_weight[16384] = {
    0.04912173f,     0.03428452f,     0.05548302f,     -0.02601596f,     0.00150795f,     -0.13326187f,     0.00314718f,     0.07137343f, 
    0.18773064f,     0.03558190f,     -0.08624075f,     -0.08904081f,     -0.01886540f,     -0.06269734f,     -0.04059929f,     -0.10580023f, 
    -0.11001629f,     -0.08772904f,     -0.01328842f,     0.05310644f,     0.08425757f,     -0.05685819f,     -0.11076909f,     -0.10162781f, 
    -0.04716117f,     -0.00553505f,     0.05669487f,     0.01329821f,     0.04872055f,     0.02120144f,     0.04328660f,     0.09810773f, 
    -0.00866671f,     -0.08030254f,     -0.23858994f,     -0.03810111f,     0.15512167f,     -0.01860758f,     -0.05332721f,     -0.09813280f, 
    -0.06538387f,     -0.01424737f,     -0.11168072f,     0.10534658f,     -0.06334724f,     -0.00922379f,     -0.11912978f,     0.10285615f, 
    0.28299072f,     0.01895951f,     -0.08947216f,     -0.01682585f,     0.03425021f,     0.11236007f,     0.13200833f,     0.14467178f, 
    -0.03599524f,     0.06916417f,     -0.05162589f,     0.00489602f,     0.03837791f,     -0.03567044f,     -0.06775176f,     -0.02830510f, 
    0.14500159f,     0.07947601f,     0.05061617f,     0.02053361f,     0.14967737f,     0.04019618f,     -0.09527359f,     -0.17016104f, 
    0.02198149f,     0.07101292f,     0.06840652f,     0.05390623f,     -0.07138455f,     -0.09194352f,     -0.08800794f,     -0.01511998f, 
    0.08364349f,     0.08011369f,     -0.02136958f,     -0.09940844f,     -0.02710729f,     0.02458232f,     -0.01502568f,     -0.01883995f, 
    0.15203346f,     -0.04666977f,     0.03809765f,     0.00706980f,     -0.13257296f,     -0.05745772f,     0.01074286f,     0.07850544f, 
    0.01914691f,     0.08898479f,     -0.06080464f,     -0.09680270f,     -0.02508866f,     -0.10893472f,     -0.02535525f,     -0.01706678f, 
    -0.09981374f,     0.04448070f,     -0.05927569f,     -0.02755911f,     -0.09166481f,     -0.02998092f,     -0.06757751f,     0.02425680f, 
    -0.08745680f,     0.07819772f,     0.07081337f,     0.13190310f,     0.07803187f,     0.11109049f,     0.03499470f,     0.00991950f, 
    0.19624062f,     -0.13028061f,     -0.00354321f,     -0.05322026f,     -0.02655426f,     -0.07881638f,     0.07876249f,     -0.02395414f, 
    -0.06998581f,     0.01067521f,     0.05815444f,     0.15840580f,     0.07089780f,     0.15277182f,     -0.00207555f,     -0.08860573f, 
    0.04943611f,     -0.13322441f,     0.10362934f,     0.06117995f,     0.01439806f,     -0.00648241f,     -0.09630306f,     0.06579166f, 
    -0.02083034f,     0.01871818f,     0.10086069f,     0.07714618f,     0.02735118f,     0.03641333f,     -0.06813440f,     -0.13509761f, 
    0.03833222f,     0.08469249f,     -0.01139284f,     0.06307353f,     -0.01990859f,     0.06470297f,     0.10112584f,     -0.05231748f, 
    -0.19959885f,     -0.08659361f,     0.04904214f,     -0.11621851f,     -0.09143460f,     -0.09563985f,     -0.09645271f,     0.05278044f, 
    -0.13326769f,     0.08516607f,     0.01730935f,     -0.06883634f,     0.00607725f,     0.13097733f,     -0.02327144f,     -0.06964607f, 
    0.08736857f,     -0.12689811f,     -0.10611533f,     0.12487523f,     0.00006539f,     0.17246386f,     -0.05786816f,     -0.08333308f, 
    0.03014217f,     0.10819663f,     0.08440678f,     -0.04477057f,     0.07501094f,     -0.15444602f,     -0.01534922f,     -0.06661308f, 
    -0.05836705f,     -0.05530545f,     -0.12633459f,     -0.11029685f,     0.04772593f,     0.05712400f,     0.11837158f,     0.04335473f, 
    0.05205470f,     -0.00561236f,     -0.02437941f,     0.05805030f,     -0.06818075f,     -0.11753852f,     0.06183402f,     0.12175022f, 
    -0.02832740f,     0.04932285f,     -0.07431430f,     -0.07689578f,     -0.08067552f,     -0.01857261f,     -0.11084263f,     -0.02445328f, 
    -0.15613993f,     -0.08846284f,     -0.10312270f,     0.11365224f,     -0.00979775f,     0.09442450f,     0.04888525f,     -0.01297966f, 
    -0.04868810f,     -0.06940443f,     0.01345920f,     -0.04537423f,     0.09335010f,     0.05969516f,     0.10973496f,     0.05601436f, 
    0.03376980f,     0.00244072f,     0.02670334f,     -0.06610526f,     -0.16751124f,     0.12019744f,     -0.01182111f,     0.09496769f, 
    0.02368185f,     0.14593384f,     0.07209487f,     0.00251510f,     -0.06686722f,     -0.08095650f,     -0.00882354f,     0.13803039f, 
    -0.00634498f,     -0.11253697f,     -0.01958290f,     -0.04062934f,     0.03007254f,     0.07225324f,     -0.07367558f,     -0.06067372f, 
    -0.03944340f,     0.00078362f,     0.00523537f,     -0.02897487f,     0.06402052f,     -0.04809372f,     -0.12429110f,     -0.04453408f, 
    0.06555793f,     -0.06144313f,     0.05040431f,     0.04555601f,     -0.08279139f,     0.06412845f,     -0.01405088f,     0.07307921f, 
    0.11667611f,     0.05959051f,     0.07436655f,     0.07809168f,     -0.16541111f,     -0.08190746f,     -0.09791963f,     0.09773850f, 
    0.03129993f,     -0.08510625f,     -0.03352295f,     0.01199241f,     -0.11010332f,     0.09555963f,     -0.02208190f,     0.03690013f, 
    0.02942544f,     -0.02075307f,     0.07865110f,     0.06643063f,     0.00240760f,     0.03212976f,     0.05104750f,     0.03422538f, 
    -0.07571009f,     0.09505454f,     0.01439847f,     0.00184837f,     0.09031021f,     0.09910440f,     0.03384100f,     0.00027458f, 
    0.02766573f,     0.13985857f,     -0.12032098f,     0.00861252f,     -0.07267319f,     0.01456136f,     -0.01275423f,     0.04682174f, 
    -0.03767836f,     -0.14254145f,     -0.13026737f,     0.08636204f,     0.08779829f,     -0.03710005f,     0.09728604f,     -0.11061681f, 
    0.06855988f,     0.02984760f,     -0.16000094f,     -0.05118824f,     0.02924280f,     -0.07011177f,     0.17136301f,     0.11100446f, 
    0.06352103f,     0.00055888f,     -0.10221204f,     0.05030100f,     0.10285541f,     -0.13474387f,     0.00993003f,     -0.09648833f, 
    -0.06918214f,     -0.10328984f,     0.14949287f,     -0.04629138f,     0.01908729f,     -0.01710524f,     0.03562009f,     -0.03090502f, 
    -0.13260596f,     0.18183492f,     0.14458399f,     0.21940048f,     -0.06047723f,     0.09382489f,     0.10413135f,     0.08089891f, 
    0.14556272f,     -0.15123220f,     0.07052970f,     0.03935117f,     -0.13122636f,     0.06263662f,     -0.11746024f,     -0.19099420f, 
    0.03815293f,     -0.08831156f,     0.10104571f,     0.07658353f,     0.02901226f,     -0.02261016f,     0.13536702f,     0.13351631f, 
    0.01473602f,     0.04948681f,     -0.08342204f,     0.01926177f,     0.08221138f,     -0.10770859f,     0.14196564f,     0.10377084f, 
    0.03720108f,     -0.17436184f,     0.04165578f,     0.07052159f,     0.02297514f,     0.04381075f,     0.13100338f,     -0.09572929f, 
    -0.09923658f,     -0.05877879f,     -0.08096755f,     -0.16395923f,     0.08578116f,     0.06168174f,     -0.17079903f,     -0.20687053f, 
    0.01680968f,     0.07108380f,     0.17007017f,     0.02306817f,     -0.09963032f,     0.02696044f,     0.07982340f,     -0.03288814f, 
    0.09968732f,     -0.11163647f,     -0.11577300f,     -0.06412435f,     -0.10883304f,     -0.05810241f,     0.03586585f,     0.06903423f, 
    -0.06372804f,     0.00413429f,     -0.00326440f,     -0.02070372f,     0.11188504f,     -0.20964940f,     0.22043677f,     0.01617752f, 
    0.17050134f,     -0.04010955f,     0.12872629f,     -0.11156987f,     0.00173785f,     0.10334683f,     0.11533348f,     0.07232513f, 
    -0.02310355f,     0.06658988f,     -0.05752351f,     0.08543627f,     0.09155980f,     0.08242585f,     0.13396886f,     0.20918728f, 
    0.09100479f,     0.04837338f,     -0.10574397f,     0.02672332f,     -0.11597954f,     -0.10920082f,     0.09325968f,     -0.06766348f, 
    0.02321806f,     -0.18508908f,     -0.04693933f,     0.04789428f,     -0.00024594f,     -0.03754934f,     0.01581103f,     0.02390365f, 
    0.05583198f,     -0.14298096f,     -0.01314765f,     -0.07497592f,     -0.04960647f,     -0.05998110f,     -0.15206426f,     0.01801279f, 
    -0.00313238f,     -0.05312043f,     -0.07990854f,     0.06212580f,     0.02171669f,     -0.11122717f,     0.13289618f,     0.00876000f, 
    0.02601916f,     -0.02661438f,     0.03410409f,     0.04609091f,     0.06170817f,     0.15955886f,     0.10860270f,     0.02180937f, 
    0.07393181f,     0.03806293f,     0.08690731f,     0.09384137f,     0.02184325f,     0.02883418f,     -0.06963612f,     0.02039474f, 
    0.06512671f,     -0.08683157f,     -0.04499641f,     -0.11843912f,     0.12155380f,     -0.01213766f,     -0.07502405f,     -0.08530837f, 
    -0.07007501f,     0.06272150f,     -0.16326490f,     -0.00592144f,     -0.03905364f,     0.06811859f,     -0.09127646f,     0.10019447f, 
    -0.10889570f,     0.09664728f,     -0.21257438f,     -0.11136681f,     0.06670326f,     0.02974674f,     0.03188640f,     0.05850876f, 
    0.01240258f,     -0.01645222f,     -0.01499347f,     -0.13793111f,     -0.05999091f,     0.13600607f,     0.05084533f,     -0.05489274f, 
    -0.04481188f,     -0.09174340f,     0.05585390f,     0.02385176f,     0.02381889f,     0.10446442f,     -0.05409423f,     0.05215871f, 
    -0.01072116f,     0.10593560f,     0.06510448f,     -0.03926920f,     -0.02818969f,     -0.01399753f,     0.04259582f,     -0.06400456f, 
    -0.03897718f,     -0.03825942f,     -0.05546485f,     0.09312027f,     0.00411545f,     0.08386806f,     0.17612268f,     0.09191316f, 
    -0.04022744f,     -0.02357502f,     0.03337335f,     0.03744834f,     0.01950319f,     0.03283894f,     -0.05696385f,     0.00271465f, 
    0.00040448f,     0.02742903f,     -0.15363348f,     -0.03929019f,     0.19541934f,     0.00135976f,     -0.04000166f,     -0.05788690f, 
    0.12342767f,     -0.02404955f,     -0.11354201f,     -0.00197262f,     0.03724716f,     0.03581728f,     0.06272920f,     -0.14051802f, 
    -0.00213858f,     0.12107580f,     -0.14670677f,     -0.10388904f,     0.03235634f,     -0.13338698f,     0.07605425f,     -0.05828225f, 
    0.15515897f,     0.02486132f,     -0.09400687f,     -0.00490024f,     0.00993136f,     0.06372339f,     -0.03587126f,     -0.00455775f, 
    0.04878793f,     -0.04962557f,     -0.00668208f,     0.04565040f,     -0.13450845f,     -0.02025962f,     0.08835004f,     -0.15493274f, 
    0.01192056f,     -0.10177763f,     -0.13823225f,     -0.03748379f,     0.03209580f,     0.02898374f,     -0.10723593f,     0.04434576f, 
    -0.12737353f,     0.00782519f,     0.06805630f,     0.08569156f,     0.03835336f,     0.04624089f,     0.01086519f,     0.06554959f, 
    -0.03797821f,     -0.01389498f,     -0.05910381f,     -0.08561165f,     0.02630293f,     0.01067803f,     0.10610235f,     0.07262026f, 
    0.09080836f,     -0.13161823f,     0.07071684f,     -0.03470169f,     -0.07247233f,     0.18298465f,     0.14708646f,     0.14480516f, 
    0.08715387f,     -0.00313294f,     0.01520697f,     0.01144841f,     -0.01367917f,     0.00685029f,     0.01277562f,     -0.11650483f, 
    -0.02024871f,     -0.00268827f,     -0.01036886f,     -0.12936217f,     0.06534410f,     0.10477810f,     -0.15576112f,     -0.04608509f, 
    0.13953820f,     0.10797279f,     0.08727697f,     0.06524792f,     -0.07032193f,     -0.01965883f,     0.06418371f,     -0.05814739f, 
    0.04117156f,     0.06485070f,     0.05821813f,     0.19642577f,     0.01936061f,     -0.02066491f,     0.02950361f,     0.00965056f, 
    0.16925792f,     0.01349508f,     0.03508465f,     0.16646001f,     0.06295721f,     0.11010951f,     -0.06063050f,     -0.15433861f, 
    -0.12204242f,     0.07018711f,     0.02973458f,     -0.06986561f,     0.06283061f,     0.06144987f,     0.16012950f,     -0.11934630f, 
    -0.02003700f,     0.06976364f,     0.03800358f,     0.13210095f,     -0.14377978f,     -0.06724664f,     0.01684666f,     0.02177669f, 
    0.00503339f,     -0.09042189f,     0.09591100f,     -0.09636648f,     0.06807642f,     0.15911773f,     0.11100274f,     -0.05291860f, 
    0.02763363f,     0.05585328f,     -0.00975630f,     -0.10786396f,     0.11638899f,     0.06200121f,     0.05030626f,     -0.02296543f, 
    -0.12348352f,     0.06529075f,     -0.07811281f,     0.03333699f,     -0.01623538f,     0.09832878f,     0.03736675f,     0.11208893f, 
    -0.02480030f,     0.08968277f,     0.10890008f,     -0.04188440f,     -0.09135494f,     -0.05246165f,     -0.18509912f,     0.14756693f, 
    -0.07472332f,     0.14263003f,     0.01314831f,     0.15156800f,     0.02486737f,     -0.06696267f,     0.09638130f,     0.01280047f, 
    -0.04802245f,     -0.00009268f,     -0.00782195f,     0.08310951f,     -0.01779234f,     0.11851700f,     -0.03083477f,     0.00265771f, 
    0.02675239f,     0.04900835f,     -0.08159067f,     0.11835603f,     0.07634242f,     0.00231194f,     0.08141526f,     0.01032873f, 
    0.17010178f,     -0.06818369f,     -0.02475196f,     -0.17191064f,     0.01275077f,     -0.05813083f,     -0.04017331f,     -0.06638500f, 
    -0.19036077f,     0.04882190f,     0.19402494f,     0.14737053f,     0.06024772f,     0.13751765f,     0.04489554f,     0.16182564f, 
    0.05740653f,     0.17397755f,     0.10014282f,     0.00001734f,     -0.05208040f,     -0.25894067f,     0.05661567f,     -0.07452211f, 
    -0.03890609f,     -0.12465160f,     0.13265768f,     0.09174558f,     0.02303103f,     -0.04167595f,     -0.12382769f,     0.06278542f, 
    -0.03329591f,     0.16789252f,     -0.07463297f,     0.21463951f,     -0.01214928f,     -0.09229397f,     -0.03823891f,     0.09695452f, 
    0.04686724f,     0.04225607f,     0.00399266f,     -0.01006941f,     0.08383291f,     0.08190196f,     0.06192562f,     0.06750468f, 
    0.12306502f,     -0.01744127f,     0.05357888f,     0.12647657f,     -0.05258853f,     -0.22090223f,     -0.06583671f,     0.07663704f, 
    -0.06503808f,     -0.22647263f,     -0.00866991f,     0.01948770f,     0.02810082f,     -0.03953242f,     -0.03771979f,     0.06507382f, 
    0.02773408f,     0.04369270f,     0.06089903f,     0.07018241f,     0.02851803f,     -0.13214706f,     0.03801626f,     -0.05574774f, 
    0.01276345f,     -0.14331655f,     -0.08055888f,     -0.07841868f,     -0.00461002f,     -0.02339882f,     -0.13665032f,     0.09665342f, 
    -0.09208103f,     0.03246353f,     0.07049973f,     0.05260668f,     0.01014097f,     -0.19739304f,     0.00858690f,     0.00398309f, 
    -0.06040613f,     -0.18353824f,     0.18549776f,     0.17403173f,     0.03522145f,     -0.18119639f,     -0.01534822f,     -0.17046382f, 
