/**
 * @file mamba_weights.h
 * @brief Auto-generated weight file for MambaLite-Micro.
 *
 * Copyright (c) 2025 MambaLite-Micro Authors
 * Licensed under the MIT License.
 *
 * Generated by export_weights.py from a PyTorch .pth checkpoint.
 * Do not edit manually.
 */

#ifndef MAMBA_WEIGHTS_H
#define MAMBA_WEIGHTS_H

#define mamba_d_model 64
#define mamba_d_state 16
#define mamba_d_conv 4
#define mamba_expand 2
#define mamba_dt_min 0.001
#define mamba_dt_max 0.1
#define mamba_dt_scale 1.0
#define mamba_dt_rank 4
#define linear_in_weight_rows 64
#define linear_in_weight_cols 57
const float linear_in_weight[3648] = {
    -0.02383380f,     0.10219534f,     0.14134562f,     0.04386246f,     0.14861064f,     -0.05115254f,     -0.03033569f,     -0.04988723f, 
    -0.01341971f,     -0.09062638f,     -0.00969997f,     -0.12229358f,     0.13556270f,     0.05992166f,     0.09312852f,     -0.06117544f, 
    0.05267673f,     -0.03642629f,     -0.00795495f,     0.10096818f,     0.01219753f,     -0.06377453f,     0.04492674f,     0.12874053f, 
    0.13361956f,     -0.06745178f,     -0.11745401f,     0.08886059f,     0.00693564f,     0.03395133f,     -0.00958937f,     0.14084670f, 
    -0.10945185f,     0.12501620f,     -0.07543329f,     0.05559751f,     0.13657817f,     0.08944942f,     -0.04514130f,     -0.03639921f, 
    -0.05015607f,     0.01840129f,     -0.08977360f,     0.08240322f,     0.00863853f,     -0.23801914f,     0.22991249f,     -0.03188511f, 
    -0.04408172f,     0.11981187f,     0.11800461f,     0.10606305f,     -0.14587571f,     0.10342395f,     0.08913145f,     0.04007946f, 
    0.03633304f,     0.07712358f,     0.14622420f,     -0.05112076f,     -0.11158188f,     0.00673756f,     0.00875235f,     0.12465821f, 
    -0.11478893f,     0.14619084f,     -0.08162855f,     -0.07476807f,     -0.13185364f,     0.07009630f,     -0.12307182f,     -0.11474776f, 
    0.00635602f,     -0.01179141f,     -0.01539814f,     -0.14187448f,     0.00126259f,     0.11165550f,     0.10252503f,     -0.05953731f, 
    -0.15414140f,     0.06838654f,     -0.09747263f,     -0.04876116f,     -0.03320588f,     0.04358643f,     -0.04467854f,     -0.14286913f, 
    -0.02178661f,     0.06777894f,     0.13059044f,     0.06218525f,     0.00824392f,     0.01258737f,     -0.07715323f,     0.14092670f, 
    -0.09125231f,     -0.04051883f,     -0.00890047f,     0.09479756f,     -0.08642256f,     0.01138268f,     -0.09908672f,     0.00578705f, 
    -0.11905222f,     -0.17723329f,     -0.08931721f,     -0.10560510f,     -0.05685770f,     -0.14744376f,     -0.06181442f,     0.02109976f, 
    -0.18417731f,     -0.04261317f,     -0.08410718f,     -0.10852008f,     -0.02386587f,     -0.08419245f,     -0.04493003f,     -0.06807332f, 
    0.08993453f,     0.11813511f,     0.06083995f,     0.03410026f,     0.00398929f,     0.04609650f,     0.11401702f,     -0.04979615f, 
    -0.03551550f,     -0.09554090f,     -0.07048158f,     0.11887984f,     0.07973126f,     0.02222897f,     0.03593018f,     0.03183497f, 
    0.01688715f,     0.11422304f,     -0.04557627f,     0.16306289f,     -0.00601873f,     0.13109142f,     0.04230788f,     0.12676667f, 
    0.11401030f,     -0.14149529f,     0.13713151f,     0.13466409f,     -0.06629732f,     -0.04516425f,     0.13964054f,     0.10789212f, 
    0.01560608f,     0.10980212f,     -0.12470463f,     0.12097241f,     -0.01082035f,     0.04877220f,     -0.07802892f,     -0.06882948f, 
    0.07128882f,     0.09988742f,     0.07929487f,     0.01783813f,     -0.01545996f,     0.15025236f,     0.01149523f,     0.01593763f, 
    -0.06580200f,     0.13343489f,     -0.04095924f,     0.09304426f,     0.11029550f,     -0.02183591f,     0.03454660f,     -0.14711106f, 
    0.04606830f,     -0.09800940f,     0.04169010f,     -0.00275025f,     -0.10520268f,     0.08274897f,     0.07787964f,     -0.14409013f, 
    0.09007180f,     -0.09880986f,     0.05563407f,     0.07586889f,     0.06743984f,     0.06441409f,     0.11411903f,     0.05836040f, 
    0.13127147f,     -0.10764463f,     -0.19379930f,     -0.00716514f,     -0.13275844f,     -0.11430835f,     -0.04615462f,     0.04272053f, 
    -0.04531247f,     -0.11564617f,     0.09785418f,     -0.13575213f,     0.02878265f,     0.14543062f,     0.05425496f,     -0.10819211f, 
    0.04206494f,     0.01086562f,     0.14941949f,     -0.07588921f,     0.01642537f,     -0.06864802f,     -0.01972427f,     -0.06669733f, 
    -0.24114306f,     -0.05565204f,     -0.16331278f,     -0.06194862f,     0.01714502f,     -0.17883186f,     -0.16504088f,     -0.14718075f, 
    -0.13419338f,     -0.12295371f,     0.12514690f,     -0.05541199f,     -0.00400089f,     -0.05776217f,     -0.13047850f,     -0.04370844f, 
    -0.15629195f,     -0.13701779f,     0.17979141f,     0.07638637f,     0.01142069f,     -0.10203873f,     -0.00019583f,     -0.01672083f, 
    -0.07823474f,     -0.15788497f,     0.10778707f,     -0.09010330f,     0.10102901f,     -0.05428794f,     -0.09204016f,     0.08437534f, 
    -0.03949616f,     -0.04425458f,     -0.01608801f,     -0.07194748f,     -0.15432721f,     -0.13977981f,     -0.18315701f,     0.12219919f, 
    0.16915858f,     -0.15577820f,     -0.01531324f,     -0.13517240f,     0.05002859f,     0.03361360f,     -0.05212136f,     0.04357638f, 
    0.11660746f,     -0.06819917f,     0.06993832f,     0.02569808f,     -0.11209113f,     -0.05652991f,     -0.07562341f,     -0.10065005f, 
    0.02840696f,     0.08953276f,     -0.06099748f,     -0.06621889f,     0.03847782f,     0.12448982f,     -0.12232219f,     0.06703068f, 
    -0.13813017f,     -0.05956016f,     0.04637154f,     -0.03400913f,     0.01628903f,     0.13727494f,     0.06751470f,     0.08641300f, 
    0.09731032f,     -0.07621769f,     -0.02811546f,     -0.05828358f,     -0.09385428f,     -0.02669081f,     0.01637911f,     -0.07789953f, 
    0.12890430f,     0.03619236f,     0.14848834f,     -0.02987691f,     -0.12160686f,     -0.12041853f,     -0.05653430f,     0.06956739f, 
    -0.11053497f,     0.06735742f,     -0.12161385f,     -0.09236355f,     -0.01033317f,     0.05681114f,     0.17668857f,     -0.00213646f, 
    -0.13442071f,     -0.00922542f,     0.12746516f,     0.03581793f,     0.12211227f,     0.16857627f,     0.01447189f,     0.04574015f, 
    0.08886091f,     -0.13013786f,     -0.03123317f,     -0.14712749f,     0.10983932f,     0.12735568f,     -0.04158367f,     -0.06422834f, 
    -0.08822250f,     0.14559039f,     -0.14577848f,     0.24529396f,     -0.00391479f,     -0.11390720f,     0.12697372f,     0.18769373f, 
    0.01406640f,     0.03799677f,     -0.06465375f,     0.01782632f,     -0.03370693f,     -0.03353146f,     0.00211087f,     0.10890146f, 
    -0.13570410f,     0.03877389f,     -0.05310186f,     -0.10147734f,     -0.00886811f,     0.08529711f,     0.10397486f,     0.11000162f, 
    -0.06904358f,     -0.11395898f,     -0.06942929f,     0.10582126f,     0.11396890f,     -0.01046447f,     -0.08434948f,     -0.02752800f, 
    -0.12145415f,     -0.10880396f,     -0.06959632f,     0.09355181f,     0.09601190f,     0.12051868f,     0.10465959f,     -0.04804034f, 
    0.08345381f,     0.13149430f,     0.15591228f,     -0.11638810f,     -0.00755513f,     0.08206109f,     -0.14101951f,     -0.04672359f, 
    -0.09344523f,     0.16130808f,     0.02439007f,     -0.05544247f,     0.09457678f,     -0.00578671f,     0.00362993f,     -0.07397419f, 
    0.00141210f,     0.02162789f,     0.08748020f,     -0.22298816f,     -0.06940705f,     -0.17034952f,     0.02177568f,     0.09160980f, 
    -0.07647880f,     0.00026254f,     0.05547083f,     -0.16466680f,     -0.10822362f,     0.02170241f,     -0.05079768f,     0.00955092f, 
    0.15830414f,     0.10586563f,     -0.18333021f,     0.05448461f,     -0.04323863f,     -0.01975046f,     -0.03252379f,     -0.02461374f, 
    -0.03763707f,     -0.02721384f,     0.06144192f,     -0.02503095f,     -0.07272855f,     0.09399150f,     0.12664516f,     0.05903117f, 
    0.04925020f,     0.11354184f,     -0.04470915f,     -0.00801220f,     0.03872218f,     -0.07693939f,     -0.13805588f,     -0.10727654f, 
    -0.18867463f,     -0.00979176f,     -0.05131869f,     -0.11932714f,     -0.03069223f,     -0.03064532f,     -0.11316548f,     0.05061601f, 
    -0.11432301f,     -0.10274921f,     0.00330111f,     -0.00757478f,     0.06436250f,     0.03914917f,     0.00772113f,     -0.14223230f, 
    0.01437527f,     -0.04062499f,     0.01021402f,     -0.02072892f,     0.13997920f,     0.02189316f,     -0.11810871f,     0.01095093f, 
    -0.11051584f,     -0.00234048f,     -0.04714537f,     0.13639016f,     0.16026504f,     -0.07732725f,     -0.11473561f,     0.01721472f, 
    -0.02177739f,     0.02995379f,     -0.06899601f,     0.08892665f,     -0.05174001f,     0.10143733f,     -0.05495887f,     0.05074663f, 
    0.10345779f,     -0.03196355f,     -0.10933809f,     -0.06544327f,     0.09315281f,     -0.17190732f,     -0.04324161f,     -0.01421265f, 
    -0.12431522f,     0.01762229f,     0.04427654f,     0.03942769f,     0.08742741f,     -0.01115554f,     0.11510001f,     0.11425719f, 
    -0.15112454f,     -0.10298894f,     -0.05756444f,     -0.03328956f,     -0.04097079f,     -0.07927015f,     -0.05305602f,     0.03961995f, 
    -0.04716431f,     0.00335994f,     -0.13976274f,     0.03568065f,     0.03258776f,     -0.01113866f,     0.00630391f,     -0.03000956f, 
    -0.11740915f,     0.03528199f,     -0.07702824f,     0.02684312f,     -0.07565366f,     0.23184773f,     -0.31117192f,     0.00114153f, 
    0.04402817f,     -0.04374845f,     0.03265313f,     -0.06487957f,     0.17787068f,     0.07768863f,     0.02421418f,     0.05483352f, 
    0.03667251f,     -0.02133888f,     0.09069890f,     0.01173298f,     -0.10724847f,     0.09684854f,     -0.12046273f,     0.01958882f, 
    -0.07158997f,     -0.09388583f,     0.01681713f,     -0.02898002f,     0.05029200f,     -0.02545885f,     -0.06095831f,     -0.07530980f, 
    -0.04371930f,     0.03152739f,     0.06232047f,     -0.00137684f,     0.01713324f,     -0.07389729f,     0.04502106f,     -0.01555613f, 
    0.07288092f,     0.08401993f,     -0.12230534f,     0.09387773f,     -0.08592800f,     0.03056781f,     0.10368168f,     -0.01475874f, 
    -0.06004040f,     0.05532945f,     0.05133915f,     0.12815198f,     -0.02157009f,     -0.02499952f,     0.00616941f,     -0.03699488f, 
    -0.02702680f,     0.13732021f,     0.09568481f,     -0.01750949f,     -0.07801992f,     0.06494557f,     -0.30892017f,     -0.00308795f, 
    0.08903439f,     -0.27588069f,     -0.11499783f,     0.09146410f,     -0.05139116f,     -0.29008585f,     0.09811207f,     -0.06240288f, 
    -0.26556784f,     0.03884816f,     -0.10767730f,     0.05234160f,     0.00242245f,     -0.01675019f,     -0.14336890f,     -0.11994240f, 
    0.00091395f,     -0.08837394f,     0.06917884f,     0.10007740f,     -0.02802468f,     0.11906616f,     -0.13693883f,     0.03003315f, 
    -0.05283646f,     0.02409914f,     0.04068889f,     0.00227272f,     -0.10468933f,     0.07875430f,     -0.03553720f,     0.07496627f, 
    0.01489546f,     -0.10882172f,     0.01284847f,     -0.06828710f,     0.09668206f,     -0.16607122f,     0.04844296f,     0.09177549f, 
    -0.11761336f,     -0.15800077f,     -0.04180973f,     -0.12777777f,     0.03537776f,     -0.18237533f,     0.01864157f,     -0.06441132f, 
    -0.12456816f,     -0.09478498f,     0.08468431f,     0.04167554f,     0.06380109f,     0.06997854f,     -0.05822144f,     -0.02203679f, 
    -0.20584358f,     -0.00416886f,     0.08515440f,     -0.02059606f,     -0.12468233f,     -0.00188475f,     0.16255915f,     0.10583071f, 
    0.04714330f,     0.00721602f,     0.00899293f,     0.11811503f,     -0.00946031f,     0.08659156f,     0.02913665f,     -0.09566647f, 
    -0.03192405f,     0.01081023f,     -0.05416635f,     -0.04347470f,     -0.09845699f,     -0.00388177f,     -0.07472858f,     0.01978140f, 
    -0.14579153f,     0.02202047f,     0.08084090f,     0.00102097f,     0.04112827f,     0.08313859f,     0.08959050f,     0.06889099f, 
    -0.06058862f,     -0.03951942f,     -0.02588819f,     0.10793228f,     -0.09076892f,     -0.09368582f,     0.12300655f,     0.12987135f, 
    -0.08167718f,     -0.05379303f,     0.02051768f,     -0.02463338f,     -0.10940845f,     -0.00702794f,     0.05422638f,     -0.10118493f, 
    0.10098832f,     0.06398166f,     -0.02896481f,     0.02870974f,     0.00291078f,     -0.00563457f,     -0.06131318f,     0.07509664f, 
    0.19919820f,     -0.34940240f,     0.07070794f,     0.01149411f,     0.12670770f,     -0.10534441f,     0.09962954f,     0.23153616f, 
    -0.06373962f,     0.01006493f,     -0.07265425f,     -0.01499849f,     0.09370842f,     0.06615625f,     -0.06879503f,     -0.12007470f, 
    -0.18633766f,     0.07565308f,     0.06115437f,     0.12341274f,     -0.12578531f,     -0.12910534f,     0.05605676f,     -0.13433555f, 
    -0.07121933f,     0.05935702f,     0.12979074f,     -0.09435911f,     0.11461543f,     0.13679111f,     0.03225017f,     -0.09023368f, 
    0.07111862f,     -0.00952215f,     0.06525066f,     -0.08684599f,     -0.12789774f,     -0.11853476f,     0.10743416f,     -0.05498688f, 
    -0.02352805f,     -0.08292632f,     -0.00871720f,     0.15828308f,     0.06866120f,     -0.10913271f,     -0.04322797f,     -0.02059806f, 
    0.03299094f,     0.03758971f,     -0.10878117f,     -0.04028725f,     -0.03369531f,     0.00639619f,     -0.13733974f,     0.05525509f, 
    0.03301906f,     -0.20773135f,     -0.03728778f,     -0.09448711f,     -0.04781846f,     0.09247434f,     -0.08733793f,     -0.10456146f, 
    -0.12778574f,     0.11980168f,     -0.13953593f,     0.00808918f,     0.01806031f,     -0.06428239f,     -0.14749977f,     0.01752745f, 
    -0.06406023f,     0.09905671f,     -0.07237514f,     -0.14456214f,     -0.07804155f,     -0.00619223f,     0.06442689f,     -0.08455613f, 
    -0.12420089f,     0.03041226f,     0.14428724f,     -0.15659472f,     0.06573809f,     0.07837556f,     0.00257172f,     -0.07925731f, 
    -0.04811914f,     -0.10568223f,     -0.02184873f,     0.00168495f,     -0.12076133f,     0.00467955f,     0.08213038f,     -0.04142267f, 
    -0.07892348f,     0.13729855f,     -0.15774241f,     -0.05018725f,     0.04632864f,     0.01955928f,     -0.12647133f,     -0.02361537f, 
    -0.02434987f,     -0.04851174f,     -0.15896067f,     0.04907776f,     -0.01889986f,     0.05568303f,     0.10033411f,     -0.05562354f, 
    -0.14819141f,     -0.04083403f,     -0.10384943f,     -0.02433178f,     -0.00486426f,     0.03615564f,     -0.01257107f,     0.09602601f, 
    -0.09268893f,     -0.04368458f,     -0.10991170f,     -0.04726572f,     0.00334057f,     0.01744700f,     0.02356308f,     -0.02041685f, 
    -0.15117948f,     -0.03792610f,     -0.01478526f,     0.12914352f,     0.04793858f,     -0.04036652f,     -0.08948833f,     -0.04987895f, 
    0.10962186f,     -0.10291158f,     0.04866694f,     -0.05885698f,     -0.10686438f,     -0.11354853f,     -0.10410786f,     -0.06296362f, 
    0.04940800f,     0.04359552f,     0.03121088f,     -0.09084474f,     0.11132339f,     0.13459647f,     0.06536470f,     0.02236039f, 
    0.01022550f,     0.12405147f,     0.10412633f,     0.02189329f,     -0.05148038f,     0.00703219f,     0.01911981f,     0.14415878f, 
    -0.06435200f,     -0.02663423f,     0.04363099f,     -0.08707437f,     0.15596457f,     -0.16166970f,     -0.15288863f,     -0.06434593f, 
    0.14054357f,     -0.04733944f,     0.06709710f,     0.15449433f,     -0.14178717f,     0.18285017f,     -0.05726501f,     -0.02026806f, 
    0.03699862f,     -0.05232389f,     0.21833511f,     0.00226199f,     -0.05865131f,     0.08295917f,     -0.08419398f,     -0.15434976f, 
    -0.04004805f,     -0.12785672f,     -0.01755153f,     0.03873338f,     0.14987566f,     0.05542718f,     0.05147658f,     0.02994372f, 
    -0.02694207f,     -0.08506852f,     0.02984195f,     -0.07925830f,     -0.04886063f,     0.04945580f,     -0.05840660f,     0.04385440f, 
    0.10028557f,     -0.04759998f,     0.11253549f,     0.00158831f,     0.09579846f,     -0.03544154f,     0.09625724f,     0.03478518f, 
    -0.02423432f,     -0.17120765f,     0.08623032f,     0.04456020f,     -0.12363932f,     0.02320039f,     0.03335837f,     0.13464683f, 
    -0.03511720f,     0.07515213f,     -0.01607320f,     0.15777309f,     0.00775125f,     -0.05746288f,     0.03435432f,     0.03476603f, 
    0.01080921f,     -0.10580654f,     0.10345524f,     0.07765605f,     -0.06575837f,     0.12742324f,     0.02509050f,     -0.07377335f, 
    -0.12564829f,     0.03300491f,     -0.04774105f,     0.08790417f,     0.05512382f,     0.05489864f,     0.07189491f,     -0.06137187f, 
    -0.02159275f,     -0.07624971f,     -0.09202080f,     0.12283296f,     0.12760273f,     0.09320793f,     0.02159355f,     0.08344237f, 
    0.05721086f,     -0.01062882f,     0.02167415f,     0.08109878f,     -0.04234295f,     -0.06595367f,     -0.18274926f,     0.06886968f, 
    -0.06166675f,     0.11067960f,     -0.00309919f,     -0.10425618f,     0.02018420f,     -0.09818341f,     -0.04089629f,     0.06719416f, 
    0.02521564f,     -0.00310604f,     0.11463702f,     -0.07863048f,     0.05797572f,     -0.11156781f,     0.09280916f,     -0.07752960f, 
    0.12269888f,     0.02736081f,     -0.01655232f,     -0.15738162f,     0.05417804f,     -0.04117658f,     -0.15127391f,     -0.02958083f, 
    -0.12421286f,     0.05108484f,     -0.00546021f,     0.02482556f,     0.12392878f,     0.06759049f,     -0.00239123f,     -0.00763737f, 
    0.08158065f,     -0.11540357f,     0.09434023f,     -0.17726356f,     0.03968976f,     0.06843161f,     -0.01623646f,     0.08424668f, 
    0.14724368f,     0.05572879f,     -0.01082915f,     0.11409555f,     -0.13958596f,     -0.09934634f,     -0.08778618f,     0.01672837f, 
    0.11253793f,     -0.07430036f,     0.08636108f,     0.04178785f,     -0.10575935f,     0.11065423f,     -0.05868346f,     0.14507775f, 
    -0.04353102f,     0.14705172f,     -0.12472454f,     -0.07543915f,     0.05134349f,     -0.05785947f,     0.05180407f,     0.04645040f, 
    0.10996590f,     0.02364592f,     -0.17134798f,     -0.06876899f,     -0.14753436f,     0.01167996f,     0.12697048f,     -0.07295607f, 
    0.13673148f,     -0.10037125f,     -0.00872968f,     -0.07966015f,     -0.07261313f,     0.01173507f,     -0.10177065f,     -0.13203786f, 
    -0.05440379f,     0.03660993f,     -0.19996899f,     0.02577990f,     -0.09353062f,     -0.02764128f,     0.05108824f,     -0.07658707f, 
    -0.00951723f,     0.08638836f,     -0.00658751f,     0.03193993f,     -0.08286949f,     0.11577995f,     -0.14973882f,     -0.08129451f, 
    0.04420691f,     0.09708588f,     -0.13338263f,     -0.16705972f,     -0.12085217f,     -0.10976783f,     0.12285473f,     0.01715296f, 
    0.11966615f,     0.07345939f,     0.03551179f,     -0.05043333f,     0.02411558f,     -0.17665488f,     -0.01931356f,     0.05022791f, 
    0.01464265f,     0.11863170f,     0.09382510f,     -0.09433493f,     -0.01021401f,     0.04023188f,     -0.13481715f,     -0.06411511f, 
    -0.11925052f,     0.00925646f,     -0.11435910f,     -0.09058829f,     -0.00669549f,     -0.13104869f,     -0.03849350f,     -0.15056424f, 
    -0.00529300f,     0.03798054f,     -0.14197583f,     0.07194819f,     -0.08337562f,     0.00643463f,     -0.07517195f,     -0.02811455f, 
    0.02731994f,     0.10066425f,     0.08357956f,     0.02683836f,     -0.06958460f,     -0.10936861f,     0.02319145f,     0.16785468f, 
    -0.13868544f,     0.17310213f,     0.14529036f,     0.12293646f,     0.05193663f,     0.02248174f,     0.06762034f,     0.02861879f, 
    0.03506127f,     0.02271866f,     -0.01541952f,     -0.09096902f,     0.01282526f,     0.05003766f,     -0.06479105f,     0.07983230f, 
    0.09194921f,     0.06313244f,     0.10024198f,     0.01221643f,     -0.12588790f,     -0.03479996f,     0.00634509f,     0.10356712f, 
    -0.00289668f,     -0.03868499f,     -0.03437960f,     0.11455475f,     0.11918494f,     -0.13749225f,     0.04822024f,     0.03862903f, 
    0.00977531f,     -0.00769073f,     0.02371972f,     -0.07022534f,     0.07663455f,     -0.03537691f,     0.06814192f,     -0.14829741f, 
    -0.10996915f,     0.01678150f,     0.10136288f,     -0.08874705f,     0.11701038f,     0.05875869f,     0.10139690f,     0.08357950f, 
    0.04102022f,     -0.03171642f,     0.04394370f,     -0.08556204f,     0.01480818f,     0.02897476f,     0.09508873f,     -0.08166791f, 
    -0.06850097f,     0.23789211f,     0.14712596f,     -0.09024078f,     -0.08841663f,     -0.04594379f,     -0.05955018f,     -0.01042423f, 
    -0.13981660f,     -0.05979927f,     -0.07900982f,     0.00284949f,     -0.02005693f,     -0.09578720f,     0.02882411f,     0.01115799f, 
    -0.16769797f,     0.03575192f,     0.07005262f,     -0.11208440f,     0.07479481f,     -0.07259090f,     -0.13972381f,     -0.11555909f, 
    -0.17894098f,     0.05848565f,     0.00485766f,     0.07415602f,     -0.04734367f,     0.03748668f,     -0.08188866f,     -0.04100759f, 
    0.06686058f,     -0.09552695f,     0.06723893f,     0.07152211f,     0.05063995f,     0.01821470f,     0.08715752f,     -0.05262522f, 
    -0.12569375f,     -0.10882908f,     0.10383946f,     -0.02417150f,     -0.03148503f,     -0.01930411f,     0.02538356f,     -0.11104210f, 
    -0.03881828f,     -0.12354581f,     0.08556325f,     0.11818806f,     0.04199081f,     -0.14739257f,     -0.03219503f,     -0.08761161f, 
    -0.08387794f,     -0.00176914f,     0.17889459f,     -0.06238178f,     -0.01690450f,     -0.09339183f,     0.01897747f,     -0.12014697f, 
    -0.02013857f,     -0.13786991f,     -0.11565722f,     -0.07280951f,     0.02530002f,     -0.10877150f,     -0.16991878f,     0.05765920f, 
    0.04546377f,     0.02676065f,     0.07213630f,     -0.12344123f,     -0.00562115f,     0.13373962f,     -0.11753673f,     0.01973155f, 
    0.03201406f,     -0.04437497f,     0.11558744f,     -0.04285309f,     0.04794937f,     -0.13140021f,     0.02463206f,     -0.03549322f, 
    0.09386727f,     -0.08257262f,     0.01190646f,     0.11435813f,     -0.00954754f,     -0.11031176f,     0.17260507f,     -0.00528937f, 
    -0.05136265f,     -0.08455728f,     0.01719216f,     0.05886437f,     0.10239287f,     0.07210236f,     -0.11561794f,     -0.13233264f, 
    0.07718356f,     -0.10586218f,     -0.08141921f,     -0.00217150f,     -0.08040288f,     0.00243731f,     0.03239985f,     -0.06890423f, 
    0.05363550f,     0.06034463f,     -0.29031286f,     -0.00730373f,     0.17262596f,     0.04357586f,     0.00644519f,     -0.15227976f, 
    -0.02528653f,     -0.06893845f,     -0.12533095f,     0.01833566f,     -0.03980906f,     -0.06904816f,     -0.03121264f,     -0.04882025f, 
    0.06887390f,     0.08571251f,     -0.10514340f,     0.12927148f,     -0.04791607f,     0.07712903f,     0.04909871f,     0.07536709f, 
    0.01439361f,     -0.06521597f,     -0.07790933f,     0.01414711f,     0.17008196f,     -0.12698482f,     0.12079792f,     -0.12658656f, 
    0.01010582f,     0.11308489f,     -0.03445704f,     -0.14725912f,     0.07803641f,     0.13811997f,     0.03458164f,     0.09518632f, 
    -0.02857582f,     -0.08136481f,     -0.16104111f,     -0.09072841f,     0.09186340f,     -0.09990976f,     0.03581272f,     0.02994831f, 
    -0.12777066f,     -0.03866598f,     0.00279173f,     0.09864422f,     0.04170443f,     0.05642240f,     -0.08227342f,     -0.05701528f, 
    -0.02371057f,     -0.05341033f,     -0.04888591f,     0.02768021f,     -0.25659308f,     -0.13057399f,     0.15407167f,     0.11342938f, 
    0.00055855f,     -0.10695378f,     0.09913498f,     -0.18454687f,     -0.05337854f,     -0.01006276f,     0.05441919f,     -0.13945156f, 
    -0.16534726f,     0.01047024f,     -0.12179603f,     -0.01644772f,     -0.11851759f,     0.08503371f,     0.09446491f,     0.10384873f, 
    0.06203450f,     -0.11329409f,     -0.06431968f,     0.00313877f,     0.12625206f,     -0.02100199f,     0.04645108f,     0.01733818f, 
    0.09787130f,     0.11791325f,     -0.03310653f,     0.05765399f,     0.10015178f,     -0.04584510f,     0.08536916f,     -0.02821320f, 
    -0.08692856f,     0.00814378f,     -0.14547154f,     0.01553729f,     0.11894067f,     -0.09041587f,     0.00929764f,     0.04066504f, 
    -0.04797167f,     -0.04458632f,     -0.14573182f,     -0.07890165f,     -0.06834479f,     -0.11862683f,     -0.03655544f,     -0.10327688f, 
    -0.14733340f,     -0.04198290f,     0.00504134f,     -0.10541456f,     -0.27679685f,     0.12444437f,     0.02899453f,     -0.00653762f, 
    0.06879698f,     -0.13193411f,     -0.07860426f,     -0.06527258f,     -0.17595625f,     -0.06583508f,     0.02754348f,     -0.04918191f, 
    -0.07264794f,     -0.07933132f,     -0.01785210f,     -0.08625977f,     0.06968626f,     -0.08516599f,     0.11721838f,     -0.03198864f, 
    -0.08364072f,     0.05892613f,     0.13907382f,     -0.14154068f,     0.00000387f,     0.00206171f,     -0.22736855f,     -0.16972975f, 
    -0.03069525f,     -0.13945493f,     0.06555387f,     0.01267775f,     0.03133624f,     0.09876063f,     -0.09741600f,     -0.15541770f, 
    0.05287319f,     0.09700369f,     -0.00187855f,     0.11694200f,     0.02516139f,     0.00741507f,     0.05864656f,     -0.14933924f, 
    -0.00433095f,     -0.12623869f,     -0.06747863f,     0.14410831f,     -0.11646738f,     -0.07631246f,     0.04322159f,     0.10435548f, 
    0.07604415f,     -0.15905121f,     -0.02584382f,     -0.00962245f,     -0.04910219f,     -0.00188838f,     0.06930053f,     0.13635233f, 
    0.02034092f,     0.09079566f,     -0.09885854f,     0.02657161f,     -0.03102214f,     -0.13321294f,     -0.04343648f,     0.02614349f, 
    0.06320800f,     -0.16184443f,     -0.09491869f,     -0.07150251f,     -0.06123768f,     -0.02509847f,     0.09222571f,     0.09101716f, 
    -0.19159749f,     -0.03950367f,     0.11434903f,     -0.01486557f,     0.19045325f,     0.11288384f,     -0.00697613f,     -0.13572687f, 
    -0.05366435f,     -0.09951451f,     0.20099260f,     -0.12309281f,     0.11077771f,     -0.06756556f,     0.00700105f,     -0.03369427f, 
    0.07561801f,     0.08554580f,     0.08355261f,     0.17372024f,     -0.03017154f,     0.09253299f,     0.20813091f,     -0.03956303f, 
    0.01443502f,     0.09113406f,     -0.00952825f,     -0.15737630f,     -0.02962795f,     -0.00738580f,     -0.02109883f,     -0.15827347f, 
    -0.04228503f,     -0.14387782f,     0.14971118f,     -0.05038897f,     0.07905527f,     -0.12009886f,     -0.12328261f,     0.07941017f, 
    0.10631179f,     -0.13917969f,     -0.09030826f,     0.07388870f,     0.01434643f,     -0.06908930f,     0.03697558f,     0.14599995f, 
    0.09389400f,     -0.10137211f,     -0.06010516f,     0.05635972f,     0.14821947f,     0.08545654f,     -0.00768046f,     0.01666547f, 
    0.08387294f,     0.00704871f,     -0.07900715f,     -0.00397746f,     0.08371955f,     0.13507672f,     0.09345441f,     0.13254176f, 
    0.12946461f,     0.04576434f,     -0.03382305f,     0.08820903f,     0.12335321f,     -0.00529933f,     0.09275050f,     -0.06340142f, 
    -0.11422162f,     -0.02638029f,     0.06813589f,     -0.01210437f,     0.09191288f,     -0.09222852f,     -0.12195093f,     0.08621442f, 
    0.02474239f,     0.07182729f,     0.13073003f,     -0.00538250f,     0.07829067f,     -0.13144913f,     0.11651548f,     0.02884019f, 
    0.07484747f,     0.11926211f,     0.07999474f,     0.14977138f,     -0.02482894f,     0.12299136f,     0.09385031f,     0.22217759f, 
    0.02367004f,     -0.02225588f,     0.00250176f,     0.13450401f,     -0.09815688f,     -0.00408802f,     -0.09348537f,     -0.06655245f, 
    0.17025211f,     0.08924059f,     -0.01857788f,     0.02202296f,     0.13255811f,     -0.01928542f,     -0.05600021f,     -0.10122826f, 
    -0.05040393f,     -0.01168672f,     0.06905469f,     -0.05852639f,     -0.00889589f,     -0.10670593f,     -0.03670434f,     0.15404870f, 
    -0.13447399f,     0.10725449f,     0.04611545f,     0.13305682f,     -0.11892414f,     -0.06504827f,     0.11204523f,     0.05276203f, 
    -0.07903637f,     0.02308556f,     -0.00042592f,     -0.07673849f,     -0.03469166f,     0.13527045f,     0.10104487f,     -0.02389152f, 
    -0.10278477f,     -0.08396102f,     0.15250283f,     0.04810095f,     -0.05768187f,     0.07699419f,     0.00546064f,     -0.09679750f, 
    -0.00287290f,     0.04216725f,     0.05100215f,     0.05192550f,     0.18034656f,     0.13268901f,     0.09222938f,     0.13007981f, 
    -0.21936984f,     -0.01402761f,     0.18735693f,     0.05471939f,     0.01630254f,     -0.06839311f,     -0.06807015f,     0.10035929f, 
    0.06563303f,     -0.10189886f,     -0.18927760f,     0.05793297f,     -0.05629908f,     0.06236180f,     -0.07433025f,     -0.07549617f, 
    0.10109932f,     -0.05180696f,     0.12388669f,     -0.01008067f,     -0.11864052f,     -0.03372260f,     -0.11427407f,     0.00479877f, 
    0.03019162f,     -0.03560215f,     0.13807653f,     -0.01078450f,     0.04302937f,     -0.06532273f,     0.05315543f,     0.13179514f, 
    0.08639384f,     0.02517458f,     0.13743536f,     -0.03426326f,     0.05247582f,     -0.06672887f,     0.05179442f,     0.04037895f, 
    0.05638639f,     -0.04556014f,     -0.03674082f,     -0.00762902f,     0.13275632f,     0.01308551f,     0.07226902f,     -0.10454080f, 
    0.14007832f,     -0.11197102f,     -0.11712326f,     0.10656732f,     0.02981493f,     -0.07455800f,     -0.04483643f,     0.13874426f, 
    -0.02227963f,     -0.18338424f,     0.05557201f,     0.17354372f,     -0.05185867f,     -0.03651914f,     -0.06080389f,     0.04395188f, 
    0.05881327f,     0.13727649f,     -0.09679396f,     0.00846413f,     0.03136348f,     -0.07909766f,     0.08938052f,     0.06618046f, 
    -0.12772952f,     0.01482662f,     0.03296249f,     -0.02407436f,     -0.03715133f,     0.01918523f,     0.00293134f,     0.09914099f, 
    0.15570410f,     -0.07715610f,     -0.11892057f,     0.05824928f,     -0.08403352f,     -0.10358010f,     -0.09950951f,     0.10264941f, 
    -0.13958646f,     -0.04497363f,     0.04279158f,     0.13043785f,     0.08379301f,     -0.01626398f,     -0.10692488f,     -0.20214130f, 
    -0.02151801f,     -0.01533877f,     0.00499615f,     0.01792075f,     0.10352480f,     -0.12897779f,     0.02173851f,     0.11137100f, 
    0.05051284f,     -0.02233572f,     0.11559463f,     0.07065666f,     -0.14820392f,     -0.06630151f,     -0.10658845f,     0.11588286f, 
    0.00157154f,     0.01663836f,     -0.15062572f,     0.41461888f,     -0.02263394f,     -0.07975509f,     -0.03098004f,     -0.09934066f, 
    -0.14372106f,     -0.22436313f,     0.10421533f,     -0.08513960f,     0.06022141f,     -0.06865907f,     0.03164491f,     -0.05611040f, 
    0.16086586f,     0.10995708f,     -0.06175862f,     -0.02205943f,     -0.11611713f,     -0.06338041f,     -0.13139477f,     -0.08353586f, 
    -0.01440428f,     -0.03644111f,     0.03321092f,     -0.10190345f,     -0.05247114f,     -0.09035501f,     0.10198372f,     -0.09693014f, 
    -0.06801882f,     0.09716295f,     -0.09271712f,     0.12585565f,     0.01345773f,     -0.01411593f,     -0.04776596f,     0.06082432f, 
    0.03642244f,     -0.01294498f,     0.12396266f,     0.13280648f,     0.08165769f,     0.09520523f,     -0.10184468f,     0.02514568f, 
    0.08599913f,     -0.11044599f,     -0.00629061f,     0.08836938f,     -0.05075787f,     0.00272729f,     0.05593399f,     -0.09901246f, 
    -0.01631035f,     -0.05182846f,     -0.09360202f,     0.21196596f,     0.13114147f,     0.14083415f,     0.17461823f,     0.11272477f, 
    0.09055027f,     0.02839104f,     0.14172512f,     0.20697610f,     0.15446377f,     -0.02033953f,     0.08628773f,     0.00087221f, 
    -0.05674351f,     -0.05686389f,     -0.05718909f,     -0.01280714f,     -0.03763358f,     0.03075321f,     0.03802591f,     0.23568708f, 
    -0.05725744f,     0.02915825f,     -0.07036627f,     -0.03827135f,     0.03681396f,     0.12942621f,     0.09298713f,     0.13500914f, 
    -0.01646548f,     -0.10470300f,     -0.11158660f,     -0.16045736f,     0.11859366f,     -0.09865750f,     -0.00286196f,     -0.08569577f, 
    -0.01200651f,     0.05444179f,     0.04294296f,     -0.08303333f,     -0.10750542f,     -0.14699833f,     0.01597339f,     -0.11484183f, 
    0.09977935f,     -0.07945770f,     -0.06202715f,     0.07171437f,     -0.08949938f,     0.04187730f,     -0.14181584f,     0.01637139f, 
    -0.02918578f,     0.03441687f,     -0.03404444f,     -0.01935832f,     -0.02076259f,     -0.04968091f,     0.06809427f,     -0.09598864f, 
    -0.07154641f,     -0.08567958f,     -0.05595876f,     -0.15701525f,     0.03311686f,     0.06635971f,     -0.09780660f,     0.05187884f, 
    -0.12019832f,     0.09656338f,     -0.03262642f,     0.08581310f,     -0.14458717f,     0.01801514f,     0.05373638f,     0.08590263f, 
    -0.07766820f,     -0.00744101f,     -0.15871428f,     0.07294028f,     0.09754992f,     0.08715717f,     -0.09014318f,     0.14074562f, 
    0.05292691f,     0.04498613f,     -0.04903477f,     -0.02032698f,     -0.11259263f,     -0.12325423f,     0.00762461f,     -0.04383130f, 
    -0.15636402f,     -0.18761049f,     -0.06584571f,     0.00254681f,     -0.11958931f,     -0.02266571f,     0.07742381f,     -0.09199897f, 
    -0.10142577f,     -0.04717954f,     -0.14766227f,     0.00003490f,     -0.01810909f,     -0.02582565f,     0.08592410f,     0.05575652f, 
    -0.01787403f,     0.12504077f,     -0.00679483f,     0.10388170f,     -0.01149388f,     0.22940721f,     -0.18433814f,     -0.00469041f, 
    -0.00957528f,     0.09647068f,     -0.00324287f,     -0.14009160f,     0.09509578f,     0.17543910f,     0.04881616f,     0.09985320f, 
    0.13287467f,     0.06982936f,     -0.14949569f,     0.05155224f,     0.05173238f,     0.14182085f,     -0.07582573f,     -0.08748206f, 
    0.07401819f,     0.08999668f,     0.08992974f,     0.13769154f,     -0.08006516f,     0.16454050f,     0.03546991f,     -0.12511259f, 
    0.06851995f,     -0.03517128f,     -0.05158635f,     0.09522685f,     -0.09493608f,     -0.00011806f,     -0.03217107f,     -0.08457202f, 
    0.06677663f,     -0.09642146f,     0.01865230f,     0.04309065f,     -0.10937615f,     -0.15085222f,     0.10569682f,     0.06865364f, 
    0.07777618f,     -0.05215156f,     -0.08896728f,     -0.05277071f,     -0.00899545f,     0.00080338f,     -0.06835262f,     -0.03297561f, 
    -0.08477402f,     0.14134236f,     -0.07896919f,     0.05406785f,     -0.10115324f,     -0.05652723f,     0.02085551f,     -0.07397961f, 
    -0.03532000f,     0.22648777f,     0.08283210f,     -0.00850457f,     0.06868967f,     0.21778457f,     -0.02308183f,     0.06393462f, 
    0.17930420f,     -0.00541460f,     0.06957612f,     -0.01879038f,     0.06690757f,     0.03101080f,     0.01285651f,     -0.09566895f, 
    -0.14741267f,     0.00507331f,     -0.14885217f,     0.02063448f,     0.01097509f,     -0.07958991f,     0.02469298f,     -0.01013301f, 
    -0.14132759f,     -0.04294204f,     -0.00753729f,     0.01276321f,     -0.02318390f,     -0.00850380f,     0.12089276f,     0.01802763f, 
    -0.11867508f,     0.01192879f,     -0.01992715f,     -0.11879510f,     0.08186146f,     -0.00441013f,     -0.10427501f,     0.01924985f, 
    0.14443462f,     -0.07728391f,     0.07487927f,     -0.02783793f,     -0.01014344f,     -0.12249590f,     -0.11944404f,     0.00856464f, 
    -0.11582740f,     -0.00014790f,     -0.08967847f,     -0.04547160f,     -0.09765838f,     0.11384356f,     0.03026302f,     0.07625186f, 
    0.08072818f,     -0.12036180f,     -0.01230896f,     0.11822466f,     -0.07283794f,     -0.03385276f,     -0.07209761f,     0.08282944f, 
    0.01951018f,     0.04231384f,     -0.07815371f,     0.07463063f,     -0.05000718f,     -0.16850407f,     0.08414418f,     -0.07315765f, 
    -0.12004080f,     -0.13580330f,     -0.11830758f,     0.05213988f,     -0.01069961f,     0.09847319f,     -0.02859604f,     -0.04925592f, 
    0.01521300f,     -0.11948088f,     -0.08653251f,     0.12359324f,     0.06598651f,     -0.11855395f,     -0.10093810f,     -0.00153821f, 
    0.06513797f,     0.03609856f,     -0.13859972f,     0.07508155f,     -0.00267990f,     0.07493944f,     -0.00995964f,     0.13509279f, 
    0.06026693f,     -0.03566427f,     0.07195619f,     -0.12530223f,     -0.06109482f,     -0.03409867f,     -0.01726334f,     -0.04318534f, 
    -0.03274519f,     0.04528956f,     -0.09080319f,     0.01877573f,     -0.08748715f,     0.02196908f,     0.12322449f,     0.17311835f, 
    -0.28377345f,     0.01197365f,     -0.06981319f,     -0.11482607f,     0.10620392f,     -0.13812171f,     0.03847480f,     0.04268511f, 
    0.09676069f,     -0.13405325f,     -0.09448989f,     -0.11229579f,     -0.02464731f,     0.07166146f,     -0.14521585f,     0.05947501f, 
    0.03616734f,     0.04429387f,     0.02836506f,     0.02707460f,     -0.07368256f,     -0.03801377f,     0.02322049f,     0.01214221f, 
    0.09049811f,     0.00885421f,     0.13222130f,     -0.13550106f,     -0.02582677f,     -0.15742780f,     -0.04151884f,     0.04861977f, 
    0.03330222f,     0.00338228f,     -0.07797489f,     0.09721129f,     -0.02051804f,     -0.08088945f,     0.04280651f,     0.10239989f, 
    0.00838118f,     -0.07014564f,     -0.08112961f,     0.00859044f,     -0.07122667f,     -0.09876528f,     0.04554520f,     -0.09381239f, 
    0.08607324f,     0.09353160f,     0.07962769f,     0.00446351f,     -0.01853425f,     0.05512985f,     -0.00460434f,     -0.11349425f, 
    -0.00958411f,     -0.15583855f,     -0.05526826f,     -0.10907850f,     -0.10734704f,     -0.12692456f,     -0.10251420f,     0.05560998f, 
    -0.21823646f,     -0.17702658f,     -0.06866886f,     0.06912654f,     0.01264759f,     -0.00483511f,     0.07361519f,     0.05104754f, 
    0.02203338f,     0.04135763f,     -0.00770973f,     -0.18084043f,     0.00362911f,     0.02206257f,     -0.04631123f,     0.06571478f, 
    0.10547167f,     -0.00248232f,     0.16902892f,     0.04317634f,     -0.08008572f,     -0.06527546f,     0.03516134f,     -0.07895622f, 
    -0.12055657f,     0.12377806f,     -0.00544076f,     -0.05590535f,     -0.11914749f,     -0.09891987f,     0.14226721f,     -0.05636166f, 
    0.18767816f,     0.01803284f,     -0.09490081f,     0.12403727f,     -0.13281557f,     -0.10107262f,     0.13223711f,     -0.02801578f, 
    0.01289019f,     0.00885310f,     0.03237378f,     0.17304792f,     0.04988829f,     -0.04805627f,     -0.12017751f,     -0.10689688f, 
    -0.10267381f,     -0.00285699f,     -0.05865274f,     -0.03512359f,     -0.22127123f,     -0.07477017f,     -0.07139303f,     -0.00665722f, 
    -0.07976829f,     -0.14304009f,     -0.02787418f,     -0.03189484f,     0.06072444f,     0.01388282f,     0.02861469f,     0.14548320f, 
    0.12066041f,     0.01778127f,     -0.06461588f,     -0.07316044f,     0.05485532f,     0.06825047f,     0.06450334f,     -0.08728407f, 
    0.05160325f,     0.02715207f,     0.03810069f,     0.12183677f,     0.13532373f,     -0.05777512f,     0.16077484f,     0.07893261f, 
    0.03311401f,     0.07920300f,     -0.02012603f,     0.12135348f,     0.06524003f,     0.04195094f,     -0.02276779f,     -0.00543831f, 
    0.13756956f,     -0.14223327f,     -0.08831935f,     0.08578192f,     0.05249692f,     0.00010361f,     -0.00856235f,     -0.04363609f, 
    0.08988348f,     0.01703032f,     -0.12407114f,     0.00063967f,     0.04601389f,     0.01142067f,     -0.02931571f,     -0.09120467f, 
    0.00769252f,     -0.09048624f,     0.07316176f,     0.22243629f,     -0.27158761f,     0.10543794f,     0.05982640f,     0.15059458f, 
    -0.05022772f,     -0.05657266f,     0.01542268f,     -0.06015275f,     0.07641427f,     -0.14169037f,     0.04307388f,     0.05761363f, 
    0.02964118f,     -0.12110660f,     0.06005147f,     0.00392526f,     -0.08172040f,     -0.06691724f,     0.02049758f,     -0.11567166f, 
    0.00826789f,     0.11300972f,     0.13099012f,     -0.21360445f,     0.03182499f,     0.06566338f,     -0.01717561f,     -0.08008712f, 
    -0.03707704f,     0.01622799f,     0.03588137f,     0.08729815f,     0.17490509f,     0.04943952f,     -0.19225180f,     0.00521344f, 
    -0.11143559f,     -0.19398791f,     -0.11560470f,     -0.10652040f,     -0.12314308f,     0.04154741f,     -0.08784516f,     0.04074419f, 
    0.01234147f,     -0.12782449f,     0.04201096f,     0.09394342f,     0.15807658f,     -0.00464275f,     0.13556552f,     -0.00503357f, 
    -0.01678922f,     -0.03258288f,     0.00649259f,     0.18830441f,     -0.18406253f,     0.25360426f,     -0.18359153f,     -0.03902435f, 
    0.03049009f,     0.06583244f,     -0.02244405f,     -0.07961366f,     0.12520291f,     -0.11293010f,     -0.09783713f,     -0.14796725f, 
    0.15941282f,     -0.04432319f,     -0.10763324f,     -0.07922984f,     0.17474896f,     0.15973613f,     -0.10143792f,     0.07457772f, 
    -0.00594178f,     -0.00979012f,     -0.12664035f,     0.16459069f,     -0.06082250f,     -0.03468517f,     -0.11561381f,     -0.11273561f, 
    0.10674136f,     0.11495657f,     0.01022292f,     0.08196576f,     0.05036297f,     0.07100512f,     0.04433302f,     -0.01036014f, 
    0.08094306f,     -0.02559027f,     0.05091822f,     -0.07986446f,     -0.12260633f,     -0.02019196f,     -0.09233515f,     0.15235133f, 
    0.04834060f,     0.00476812f,     -0.12455104f,     0.05985097f,     0.06291828f,     0.10089779f,     0.05231197f,     0.04813232f, 
    0.04753361f,     0.13821825f,     -0.01746775f,     0.00737474f,     0.05542769f,     0.09122366f,     0.08557860f,     -0.11176342f, 
    0.06251319f,     0.11260584f,     0.16698770f,     0.08942583f,     0.24506694f,     0.23925856f,     0.05437194f,     -0.01629949f, 
    0.16354832f,     -0.09433948f,     0.07609254f,     0.02650227f,     -0.16962135f,     -0.05376302f,     0.06267742f,     -0.16250572f, 
    -0.09272735f,     -0.00150712f,     -0.09497514f,     -0.08296847f,     -0.06163551f,     0.01345630f,     0.13455765f,     -0.15176971f, 
    -0.02735561f,     -0.07847736f,     0.04281124f,     0.10599209f,     -0.01696740f,     0.09530880f,     0.15374133f,     -0.02944866f, 
    -0.08075347f,     -0.13984843f,     0.16769741f,     -0.14246525f,     -0.11375032f,     -0.08796380f,     0.12861361f,     0.02525695f, 
    -0.00322118f,     0.09539218f,     0.10671252f,     -0.01301769f,     -0.06363261f,     0.10691445f,     0.01237785f,     0.03002913f, 
    -0.03871362f,     -0.14809969f,     -0.03519671f,     -0.14713480f,     0.01855402f,     -0.12990694f,     0.06504156f,     0.10997654f, 
    -0.06184022f,     -0.03350687f,     -0.00465954f,     -0.11964836f,     0.00410769f,     -0.14630480f,     -0.09566079f,     0.14136480f, 
    0.11925683f,     0.09299091f,     -0.08321606f,     0.05963239f,     0.04225416f,     -0.09296297f,     0.16621809f,     0.13092183f, 
    -0.08788296f,     0.06769793f,     -0.10292728f,     -0.06625856f,     0.08855557f,     0.14190821f,     -0.08270150f,     0.03087397f, 
    0.07958423f,     0.06494056f,     -0.07864337f,     -0.11092073f,     0.14621320f,     -0.01668885f,     -0.17084906f,     0.00013741f, 
    0.07202750f,     0.11762294f,     0.15207577f,     -0.03410520f,     -0.00173662f,     -0.02427985f,     -0.16663040f,     0.04041935f, 
    0.00915138f,     0.14831218f,     0.00534907f,     0.00946375f,     0.07986394f,     -0.09670507f,     0.16560432f,     0.06009817f, 
    -0.00235841f,     -0.02846902f,     -0.09203522f,     0.20239773f,     -0.11006279f,     -0.10202539f,     0.15716201f,     0.12295014f, 
    0.01482856f,     -0.06825252f,     0.04597315f,     -0.01128258f,     -0.00156226f,     0.00934391f,     -0.01678932f,     0.21419644f, 
    0.14237389f,     -0.04478936f,     0.02805141f,     -0.01396252f,     -0.07330499f,     -0.02323907f,     -0.02342530f,     -0.09402405f, 
    -0.06491544f,     -0.15143424f,     -0.02789580f,     0.07831585f,     -0.07793532f,     0.00443430f,     -0.05303231f,     0.07953711f, 
    -0.07974459f,     -0.10363493f,     -0.02948120f,     -0.07361080f,     0.08162072f,     0.05273461f,     -0.05687761f,     0.08724137f, 
    0.11452111f,     -0.02592139f,     0.09867009f,     0.07512712f,     -0.16332093f,     0.00122413f,     0.08316227f,     -0.01145131f, 
    0.04881549f,     -0.03405559f,     -0.06151374f,     0.13854679f,     -0.11821000f,     0.11332645f,     -0.16727978f,     -0.08090605f, 
    0.03910864f,     -0.12942888f,     0.08376125f,     -0.05309232f,     0.06671048f,     0.06730061f,     -0.09226783f,     -0.01074628f, 
    -0.06840497f,     0.11282180f,     0.02914812f,     -0.21199487f,     -0.03321769f,     0.01176992f,     -0.08113863f,     -0.24749509f, 
    0.20404708f,     -0.03146454f,     0.06194060f,     -0.03273640f,     0.03711309f,     0.14703771f,     -0.08437800f,     0.06031679f, 
    -0.12312486f,     -0.00715925f,     0.05881878f,     0.14080893f,     0.10163423f,     0.08441482f,     0.03431542f,     0.11214668f, 
    -0.16022915f,     -0.03443092f,     -0.12192545f,     -0.08127306f,     -0.03107725f,     -0.09358700f,     0.09717996f,     0.07995678f, 
    -0.10097678f,     -0.08536719f,     0.07532693f,     0.03052549f,     0.00920743f,     -0.07468555f,     -0.12233996f,     -0.06388862f, 
    0.01593029f,     -0.15737100f,     -0.02194795f,     -0.13361043f,     -0.12262095f,     0.08844809f,     0.12441479f,     -0.03452823f, 
    -0.07334046f,     0.12777784f,     0.07270834f,     0.03356493f,     -0.05999389f,     0.06131539f,     0.05472471f,     0.03753300f, 
    0.08685575f,     0.03615228f,     -0.31836423f,     -0.01902937f,     0.09331553f,     0.15007010f,     0.00949905f,     0.11556921f, 
    0.09089917f,     -0.14661159f,     0.01555404f,     0.13984114f,     0.16846865f,     -0.00374746f,     -0.05325814f,     0.09238406f, 
    -0.01363510f,     0.04631378f,     0.13216828f,     -0.07123590f,     -0.00080505f,     -0.01047725f,     0.09974360f,     -0.06722384f, 
    0.05506330f,     0.07833038f,     -0.17266923f,     -0.12582289f,     -0.03926295f,     -0.04555772f,     -0.00395964f,     0.07244284f, 
    0.02525263f,     0.07042581f,     -0.03715881f,     -0.00223761f,     -0.16238502f,     -0.04516345f,     -0.06683199f,     -0.03183137f, 
    0.09686140f,     -0.17523134f,     0.01025192f,     -0.08003704f,     0.02016914f,     -0.01509441f,     -0.07102218f,     -0.01052341f, 
    -0.03161042f,     0.11820235f,     -0.09107280f,     -0.08055517f,     -0.09172092f,     -0.10991415f,     0.14329037f,     0.10779149f, 
    0.02259484f,     -0.04741810f,     -0.08055532f,     -0.07761078f,     -0.14418834f,     0.05245218f,     -0.10893709f,     -0.01429414f, 
    -0.18273921f,     0.05274576f,     0.10183184f,     -0.13065839f,     0.11873766f,     -0.13521375f,     0.03031921f,     0.09600864f, 
    0.01269965f,     0.13964643f,     0.03107955f,     -0.01784091f,     0.09833824f,     0.15382798f,     -0.18150935f,     0.12447532f, 
    0.11107502f,     -0.11222412f,     -0.06126173f,     -0.05895547f,     -0.08783988f,     -0.11604200f,     -0.07328656f,     0.04664651f, 
    0.04579327f,     -0.12304393f,     0.06134089f,     -0.03195163f,     0.05677882f,     0.00798638f,     0.14394946f,     0.13100888f, 
    0.15032816f,     0.11057343f,     0.08080287f,     0.06284969f,     0.01434347f,     0.03870551f,     0.17888741f,     -0.09798687f, 
    -0.02655608f,     0.17118120f,     0.06535218f,     -0.09041764f,     0.13090789f,     -0.07027026f,     0.09303293f,     0.00977743f, 
    -0.09710313f,     -0.15786365f,     0.09693953f,     0.00773889f,     -0.01611095f,     -0.13553086f,     -0.13793066f,     0.06432936f, 
    0.03843253f,     -0.07464754f,     -0.01262082f,     -0.14367162f,     0.06603847f,     -0.05068165f,     0.17730345f,     -0.04054591f, 
    0.11082535f,     -0.14780475f,     -0.10503160f,     0.03784517f,     -0.01236035f,     -0.04096256f,     0.08804699f,     -0.09126798f, 
    -0.11546589f,     0.06584585f,     0.09161529f,     0.06016598f,     0.12364119f,     -0.17445171f,     -0.15688333f,     0.03241547f, 
    0.13724138f,     -0.05993880f,     0.03649662f,     -0.00564357f,     -0.04959570f,     -0.10504635f,     0.07519820f,     0.10113025f, 
    0.05875553f,     -0.03398513f,     -0.06615230f,     0.10514206f,     -0.03799644f,     -0.02256705f,     -0.08422863f,     0.08246432f, 
    -0.12398001f,     -0.01933574f,     0.02053521f,     -0.04022537f,     -0.04538893f,     0.06434526f,     -0.08096185f,     -0.19341578f, 
    -0.00088866f,     0.06324238f,     0.01821256f,     -0.00004160f,     0.00014451f,     0.06837919f,     -0.09261794f,     -0.02072138f, 
    0.11340819f,     -0.04838552f,     -0.05445161f,     0.14043219f,     -0.07049945f,     -0.06684294f,     0.17788884f,     0.05643067f, 
    0.05346198f,     0.09706207f,     0.05391589f,     0.06309040f,     0.11585932f,     -0.01198627f,     -0.02217202f,     0.08779227f, 
    0.12515038f,     -0.11322231f,     -0.10621275f,     -0.04694263f,     0.03508520f,     0.06615663f,     -0.02830189f,     -0.08283961f, 
    -0.07246370f,     0.00135936f,     -0.06873902f,     0.12306146f,     0.09445709f,     0.02796515f,     0.07962321f,     -0.10824369f, 
    0.08613885f,     -0.09381077f,     0.02924367f,     0.14147352f,     -0.03504357f,     -0.10133033f,     0.06901903f,     0.03684102f, 
    -0.12190309f,     0.03767988f,     -0.03794759f,     -0.12528491f,     -0.10734726f,     -0.03033484f,     0.04208948f,     -0.12288872f, 
    -0.03409132f,     0.05508612f,     0.04045323f,     -0.00706062f,     0.10410505f,     0.25605765f,     -0.09566878f,     0.06045276f, 
    0.17362198f,     -0.04940526f,     -0.01058812f,     -0.02928572f,     0.15540887f,     0.03701717f,     -0.06638496f,     -0.06041100f, 
    -0.05768035f,     0.06707061f,     -0.07444269f,     0.07909805f,     0.08090924f,     0.11368556f,     -0.04570476f,     -0.06548324f, 
    0.06293912f,     0.11173043f,     0.06314661f,     -0.07534774f,     0.14370456f,     0.07232167f,     -0.00526665f,     -0.02993818f, 
    -0.16036844f,     -0.05275029f,     -0.07444732f,     0.06084513f,     0.04194986f,     -0.06607949f,     0.05696888f,     -0.01242374f, 
    -0.07922567f,     -0.04733957f,     -0.01824657f,     -0.05377481f,     0.11805742f,     -0.08187723f,     0.05860754f,     -0.01240618f, 
    0.07464660f,     0.10142378f,     0.12761293f,     0.14554541f,     0.11722366f,     0.07082153f,     0.04731926f,     0.08775166f, 
    0.00455472f,     0.10611565f,     0.03144875f,     -0.11781006f,     -0.10448305f,     -0.00348052f,     -0.16273248f,     0.14880155f, 
    0.11436187f,     -0.00240452f,     0.03598384f,     0.01781760f,     -0.07864869f,     0.04468725f,     -0.11019260f,     0.00138188f, 
    0.09344999f,     0.14767762f,     -0.14045565f,     0.05924367f,     -0.09230786f,     -0.05126192f,     0.02713772f,     -0.01073968f, 
    0.09659562f,     -0.14711042f,     0.02285952f,     0.00712818f,     0.06427564f,     0.10860851f,     0.07897757f,     0.05620897f, 
    0.09387989f,     -0.03984836f,     -0.09877433f,     -0.12329165f,     0.07917232f,     0.08841626f,     -0.10400578f,     0.05086303f, 
    0.04599617f,     0.10083487f,     -0.00833881f,     0.12209301f,     0.00245320f,     0.00824961f,     0.03435995f,     0.07201965f, 
    -0.01226508f,     0.08328465f,     0.02889939f,     0.00258048f,     -0.02603559f,     -0.01719163f,     -0.05146592f,     0.01843435f, 
    -0.00400040f,     -0.11707319f,     -0.08772139f,     0.16393469f,     0.02261314f,     0.05900767f,     0.09310476f,     0.16134490f, 
    0.06117629f,     0.02261829f,     0.00383899f,     0.05840483f,     0.15858223f,     -0.09359059f,     -0.00681742f,     0.16370866f, 
    0.18717754f,     -0.14101893f,     0.08692935f,     0.06096672f,     0.13240568f,     0.08742523f,     0.08381839f,     -0.11429968f, 
    0.08878914f,     0.11140700f,     0.09096304f,     0.11044715f,     0.03010779f,     0.05022005f,     -0.02038758f,     0.01366006f, 
    0.12326811f,     -0.06287806f,     0.03141595f,     0.01780453f,     0.11623157f,     0.13050643f,     0.04348529f,     0.02820693f, 
    -0.05945918f,     0.07845866f,     0.08478732f,     -0.01703435f,     -0.07802709f,     0.02891802f,     0.02558056f,     0.11150141f, 
    -0.04785126f,     0.12604450f,     0.09679781f,     0.00276519f,     0.14942299f,     -0.00400625f,     0.07782256f,     -0.04444732f, 
    0.04395770f,     0.09773175f,     0.11559465f,     0.00981062f,     0.12105979f,     -0.05051415f,     0.06759721f,     0.02121964f, 
    -0.15736859f,     0.23935002f,     -0.04762989f,     -0.10757490f,     -0.07563308f,     0.00664070f,     -0.08067125f,     -0.17141953f, 
    0.19270258f,     0.01553632f,     -0.13062747f,     0.01635686f,     -0.10569064f,     0.11993609f,     0.06898442f,     -0.10419910f, 
    -0.09830065f,     0.03027192f,     -0.06902284f,     0.09786210f,     0.01333795f,     0.07285117f,     0.11628844f,     0.08246251f, 
    0.03613648f,     -0.08299679f,     -0.07940642f,     0.14511444f,     -0.02956709f,     -0.02927161f,     -0.11086969f,     -0.07649371f, 
    -0.01402380f,     0.01661098f,     0.12742811f,     -0.03917100f,     -0.04659320f,     -0.06751364f,     -0.08829965f,     0.05142975f, 
    -0.01528248f,     0.01974922f,     0.02399007f,     0.05993773f,     0.03828165f,     0.01065113f,     -0.01974105f,     0.05196059f, 
    0.03553891f,     0.13093506f,     -0.03596802f,     -0.01048722f,     0.01841355f,     0.06366713f,     0.01993294f,     0.14209244f, 
    0.15337157f,     0.23074210f,     0.11243726f,     0.14270987f,     -0.00782718f,     -0.03508860f,     0.06340478f,     0.09687383f, 
    -0.00072119f,     0.07937554f,     0.03511423f,     0.00429570f,     -0.10933126f,     -0.05301890f,     -0.09502744f,     -0.02326474f, 
    0.02000338f,     0.11926845f,     -0.08158560f,     -0.05980521f,     -0.13553263f,     -0.05760860f,     -0.08092351f,     -0.05320303f, 
    -0.05588751f,     -0.04898234f,     -0.23647487f,     -0.18263383f,     0.04696137f,     0.01450307f,     -0.02917279f,     -0.17390546f, 
    0.05372445f,     -0.03004413f,     0.17970595f,     0.05575673f,     0.01026342f,     0.02231336f,     0.05075797f,     0.01005484f, 
    -0.04161869f,     -0.03043853f,     0.08705299f,     0.10516486f,     0.06007950f,     -0.13758469f,     0.06179644f,     -0.00150597f, 
    -0.07137050f,     0.02366520f,     -0.03789083f,     -0.09742173f,     -0.14999340f,     0.05022323f,     -0.04941684f,     -0.03431816f, 
    0.03863006f,     0.05594375f,     -0.05506006f,     0.14967524f,     0.27840197f,     0.01114262f,     -0.15898791f,     -0.14561117f, 
    -0.04475277f,     -0.11606346f,     0.07561175f,     0.11970744f,     0.03127044f,     -0.17307752f,     0.14580090f,     -0.01673088f, 
    0.11854007f,     0.06940017f,     0.14343214f,     0.04340800f,     -0.08641414f,     0.03842559f,     0.10539234f,     -0.09384599f, 
    0.07655284f,     0.04160929f,     0.03249806f,     0.11270213f,     0.01282207f,     -0.10878890f,     -0.10034601f,     0.05687373f, 
    0.08117291f,     0.09273931f,     -0.08040188f,     0.06506199f,     -0.03123892f,     0.10373923f,     -0.02288874f,     0.11508434f, 
    0.06155461f,     0.11231498f,     -0.02150519f,     -0.06429529f,     -0.09518322f,     -0.09159404f,     -0.01533148f,     -0.13176569f, 
    0.00669441f,     -0.08136610f,     -0.05097083f,     0.05738176f,     -0.06060394f,     0.11670139f,     -0.18312803f,     -0.06851549f, 
    0.10811127f,     0.07094365f,     -0.13072020f,     0.14374077f,     0.02894920f,     -0.08467028f,     -0.04744776f,     0.02320672f, 
    0.00885061f,     0.06100276f,     0.01822503f,     0.10900047f,     0.10142072f,     0.19146250f,     -0.08607777f,     -0.02751709f, 
    0.08819641f,     0.03110960f,     0.09586709f,     -0.06910888f,     0.11061174f,     0.11806908f,     0.03041038f,     -0.10261933f, 
    0.08391303f,     -0.10290930f,     0.14514531f,     -0.02177523f,     0.00816409f,     0.09524190f,     0.11719553f,     0.15432328f, 
    0.16228653f,     -0.04505657f,     0.04532434f,     -0.09444544f,     0.07300166f,     0.12970829f,     0.07766809f,     -0.07857807f, 
    -0.15786844f,     -0.06779362f,     0.00898359f,     0.00771278f,     0.03769916f,     0.12451220f,     0.01516558f,     0.13382192f, 
    0.04280600f,     -0.09450901f,     0.04149239f,     -0.11390410f,     0.13876146f,     -0.08560695f,     -0.04264173f,     -0.06616976f, 
    -0.06110523f,     -0.13818502f,     0.13116832f,     0.14681494f,     0.09328622f,     -0.00425990f,     0.10333829f,     0.14112622f, 
    -0.05710156f,     -0.10857222f,     -0.07586395f,     0.09613877f,     0.00498181f,     -0.01133516f,     0.10632512f,     0.02827336f, 
    0.02433923f,     -0.00637166f,     -0.00312638f,     -0.01235675f,     -0.02438689f,     0.06386468f,     0.15581597f,     -0.02221880f, 
    0.11277850f,     0.02606452f,     0.10787049f,     -0.12577997f,     0.11202808f,     -0.09570929f,     -0.00634882f,     0.03880729f, 
    -0.05327614f,     -0.08182719f,     -0.03647622f,     -0.07997191f,     -0.01087028f,     0.00873995f,     0.01724146f,     0.00173443f, 
    -0.07277960f,     0.03419867f,     -0.08327231f,     0.19224487f,     0.04869880f,     0.03903773f,     -0.00230259f,     -0.06840002f, 
    0.14796093f,     -0.00724388f,     0.05583597f,     0.10594123f,     0.05268596f,     0.01194195f,     0.16831064f,     -0.03656959f, 
    0.16029429f,     0.06117228f,     0.11048909f,     0.05737362f,     0.07109848f,     -0.01690287f,     0.10266790f,     -0.09173370f, 
    -0.05334396f,     0.09773801f,     -0.00510462f,     -0.05655178f,     -0.04720979f,     -0.13366297f,     0.01816688f,     0.03484150f, 
    0.07231541f,     0.16614614f,     0.01031256f,     0.06120154f,     0.06451637f,     0.03703565f,     -0.06045990f,     -0.09262192f, 
    0.02461113f,     -0.13031207f,     -0.08539481f,     -0.03792007f,     -0.04086080f,     -0.17226991f,     0.08402899f,     0.02045352f, 
    -0.01356910f,     -0.13495031f,     0.10959369f,     0.03874088f,     0.12234563f,     -0.04745494f,     0.01449804f,     -0.00117002f, 
    -0.14884880f,     -0.08246540f,     -0.09353241f,     0.13866350f,     -0.09442725f,     -0.05672814f,     0.08878665f,     -0.12015539f, 
    -0.05334458f,     0.02945996f,     -0.06550295f,     -0.03283393f,     -0.03421994f,     0.06582490f,     0.02455580f,     0.03906392f, 
    -0.06396376f,     0.12371366f,     0.00396177f,     0.04988187f,     0.00880082f,     0.05006966f,     -0.22563624f,     -0.03729110f, 
    0.00779113f,     -0.16754499f,     -0.07164161f,     -0.18419598f,     -0.01108166f,     -0.13078094f,     -0.12302815f,     -0.03192312f, 
    -0.01148816f,     0.01005914f,     0.10905303f,     0.15868270f,     -0.06366783f,     -0.09814809f,     -0.11844923f,     -0.02608353f, 
    -0.01914094f,     -0.08875043f,     -0.08909867f,     -0.13641271f,     -0.12488902f,     0.07190420f,     -0.05230768f,     -0.10720186f, 
    0.01145930f,     -0.01955077f,     -0.02038889f,     0.04666441f,     0.06096378f,     0.04953632f,     0.02672143f,     0.05025010f, 
    0.04387447f,     -0.02513602f,     -0.13399433f,     0.07282744f,     -0.15682755f,     -0.09358332f,     0.08188820f,     -0.05974760f, 
    0.06482395f,     0.04261717f,     -0.14743574f,     -0.00632170f,     0.05105184f,     0.14033093f,     0.03686881f,     0.10538568f, 
    -0.07391147f,     0.13256459f,     0.07812170f,     0.12869854f,     -0.07899860f,     -0.03104615f,     0.03352941f,     0.14178962f, 
    0.01360655f,     0.06447627f,     0.02530097f,     0.03484516f,     -0.05450410f,     0.13371654f,     0.09096233f,     0.05133934f, 
    0.10848793f,     0.02062429f,     -0.07648738f,     0.08042933f,     -0.02458754f,     -0.15318923f,     0.00867564f,     -0.07644130f, 
    0.08316936f,     -0.07647005f,     -0.03546155f,     -0.01884987f,     -0.06621531f,     -0.05872427f,     -0.04340668f,     0.04945707f, 
    -0.15344189f,     -0.12253494f,     -0.14355357f,     -0.11946756f,     0.04713651f,     0.07715359f,     -0.01882731f,     -0.02171277f, 
    -0.04287183f,     0.09151118f,     -0.11223536f,     0.08585078f,     -0.08422858f,     0.01401648f,     0.03879872f,     -0.04046490f, 
    0.10510419f,     -0.06828681f,     0.13662286f,     -0.01512305f,     -0.08329491f,     -0.14728577f,     0.05712027f,     0.08733802f, 
    -0.07503061f,     0.13269939f,     -0.06534345f,     -0.04508401f,     0.00453291f,     0.08078654f,     -0.06501991f,     -0.10792764f, 
    -0.25267458f,     0.09197915f,     0.06121280f,     0.00486730f,     -0.00549846f,     0.00937329f,     0.09996302f,     0.05011219f, 
    0.04838645f,     -0.07598959f,     -0.11858037f,     -0.09836082f,     0.13044912f,     0.07310806f,     -0.00823205f,     -0.02627300f, 
    0.09835178f,     0.03531674f,     0.03811890f,     -0.00209577f,     0.00950930f,     0.03626921f,     -0.05987890f,     -0.00752108f, 
    0.05690083f,     -0.02428027f,     0.12374120f,     0.15918933f,     0.01242768f,     -0.04164568f,     -0.11070044f,     0.10521926f, 
    0.05387547f,     -0.08668539f,     -0.13237536f,     -0.00679131f,     0.09842821f,     -0.08638765f,     0.13274002f,     -0.08259111f, 
    0.07590309f,     0.11924981f,     -0.04259379f,     -0.00657879f,     -0.09749267f,     -0.00723374f,     -0.04014395f,     0.06976641f, 
    0.01713088f,     0.13695034f,     0.05293111f,     -0.08439268f,     0.18552597f,     0.13761902f,     0.12791550f,     -0.04885601f, 
    -0.08401334f,     0.09846538f,     -0.03963599f,     0.20851560f,     0.08757946f,     -0.00954544f,     0.00361611f,     -0.21936670f, 
    0.11852849f,     0.07132031f,     -0.10358290f,     -0.05588946f,     -0.11170462f,     -0.13088039f,     -0.08412743f,     0.03015871f, 
    0.04747884f,     -0.08583452f,     0.04526655f,     -0.05910640f,     0.01923812f,     0.09549351f,     -0.00837394f,     -0.00408101f, 
    -0.00030422f,     -0.11717246f,     0.14575157f,     0.02449768f,     -0.09704082f,     -0.08544201f,     -0.10051718f,     -0.08684752f, 
    -0.08829435f,     0.06617513f,     0.10760769f,     -0.04190111f,     -0.13132614f,     -0.10994554f,     -0.10976830f,     -0.04658323f, 
    0.03037148f,     0.12834232f,     -0.11240807f,     -0.13918485f,     -0.09550279f,     -0.00864377f,     0.05901252f,     0.02702781f, 
    0.09633487f,     0.05478236f,     -0.08470132f,     -0.04584081f,     -0.07383361f,     -0.01367959f,     0.05656001f,     0.00066847f, 
    -0.03829876f,     -0.08374473f,     -0.07072639f,     0.01081475f,     0.01423049f,     -0.04916647f,     -0.16791666f,     -0.11487891f, 
    -0.07853228f,     -0.19241279f,     -0.24880141f,     -0.05642394f,     -0.04278380f,     0.08331622f,     0.02548105f,     -0.03326567f, 
    0.08883999f,     0.07315435f,     -0.00545273f,     0.07069745f,     0.14051327f,     -0.03246827f,     -0.02192178f,     0.06491672f, 
    0.00932631f,     0.09268630f,     0.13394907f,     0.09492240f,     -0.08897759f,     0.09801424f,     -0.07829167f,     0.14224419f, 
    -0.03884252f,     -0.10472355f,     0.08880503f,     0.04471237f,     0.10056483f,     0.08603055f,     0.04814792f,     0.07988315f, 
    0.06902649f,     -0.00443580f,     0.04001700f,     0.09596869f,     -0.01839973f,     0.03473863f,     -0.00464736f,     0.02032209f, 
    0.06540626f,     0.02676583f,     -0.07382419f,     -0.13533713f,     0.04319511f,     -0.10481067f,     0.01302471f,     -0.10773928f, 
    -0.09697492f,     -0.01354097f,     0.07221597f,     -0.15422419f,     0.27950123f,     0.10638748f,     -0.14363931f,     -0.08244144f, 
    0.10394524f,     0.15204661f,     -0.10146041f,     -0.11436541f,     -0.09652515f,     -0.12706627f,     -0.12735498f,     -0.10434134f, 
    -0.08830960f,     0.10375884f,     -0.12129133f,     0.12652151f,     0.06043054f,     0.00939329f,     -0.11048578f,     -0.01813539f, 
    0.09775544f,     -0.09575828f,     -0.11061933f,     0.08986442f,     -0.05720282f,     -0.12049106f,     0.13862644f,     0.05054975f, 
    -0.04243723f,     -0.14323227f,     0.04077898f,     -0.07398041f,     0.04121142f,     -0.07354913f,     0.02493791f,     0.09132357f, 
    0.03007984f,     0.07619980f,     -0.15502752f,     -0.06820177f,     0.10641229f,     -0.10847207f,     -0.13718009f,     0.06852503f, 
    0.03201118f,     -0.10196162f,     -0.02450133f,     -0.17118192f,     -0.00732668f,     0.07814071f,     0.10130379f,     -0.11812629f, 
    0.09358352f,     -0.08664569f,     0.01600457f,     -0.17455176f,     0.09599587f,     -0.26228768f,     0.10766411f,     0.04634643f, 
    0.10494076f,     -0.11807796f,     0.03076944f,     0.19761561f,     -0.03878675f,     0.15565418f,     -0.05931336f,     -0.03671966f, 

};

#define linear_in_bias_size 64
const float linear_in_bias[64] = {
    0.06779893f,     -0.05712476f,     0.05731891f,     -0.02209833f,     -0.06506699f,     0.03873447f,     -0.12633745f,     0.08228824f, 
    -0.02296095f,     -0.06889787f,     0.15100454f,     -0.04559997f,     0.07962818f,     -0.07270338f,     -0.08139742f,     -0.10053214f, 
    -0.06542157f,     0.09906908f,     0.13335703f,     0.05987501f,     -0.12620331f,     0.14017802f,     -0.02532671f,     -0.13378915f, 
    0.09850299f,     0.02998296f,     0.02780997f,     0.04362541f,     0.06783249f,     0.00177831f,     0.08358200f,     0.01770140f, 
    -0.05878218f,     -0.08507947f,     0.00663381f,     -0.07502690f,     -0.15046294f,     -0.01389175f,     0.06963353f,     -0.16372323f, 
    0.07171261f,     -0.06089024f,     -0.06540984f,     0.05945640f,     0.04192415f,     0.05227571f,     -0.09127513f,     -0.10568006f, 
    -0.11071566f,     0.12404066f,     0.10746851f,     -0.08147108f,     -0.06897710f,     0.16690050f,     -0.11323185f,     0.05267744f, 
    -0.02244149f,     0.00476730f,     0.01668045f,     0.05601360f,     -0.05682859f,     0.06559649f,     0.05456862f,     0.14806539f, 

};

#define mamba_A_log_rows 128
#define mamba_A_log_cols 16
const float mamba_A_log[2048] = {
    -0.04000090f,     0.62236547f,     1.03517914f,     1.31909370f,     1.54249668f,     1.75293410f,     1.91539550f,     2.03482652f, 
    2.16901088f,     2.27315068f,     2.34742546f,     2.43097305f,     2.49608612f,     2.54991245f,     2.65087485f,     2.72294784f, 
    0.00910372f,     0.71230084f,     1.12448251f,     1.41242218f,     1.63966143f,     1.81932473f,     1.97677100f,     2.11463356f, 
    2.25026822f,     2.33632421f,     2.43209887f,     2.52131295f,     2.59630442f,     2.67781234f,     2.73918056f,     2.80443263f, 
    -0.00269380f,     0.68460184f,     1.09047413f,     1.37330163f,     1.59600818f,     1.78469336f,     1.93239260f,     2.06033468f, 
    2.16670156f,     2.29310060f,     2.37843132f,     2.45976686f,     2.53094673f,     2.59992576f,     2.68113732f,     2.75255418f, 
    0.04818643f,     0.75615758f,     1.16429126f,     1.45497370f,     1.69649529f,     1.88171184f,     2.03700280f,     2.15613270f, 
    2.35706663f,     2.40788388f,     2.48007727f,     2.56481433f,     2.65076327f,     2.74824429f,     2.79123521f,     2.86871171f, 
    -0.05177602f,     0.62966907f,     1.02595758f,     1.31620800f,     1.54491282f,     1.71092582f,     1.86754704f,     2.00161934f, 
    2.13411164f,     2.22629285f,     2.32208514f,     2.40987229f,     2.48802948f,     2.56167722f,     2.63207603f,     2.70115685f, 
    0.01346499f,     0.71563047f,     1.13670170f,     1.43155968f,     1.67552388f,     1.88936436f,     2.06100440f,     2.18715596f, 
    2.34925222f,     2.45649171f,     2.53774858f,     2.63062596f,     2.73126268f,     2.82783246f,     2.86415076f,     2.96315241f, 
    0.00716479f,     0.69591057f,     1.10518146f,     1.39878428f,     1.62837958f,     1.79257107f,     1.94859064f,     2.09034562f, 
    2.20871234f,     2.31142354f,     2.40665936f,     2.49943519f,     2.57873821f,     2.65349746f,     2.72091961f,     2.79723191f, 
    0.00181053f,     0.69153899f,     1.09104633f,     1.38361955f,     1.62191951f,     1.78735209f,     1.94105649f,     2.06729460f, 
    2.22769427f,     2.29980636f,     2.38276649f,     2.47586942f,     2.55758357f,     2.64760447f,     2.70132613f,     2.77611208f, 
    0.02956405f,     0.72592789f,     1.13021851f,     1.42010438f,     1.65726352f,     1.82621765f,     1.97902191f,     2.10724235f, 
    2.26041508f,     2.33975244f,     2.42409539f,     2.51383495f,     2.59461641f,     2.68496871f,     2.74086905f,     2.81403351f, 
    -0.00689266f,     0.68768179f,     1.08925700f,     1.37198722f,     1.58884382f,     1.77928436f,     1.94322908f,     2.06303120f, 
    2.18199706f,     2.29642391f,     2.38180113f,     2.46364832f,     2.54906607f,     2.62104988f,     2.68426037f,     2.76062751f, 
    0.01374424f,     0.70664376f,     1.11391020f,     1.40235579f,     1.62171590f,     1.80730700f,     1.96551883f,     2.10019398f, 
    2.21333551f,     2.32352233f,     2.42005539f,     2.50315285f,     2.58513093f,     2.66039610f,     2.72542596f,     2.78650022f, 
    -0.09188778f,     0.59471601f,     0.99108922f,     1.28330564f,     1.50898755f,     1.68103671f,     1.83895791f,     1.98368418f, 
    2.07562637f,     2.18385506f,     2.29842830f,     2.39257193f,     2.45778942f,     2.54404211f,     2.59612465f,     2.65749550f, 
    0.03053360f,     0.72535688f,     1.13411486f,     1.42316020f,     1.65070403f,     1.83344758f,     1.98984516f,     2.11822796f, 
    2.24232769f,     2.36161470f,     2.43723416f,     2.52237058f,     2.60676217f,     2.68583274f,     2.74686027f,     2.81352234f, 
    -0.03338033f,     0.64910793f,     1.06151342f,     1.35164368f,     1.59169674f,     1.76653659f,     1.92106307f,     2.04979730f, 
    2.21352577f,     2.28761673f,     2.37284660f,     2.46423626f,     2.54470682f,     2.63394547f,     2.69877958f,     2.78288579f, 
    -0.01781253f,     0.68592983f,     1.08951509f,     1.38078618f,     1.60560954f,     1.77690160f,     1.93300259f,     2.07095313f, 
    2.18429232f,     2.28010416f,     2.38876963f,     2.48112273f,     2.55447936f,     2.63159251f,     2.69088984f,     2.75663710f, 
    -0.05543788f,     0.62832063f,     1.02997696f,     1.32045841f,     1.55161810f,     1.72054017f,     1.88406670f,     2.01199746f, 
    2.13768721f,     2.24961233f,     2.33242440f,     2.41609788f,     2.50461578f,     2.58501840f,     2.64545035f,     2.71462059f, 
    0.02281695f,     0.71455723f,     1.11875701f,     1.40831864f,     1.63789570f,     1.81958389f,     1.97632003f,     2.10105824f, 
    2.25094104f,     2.34361863f,     2.42012572f,     2.50653744f,     2.59395695f,     2.68101001f,     2.73530817f,     2.81200385f, 
    0.02679220f,     0.72989655f,     1.13360047f,     1.41919732f,     1.65438569f,     1.84165227f,     1.99578738f,     2.10985804f, 
    2.29835248f,     2.35770440f,     2.42656469f,     2.51071382f,     2.59826016f,     2.68656373f,     2.73628330f,     2.81255126f, 
    0.00156063f,     0.69412851f,     1.09849417f,     1.38834155f,     1.60761547f,     1.79338968f,     1.95226896f,     2.08345222f, 
    2.21417284f,     2.31360531f,     2.40545630f,     2.49066925f,     2.57216454f,     2.63958669f,     2.71296859f,     2.79147100f, 
    -0.02195251f,     0.66906637f,     1.07639563f,     1.36736441f,     1.59545875f,     1.76626205f,     1.92483950f,     2.05917907f, 
    2.18581867f,     2.28665614f,     2.38192034f,     2.47343707f,     2.55170274f,     2.62898946f,     2.69649267f,     2.75957203f, 
    -0.01608008f,     0.68049937f,     1.09791934f,     1.39145231f,     1.62282956f,     1.81279552f,     1.97250032f,     2.10178304f, 
    2.20204306f,     2.34505272f,     2.42724347f,     2.51011229f,     2.59132838f,     2.66537833f,     2.73199892f,     2.80819011f, 
    -0.00537733f,     0.68719918f,     1.09810078f,     1.38060153f,     1.61251867f,     1.80326319f,     1.95453727f,     2.08072281f, 
    2.27345920f,     2.32092857f,     2.39924550f,     2.48673868f,     2.57039809f,     2.65809536f,     2.71672702f,     2.79719162f, 
    0.01223623f,     0.70750701f,     1.11827815f,     1.40188527f,     1.62715101f,     1.81568515f,     1.97277260f,     2.09979773f, 
    2.23553491f,     2.32732749f,     2.42023373f,     2.50692773f,     2.58579898f,     2.66264033f,     2.72679305f,     2.80457163f, 
    0.00031647f,     0.70409042f,     1.10771370f,     1.39495349f,     1.62661362f,     1.82174468f,     1.97886431f,     2.09077144f, 
    2.27082300f,     2.34303808f,     2.41370630f,     2.49589348f,     2.59056520f,     2.68107605f,     2.72374415f,     2.80430532f, 
    -0.10337604f,     0.59935921f,     1.01349926f,     1.29564130f,     1.52105045f,     1.72550774f,     1.87457740f,     2.01502919f, 
    2.13057566f,     2.24264240f,     2.34335041f,     2.43665314f,     2.50805855f,     2.57379580f,     2.65183949f,     2.74332714f, 
    -0.07604928f,     0.59605473f,     0.98881608f,     1.27045333f,     1.48951280f,     1.67508245f,     1.83318388f,     1.96479893f, 
    2.08613896f,     2.18553281f,     2.28717995f,     2.37180996f,     2.44719315f,     2.50475693f,     2.58023071f,     2.65735722f, 
    0.00211869f,     0.70427924f,     1.11302733f,     1.39985669f,     1.62963367f,     1.80414701f,     1.95450509f,     2.09034801f, 
    2.23432159f,     2.30796933f,     2.40983343f,     2.49380255f,     2.57520437f,     2.65406752f,     2.72290754f,     2.78299332f, 
    -0.14268611f,     0.52081317f,     0.94374228f,     1.22133279f,     1.42339039f,     1.63087070f,     1.77472520f,     1.90464067f, 
    1.97217381f,     2.14085007f,     2.24033833f,     2.30699325f,     2.37784505f,     2.41846514f,     2.56811714f,     2.57326627f, 
    0.00562922f,     0.71399915f,     1.12338483f,     1.41275680f,     1.64356613f,     1.83021092f,     1.98627460f,     2.11742020f, 
    2.25285697f,     2.35048223f,     2.43655133f,     2.52579570f,     2.60991049f,     2.68499470f,     2.74275303f,     2.82321525f, 
    -0.00089795f,     0.69143927f,     1.09938204f,     1.38864255f,     1.61200583f,     1.79050469f,     1.94777226f,     2.08796048f, 
    2.19907379f,     2.30624199f,     2.40896678f,     2.49847698f,     2.57059216f,     2.64303231f,     2.71647906f,     2.77886152f, 
    0.03080138f,     0.72962093f,     1.13825512f,     1.42559004f,     1.65216696f,     1.83822477f,     1.99436998f,     2.12426758f, 
    2.25835109f,     2.35697198f,     2.44608784f,     2.53384399f,     2.61950970f,     2.69782948f,     2.75735354f,     2.83474159f, 
    -0.02844996f,     0.66598505f,     1.06890273f,     1.35563040f,     1.58170533f,     1.76395500f,     1.92166603f,     2.05046177f, 
    2.18887043f,     2.27955389f,     2.36876464f,     2.45501661f,     2.53823066f,     2.61725330f,     2.68124032f,     2.75154710f, 
    -0.03851070f,     0.65794617f,     1.06514931f,     1.35352623f,     1.57556748f,     1.76356721f,     1.91912508f,     2.04881883f, 
    2.19617176f,     2.27990246f,     2.36911011f,     2.45561838f,     2.53460217f,     2.60454488f,     2.67863274f,     2.74535632f, 
    0.01462339f,     0.70709026f,     1.11291206f,     1.40880907f,     1.62375343f,     1.79325306f,     1.95145273f,     2.09567761f, 
    2.18789983f,     2.29998446f,     2.41206956f,     2.49744534f,     2.57816792f,     2.64082623f,     2.71677184f,     2.76850986f, 
    -0.01373822f,     0.67224276f,     1.07825994f,     1.36844778f,     1.59639931f,     1.77312863f,     1.92619765f,     2.06034184f, 
    2.19282937f,     2.29113650f,     2.37954688f,     2.47058249f,     2.55176735f,     2.63565135f,     2.70028067f,     2.77216244f, 
    0.02720411f,     0.72830343f,     1.12801278f,     1.41653156f,     1.64072061f,     1.82075226f,     1.97958589f,     2.10567355f, 
    2.23985791f,     2.33498907f,     2.42728996f,     2.51561713f,     2.59674954f,     2.67565918f,     2.73781466f,     2.80844450f, 
    0.14304097f,     0.83221787f,     1.24188375f,     1.52813220f,     1.75735772f,     1.95375490f,     2.11053514f,     2.21968222f, 
    2.36775208f,     2.46239209f,     2.52863598f,     2.60566473f,     2.69376421f,     2.78253126f,     2.82382512f,     2.90549898f, 
    -0.00050574f,     0.69351286f,     1.09630036f,     1.38551116f,     1.61443162f,     1.79071605f,     1.95047367f,     2.08137798f, 
    2.22212219f,     2.30978227f,     2.39883399f,     2.48463249f,     2.56907940f,     2.65483046f,     2.71093965f,     2.77604961f, 
    -0.01068032f,     0.68764055f,     1.09306824f,     1.37920856f,     1.61121631f,     1.79763901f,     1.95211482f,     2.07420611f, 
    2.24368978f,     2.30875659f,     2.39408493f,     2.48339438f,     2.56582570f,     2.65907502f,     2.70987654f,     2.78522015f, 
    -0.01413235f,     0.67188054f,     1.07829058f,     1.37052870f,     1.59537292f,     1.76262474f,     1.91810596f,     2.05762362f, 
    2.16457748f,     2.27797055f,     2.37365460f,     2.46154594f,     2.54220057f,     2.61556244f,     2.69092512f,     2.76110673f, 
    -0.00818847f,     0.68326974f,     1.08823907f,     1.38143122f,     1.61673570f,     1.77993238f,     1.93964732f,     2.07638335f, 
    2.20398283f,     2.30074358f,     2.39544678f,     2.48244596f,     2.56340313f,     2.64573431f,     2.71228123f,     2.77562213f, 
    -0.13746682f,     0.54728723f,     0.95741075f,     1.23655915f,     1.45936918f,     1.63274884f,     1.79506624f,     1.93333077f, 
    2.03535438f,     2.15219879f,     2.25564551f,     2.33907413f,     2.42149448f,     2.48500299f,     2.57250309f,     2.63050437f, 
    -0.00369637f,     0.69190508f,     1.10043859f,     1.39067864f,     1.62541664f,     1.80132449f,     1.93865550f,     2.08198547f, 
    2.22165895f,     2.29980445f,     2.39224935f,     2.48808217f,     2.55733371f,     2.64488697f,     2.71137881f,     2.77647424f, 
    -0.00577170f,     0.69652283f,     1.10311985f,     1.39214957f,     1.62556112f,     1.81183004f,     1.96663606f,     2.09535384f, 
    2.28133726f,     2.33014250f,     2.41425133f,     2.50208664f,     2.58945107f,     2.68195820f,     2.72488475f,     2.80714869f, 
    0.04597947f,     0.74982345f,     1.15378141f,     1.44944096f,     1.69019616f,     1.87101066f,     2.02749348f,     2.14070439f, 
    2.34110641f,     2.39190006f,     2.46189785f,     2.54679513f,     2.64304590f,     2.74937868f,     2.77965498f,     2.85532808f, 
    0.00371463f,     0.69333750f,     1.09475076f,     1.37734389f,     1.60510170f,     1.79138005f,     1.94682992f,     2.06421661f, 
    2.21368313f,     2.30342770f,     2.38192439f,     2.46746254f,     2.55030513f,     2.62768126f,     2.69127178f,     2.75829077f, 
    0.00410158f,     0.69608063f,     1.10072660f,     1.39158249f,     1.62783873f,     1.78914809f,     1.94537985f,     2.07762265f, 
    2.21675515f,     2.30792594f,     2.39599538f,     2.48730612f,     2.56782460f,     2.65075517f,     2.71650505f,     2.78648186f, 
    -0.08687095f,     0.58683169f,     0.98725170f,     1.27188480f,     1.48654974f,     1.67249596f,     1.83172679f,     1.96656656f, 
    2.06920552f,     2.18896914f,     2.29154563f,     2.37747788f,     2.45010209f,     2.51794744f,     2.59342766f,     2.66309690f, 
    -0.02062990f,     0.66564798f,     1.06679463f,     1.36037219f,     1.58121765f,     1.76472092f,     1.91448808f,     2.05069780f, 
    2.17718315f,     2.28333116f,     2.37158442f,     2.46105456f,     2.55105352f,     2.62840676f,     2.67515612f,     2.74816203f, 
    0.01705056f,     0.70821577f,     1.11523783f,     1.40140307f,     1.62261248f,     1.80491924f,     1.96561813f,     2.09650850f, 
    2.20161557f,     2.32531786f,     2.41902852f,     2.50416875f,     2.58330560f,     2.65162706f,     2.72258997f,     2.80082679f, 
    0.00683340f,     0.70322788f,     1.10648811f,     1.39827180f,     1.62095439f,     1.80346179f,     1.96456277f,     2.09333181f, 
    2.21703911f,     2.32378244f,     2.41141796f,     2.49639583f,     2.58570290f,     2.66538811f,     2.72372007f,     2.78850555f, 
    0.01073900f,     0.71038574f,     1.11557901f,     1.40209317f,     1.64475513f,     1.80655348f,     1.96038520f,     2.09422565f, 
    2.24270868f,     2.31779575f,     2.40810513f,     2.49713421f,     2.57824707f,     2.67335033f,     2.73007131f,     2.80228901f, 
    -0.02149983f,     0.66834593f,     1.07188785f,     1.35705256f,     1.56981564f,     1.74779618f,     1.90186882f,     2.05822229f, 
    2.09449196f,     2.25985694f,     2.37620521f,     2.46556997f,     2.53743315f,     2.59291625f,     2.68482471f,     2.74102306f, 
    -0.02165339f,     0.66995031f,     1.07481897f,     1.36294878f,     1.58839750f,     1.77292275f,     1.92789257f,     2.05860686f, 
    2.20912552f,     2.28773499f,     2.37925935f,     2.46836209f,     2.55048895f,     2.63228011f,     2.69444489f,     2.76328397f, 
    -0.03201273f,     0.65898490f,     1.06516123f,     1.36134458f,     1.59202719f,     1.75897717f,     1.91500664f,     2.06071281f, 
    2.17163730f,     2.28082061f,     2.38274240f,     2.47741961f,     2.56045413f,     2.63943815f,     2.71136856f,     2.77000403f, 
    -0.05643749f,     0.62019539f,     1.03822422f,     1.32213366f,     1.54560483f,     1.73652446f,     1.88757741f,     2.01919007f, 
    2.12850690f,     2.25060964f,     2.34455562f,     2.43048429f,     2.50237679f,     2.56875062f,     2.65678859f,     2.73877883f, 
    -0.02373158f,     0.66752905f,     1.07195318f,     1.36774087f,     1.60668004f,     1.77682877f,     1.92580187f,     2.05493069f, 
    2.20834517f,     2.29096699f,     2.37489271f,     2.46900177f,     2.54950571f,     2.64060664f,     2.69855332f,     2.77657700f, 
    -0.00436936f,     0.69216126f,     1.09710264f,     1.38584626f,     1.61291289f,     1.79541111f,     1.94853103f,     2.07999682f, 
    2.21101809f,     2.30647349f,     2.39785004f,     2.48445106f,     2.56429791f,     2.64211369f,     2.70761085f,     2.77864552f, 
    0.05492833f,     0.77791876f,     1.18990016f,     1.48914170f,     1.73077393f,     1.91038406f,     2.06317306f,     2.19401479f, 
    2.33993149f,     2.42108178f,     2.51010966f,     2.59616184f,     2.67545748f,     2.75255322f,     2.81445169f,     2.88411975f, 
    0.21760221f,     0.90011322f,     1.30780196f,     1.53253925f,     1.74914801f,     1.90686882f,     2.03584933f,     2.16549706f, 
    2.25417876f,     2.36583686f,     2.45495677f,     2.53234410f,     2.61887360f,     2.67416620f,     2.74172282f,     2.79778552f, 
    0.01152024f,     0.71171695f,     1.10954309f,     1.40436196f,     1.62224543f,     1.80149758f,     1.95680308f,     2.09512663f, 
    2.20579004f,     2.31463337f,     2.41454959f,     2.49818683f,     2.57728624f,     2.65375233f,     2.71594000f,     2.77731705f, 
    0.03850384f,     0.75587416f,     1.16894531f,     1.46029925f,     1.68764627f,     1.87786043f,     2.03673410f,     2.16094995f, 
    2.29058051f,     2.40148425f,     2.48661518f,     2.56981587f,     2.64604807f,     2.72950101f,     2.78848338f,     2.85887575f, 
    0.01943782f,     0.71617502f,     1.12108779f,     1.41212964f,     1.63677216f,     1.81920338f,     1.97350740f,     2.10831118f, 
    2.22794962f,     2.33728886f,     2.42857385f,     2.51554918f,     2.59985352f,     2.68024230f,     2.73715878f,     2.80065799f, 
    -0.01395515f,     0.67498785f,     1.08207166f,     1.36899543f,     1.59628534f,     1.79004323f,     1.94124258f,     2.06681800f, 
    2.22273850f,     2.31002498f,     2.38889265f,     2.47563338f,     2.56137824f,     2.64287376f,     2.70332313f,     2.77934551f, 
    0.00769950f,     0.70026791f,     1.10381281f,     1.38870013f,     1.60990310f,     1.78944767f,     1.94863319f,     2.08158326f, 
    2.19483757f,     2.30434299f,     2.40408397f,     2.49348354f,     2.57069016f,     2.63612080f,     2.71366262f,     2.77979064f, 
    0.00049521f,     0.69206476f,     1.09109473f,     1.37822938f,     1.61598909f,     1.78763855f,     1.94063556f,     2.06588483f, 
    2.23150063f,     2.29993939f,     2.38307977f,     2.47302914f,     2.55620503f,     2.64418674f,     2.69904280f,     2.77176118f, 
    -0.04863545f,     0.64310974f,     1.03639686f,     1.30956888f,     1.52988148f,     1.70102823f,     1.85492885f,     1.98533487f, 
    2.08116078f,     2.19158030f,     2.29312253f,     2.37524509f,     2.44770980f,     2.51300645f,     2.59599519f,     2.65664697f, 
    -0.04377082f,     0.63609523f,     1.03685284f,     1.33022714f,     1.55705428f,     1.72022092f,     1.88096762f,     2.01989913f, 
    2.13061404f,     2.24148989f,     2.34472442f,     2.42474747f,     2.51090217f,     2.58239007f,     2.65804410f,     2.72355986f, 
    0.06276304f,     0.77256614f,     1.18038356f,     1.47233903f,     1.71205592f,     1.88882315f,     2.04611754f,     2.17139745f, 
    2.33980417f,     2.41041589f,     2.48711729f,     2.57632661f,     2.66194797f,     2.76353693f,     2.80350113f,     2.87299490f, 
    0.00996202f,     0.70733118f,     1.11345708f,     1.39965534f,     1.62543368f,     1.81708300f,     1.96970868f,     2.09783959f, 
    2.23408318f,     2.33082104f,     2.41836882f,     2.50548410f,     2.58676553f,     2.66768861f,     2.72640109f,     2.79511881f, 
    0.02786021f,     0.72875255f,     1.14985287f,     1.44456208f,     1.66119409f,     1.84083235f,     1.99571574f,     2.13300276f, 
    2.24494195f,     2.35382199f,     2.46227503f,     2.54227114f,     2.61993098f,     2.68516254f,     2.77272582f,     2.83185220f, 
    0.04072408f,     0.73059100f,     1.14191186f,     1.43287158f,     1.65580571f,     1.83306491f,     1.99161160f,     2.12251973f, 
    2.25871491f,     2.35534573f,     2.43917775f,     2.52239180f,     2.60571361f,     2.67550850f,     2.75142837f,     2.82470918f, 
    -0.01257190f,     0.67325747f,     1.07549202f,     1.36483359f,     1.60305738f,     1.76842308f,     1.92051911f,     2.04862285f, 
    2.21762490f,     2.28073859f,     2.36283779f,     2.45493746f,     2.53592300f,     2.62481546f,     2.68528438f,     2.76181626f, 
    -0.07427531f,     0.60190713f,     0.99701482f,     1.29512620f,     1.51530874f,     1.68210769f,     1.84971392f,     1.97582078f, 
    2.09436297f,     2.21080899f,     2.30301285f,     2.37587833f,     2.47108626f,     2.54109311f,     2.63219976f,     2.69549155f, 
    -0.00485481f,     0.69941431f,     1.10716689f,     1.39932108f,     1.62722087f,     1.80303919f,     1.95626307f,     2.09568667f, 
    2.23255777f,     2.31479359f,     2.41635489f,     2.50627899f,     2.58465028f,     2.66545367f,     2.72746491f,     2.77863026f, 
    -0.00863951f,     0.68591893f,     1.08986604f,     1.37527466f,     1.60281897f,     1.78263724f,     1.94296074f,     2.06869102f, 
    2.21043730f,     2.30057096f,     2.38679409f,     2.47151184f,     2.55527496f,     2.63426137f,     2.69879436f,     2.77433538f, 
    -0.01675584f,     0.67553824f,     1.07448733f,     1.36282921f,     1.58299828f,     1.75786829f,     1.89829111f,     2.04849935f, 
    2.12830567f,     2.25661540f,     2.36729908f,     2.45996094f,     2.53610730f,     2.60852003f,     2.67780018f,     2.74674177f, 
    0.01572359f,     0.71063513f,     1.11472237f,     1.40169740f,     1.62333214f,     1.81175780f,     1.96758223f,     2.09489202f, 
    2.21402431f,     2.32367635f,     2.41450906f,     2.49993539f,     2.58506918f,     2.65936637f,     2.72435927f,     2.79743981f, 
    0.03093457f,     0.70868939f,     1.11812770f,     1.40216887f,     1.60771358f,     1.80573332f,     1.97150731f,     2.09760284f, 
    2.19175649f,     2.32844138f,     2.42856431f,     2.50841165f,     2.58825660f,     2.65011024f,     2.73307490f,     2.80267382f, 
    -0.01377649f,     0.68496484f,     1.08980680f,     1.37569249f,     1.60598660f,     1.79308927f,     1.94841170f,     2.07373738f, 
    2.25520349f,     2.30959916f,     2.39313769f,     2.47976875f,     2.56126642f,     2.64801073f,     2.70367098f,     2.78445244f, 
    -0.00395136f,     0.68361127f,     1.09639323f,     1.37758029f,     1.60588741f,     1.79676831f,     1.95742440f,     2.08345056f, 
    2.25031900f,     2.33583856f,     2.41992521f,     2.51138210f,     2.59192514f,     2.67193651f,     2.75004292f,     2.85449791f, 
    0.01587976f,     0.71860164f,     1.12302089f,     1.41275084f,     1.64610326f,     1.82863998f,     1.98275149f,     2.10838532f, 
    2.26304150f,     2.34338856f,     2.42805386f,     2.51709747f,     2.60059452f,     2.68476605f,     2.74092579f,     2.81523061f, 
    0.00968229f,     0.70807171f,     1.11044383f,     1.39966762f,     1.62495315f,     1.80258346f,     1.96203673f,     2.09292269f, 
    2.23253584f,     2.31926537f,     2.41045833f,     2.49466348f,     2.58205700f,     2.66323709f,     2.72016716f,     2.79147458f, 
    0.06938444f,     0.78619266f,     1.18783438f,     1.48089349f,     1.72259104f,     1.89942932f,     2.05002975f,     2.16225481f, 
    2.34017372f,     2.40035105f,     2.46935153f,     2.55214190f,     2.63013721f,     2.71269584f,     2.76208758f,     2.82854486f, 
    0.01383194f,     0.71934354f,     1.12424517f,     1.41019511f,     1.63592339f,     1.81927836f,     1.97247720f,     2.10483265f, 
    2.24548340f,     2.33332872f,     2.41773486f,     2.50366902f,     2.58663630f,     2.67251205f,     2.72527409f,     2.80619717f, 
    -0.07875833f,     0.60791659f,     1.02739894f,     1.31561553f,     1.54906237f,     1.74458110f,     1.90527415f,     2.05035567f, 
    2.17968726f,     2.27699041f,     2.38060737f,     2.46956086f,     2.54273677f,     2.62051654f,     2.69674182f,     2.76799321f, 
    -0.07018737f,     0.59015346f,     0.98528463f,     1.25778794f,     1.46634865f,     1.63585734f,     1.79404199f,     1.94198215f, 
    1.99438584f,     2.14879990f,     2.25177455f,     2.33223391f,     2.41820526f,     2.46825027f,     2.55317640f,     2.60857248f, 
    -0.02441371f,     0.66048473f,     1.06156600f,     1.35456216f,     1.58801103f,     1.75359893f,     1.90906608f,     2.03963137f, 
    2.18601656f,     2.26911545f,     2.35652733f,     2.44579554f,     2.52832651f,     2.61374235f,     2.67423224f,     2.74129105f, 
    -0.06061599f,     0.61790407f,     1.01401556f,     1.29502189f,     1.48784196f,     1.66721344f,     1.83329177f,     1.96892107f, 
    2.02862597f,     2.16302824f,     2.28744531f,     2.37039208f,     2.44095302f,     2.49065351f,     2.58340764f,     2.63139296f, 
    0.02668958f,     0.72561812f,     1.13092935f,     1.42128265f,     1.65217626f,     1.82940686f,     1.98450696f,     2.11163282f, 
    2.25717854f,     2.34347200f,     2.42879677f,     2.51706171f,     2.59891891f,     2.68189454f,     2.74214864f,     2.81451631f, 
    -0.02745005f,     0.66441149f,     1.07098103f,     1.35234404f,     1.57348871f,     1.76706314f,     1.92698789f,     2.04848862f, 
    2.18428874f,     2.28466558f,     2.36855149f,     2.45394158f,     2.53515625f,     2.61187506f,     2.68027139f,     2.75193143f, 
    0.06471932f,     0.76791972f,     1.18191588f,     1.47583306f,     1.69248891f,     1.90257645f,     2.05984545f,     2.18417168f, 
    2.34374666f,     2.42666411f,     2.50712919f,     2.58317590f,     2.66744423f,     2.75230074f,     2.81225467f,     2.88954711f, 
    0.01118413f,     0.71372277f,     1.11982250f,     1.40939271f,     1.63158643f,     1.81747472f,     1.97482586f,     2.10683990f, 
    2.24961996f,     2.33079386f,     2.42734170f,     2.51404905f,     2.59685063f,     2.67821836f,     2.73446035f,     2.79493690f, 
    0.05620482f,     0.75887412f,     1.16535401f,     1.44747531f,     1.66976190f,     1.86961854f,     2.02190709f,     2.13728547f, 
    2.31306148f,     2.37714744f,     2.45562720f,     2.53653860f,     2.62152743f,     2.69848537f,     2.76018119f,     2.83718371f, 
    -0.00643136f,     0.68575656f,     1.09160841f,     1.38165855f,     1.61615872f,     1.79002392f,     1.94386852f,     2.07302570f, 
    2.23761725f,     2.30318999f,     2.39049172f,     2.48075938f,     2.56017995f,     2.64758945f,     2.70679116f,     2.77670264f, 
    -0.01121065f,     0.67042714f,     1.06887078f,     1.35156596f,     1.58304358f,     1.75833750f,     1.89334476f,     2.01934338f, 
    2.14586759f,     2.23251557f,     2.32891703f,     2.41932917f,     2.48467278f,     2.55620766f,     2.61540461f,     2.69063997f, 
    0.01349829f,     0.70502687f,     1.11600077f,     1.40588474f,     1.63713217f,     1.83451855f,     1.99386072f,     2.11145616f, 
    2.25633931f,     2.36871767f,     2.44131565f,     2.52678418f,     2.61779547f,     2.70118237f,     2.76253366f,     2.84923267f, 
    -0.06332099f,     0.63106620f,     1.04026079f,     1.32668531f,     1.55440927f,     1.75270498f,     1.91412914f,     2.05897307f, 
    2.18769860f,     2.29256105f,     2.39248490f,     2.49146247f,     2.57308078f,     2.65197134f,     2.71798396f,     2.80789828f, 
    -0.24926333f,     0.40674430f,     0.79868919f,     1.09335172f,     1.28988421f,     1.45346618f,     1.64162159f,     1.78273678f, 
    1.75814569f,     1.98154259f,     2.10297871f,     2.17822838f,     2.26215076f,     2.29078388f,     2.41407704f,     2.44632745f, 
    -0.01751811f,     0.67037350f,     1.07956386f,     1.36287796f,     1.58852339f,     1.77759469f,     1.92997670f,     2.05690908f, 
    2.19369340f,     2.29166722f,     2.37975478f,     2.46031785f,     2.54446793f,     2.61838484f,     2.69202042f,     2.76414490f, 
    -0.22423077f,     0.43410206f,     0.84727710f,     1.14003694f,     1.33657873f,     1.51708865f,     1.67933011f,     1.85904551f, 
    1.87272906f,     2.07527065f,     2.18944597f,     2.25393486f,     2.36021662f,     2.42663741f,     2.52155542f,     2.56585908f, 
    -0.03251978f,     0.66114873f,     1.06598723f,     1.35302699f,     1.57982111f,     1.76325762f,     1.91559136f,     2.04559565f, 
    2.18862224f,     2.27375340f,     2.36437607f,     2.45073366f,     2.53384638f,     2.61224079f,     2.67837811f,     2.74919415f, 
    0.01541622f,     0.71238804f,     1.12170649f,     1.41450727f,     1.64312410f,     1.82575738f,     1.97651243f,     2.11133671f, 
    2.26629758f,     2.33751726f,     2.43185186f,     2.52251554f,     2.59899807f,     2.68387222f,     2.74386835f,     2.80556297f, 
    -0.01065709f,     0.68462408f,     1.08925962f,     1.37455332f,     1.59484398f,     1.79166114f,     1.94317794f,     2.07317424f, 
    2.19700289f,     2.30199575f,     2.39712143f,     2.48310089f,     2.56239963f,     2.63230157f,     2.69614887f,     2.76295805f, 
    -0.04914120f,     0.62240607f,     1.02688336f,     1.31622708f,     1.52902174f,     1.70481002f,     1.86205673f,     2.00611496f, 
    2.08687830f,     2.21497560f,     2.32264495f,     2.41566849f,     2.48580503f,     2.55920506f,     2.63832331f,     2.69717598f, 
    0.01957200f,     0.71915329f,     1.12515569f,     1.41894591f,     1.63984358f,     1.82317388f,     1.98438454f,     2.11342001f, 
    2.22593188f,     2.34189892f,     2.43493414f,     2.51716161f,     2.60413003f,     2.67779708f,     2.74351501f,     2.80618739f, 
    0.01455960f,     0.70991445f,     1.11190569f,     1.39837503f,     1.62628913f,     1.81112695f,     1.96790946f,     2.09187245f, 
    2.25416207f,     2.32682467f,     2.41086054f,     2.49381852f,     2.58336163f,     2.66662979f,     2.72118878f,     2.79117084f, 
    0.07095605f,     0.77715194f,     1.18441975f,     1.48022628f,     1.71437669f,     1.89901531f,     2.05324602f,     2.17879701f, 
    2.33213472f,     2.42215610f,     2.50442672f,     2.58969188f,     2.67670035f,     2.76738620f,     2.83025098f,     2.89583230f, 
    0.02997350f,     0.72622579f,     1.12588882f,     1.41664743f,     1.65260828f,     1.82914817f,     1.97457790f,     2.10383368f, 
    2.27288771f,     2.33968210f,     2.41728830f,     2.50480700f,     2.58993006f,     2.68030238f,     2.73036146f,     2.81145787f, 
    0.00857606f,     0.69977951f,     1.10748327f,     1.39738882f,     1.62065768f,     1.80293727f,     1.95631897f,     2.08847928f, 
    2.20978355f,     2.31673932f,     2.40617061f,     2.49608159f,     2.57696891f,     2.65552449f,     2.72213221f,     2.79016995f, 
    0.05504001f,     0.75750488f,     1.16502297f,     1.45342565f,     1.68314457f,     1.86642253f,     2.02254391f,     2.14913750f, 
    2.28099179f,     2.38447261f,     2.46998477f,     2.55794358f,     2.64076781f,     2.72080779f,     2.78009629f,     2.85663223f, 
    0.00894942f,     0.70728922f,     1.11986399f,     1.41188633f,     1.63652754f,     1.82358193f,     1.97809517f,     2.10800552f, 
    2.25245309f,     2.33943319f,     2.42899084f,     2.51751876f,     2.60036182f,     2.68085122f,     2.74253559f,     2.81704330f, 
    -0.02946568f,     0.65908831f,     1.06857598f,     1.35335600f,     1.58204222f,     1.76223743f,     1.92808044f,     2.05244780f, 
    2.17045236f,     2.28338552f,     2.37587023f,     2.46783090f,     2.54568648f,     2.62679887f,     2.69147110f,     2.76715946f, 
    0.01446095f,     0.70162576f,     1.10982490f,     1.38456941f,     1.61582983f,     1.79687512f,     1.94629538f,     2.07488871f, 
    2.22151303f,     2.30331206f,     2.38966060f,     2.47733760f,     2.55693007f,     2.63557196f,     2.70482063f,     2.76674533f, 
    0.05295351f,     0.74139643f,     1.12887502f,     1.41579139f,     1.63459492f,     1.79766512f,     1.94128597f,     2.08222795f, 
    2.17575645f,     2.29638171f,     2.39240122f,     2.48154187f,     2.55653381f,     2.63705802f,     2.70366693f,     2.75723147f, 
    -0.02189346f,     0.66552448f,     1.06389654f,     1.35445881f,     1.57536030f,     1.75288010f,     1.91266835f,     2.04381943f, 
    2.16117620f,     2.27733064f,     2.36575699f,     2.45494032f,     2.54212427f,     2.61633110f,     2.67707109f,     2.74327207f, 
    -0.01780202f,     0.66654325f,     1.07594311f,     1.36494756f,     1.57796526f,     1.75301194f,     1.91221631f,     2.05280089f, 
    2.12526798f,     2.26975679f,     2.37393570f,     2.46189880f,     2.54022622f,     2.60141921f,     2.68918729f,     2.76012635f, 
    0.07609332f,     0.78076720f,     1.19060409f,     1.48006737f,     1.70901406f,     1.88502848f,     2.04150271f,     2.17582536f, 
    2.31784892f,     2.40257621f,     2.49833870f,     2.58761954f,     2.67097735f,     2.75766134f,     2.81158185f,     2.87698722f, 
    0.01005018f,     0.70622760f,     1.10928690f,     1.39535558f,     1.62162793f,     1.80653369f,     1.96175325f,     2.08910990f, 
    2.22839618f,     2.32313013f,     2.40807176f,     2.49389505f,     2.58143640f,     2.65790391f,     2.71941423f,     2.79419851f, 
    -0.01042085f,     0.67889446f,     1.08075690f,     1.36394632f,     1.58470929f,     1.77443266f,     1.92520642f,     2.04950738f, 
    2.20014691f,     2.27902794f,     2.36549354f,     2.45155168f,     2.53120923f,     2.60854936f,     2.67661977f,     2.74652100f, 
    -0.00542811f,     0.69206703f,     1.10055923f,     1.38886249f,     1.62194681f,     1.80028474f,     1.95328736f,     2.08881235f, 
    2.22109580f,     2.31487060f,     2.40817070f,     2.49472570f,     2.56613612f,     2.65035200f,     2.71718335f,     2.79040813f, 
    0.12425724f,     0.83470404f,     1.24203551f,     1.52797711f,     1.76980937f,     1.95358241f,     2.11129928f,     2.22827053f, 
    2.37575936f,     2.47073150f,     2.54007173f,     2.62816048f,     2.71576524f,     2.79914665f,     2.84337330f,     2.93204784f, 
    0.02262971f,     0.71764201f,     1.12423372f,     1.41565633f,     1.64409423f,     1.81689727f,     1.97246444f,     2.10773635f, 
    2.23826098f,     2.33040166f,     2.42439842f,     2.51118731f,     2.59350848f,     2.67285657f,     2.73689270f,     2.80539560f, 
