/**
 * @file mamba_weights.h
 * @brief Auto-generated weight file for MambaLite-Micro.
 *
 * Copyright (c) 2025 MambaLite-Micro Authors
 * Licensed under the MIT License.
 *
 * Generated by export_weights.py from a PyTorch .pth checkpoint.
 * Do not edit manually.
 */

#ifndef MAMBA_WEIGHTS_H
#define MAMBA_WEIGHTS_H

#define mamba_d_model 64
#define mamba_d_state 16
#define mamba_d_conv 4
#define mamba_expand 2
#define mamba_dt_min 0.001
#define mamba_dt_max 0.1
#define mamba_dt_scale 1.0
#define mamba_dt_rank 4

#define linear_in_weight_rows 64
#define linear_in_weight_cols 57
const float linear_in_weight[3648] = {
    -0.00798708f,     -0.13046005f,     -0.00015024f,     0.06479765f,     0.00111416f,     -0.04010362f,     0.01381246f,     0.10100139f, 
    -0.09735621f,     0.07225240f,     0.07209403f,     -0.09716269f,     -0.05610676f,     0.02639677f,     -0.04237643f,     -0.08252940f, 
    0.00036649f,     -0.15324223f,     -0.09992161f,     -0.01187322f,     0.08631466f,     0.07507348f,     -0.00167164f,     0.12365206f, 
    -0.05096602f,     -0.18468976f,     -0.11434873f,     0.02955204f,     0.02709148f,     -0.08761331f,     0.15412389f,     0.10422616f, 
    0.13447890f,     0.09403195f,     -0.05887216f,     0.02719467f,     0.03294644f,     -0.07564986f,     -0.08162540f,     -0.09395575f, 
    -0.08718548f,     0.14775261f,     -0.10192313f,     -0.03683903f,     -0.08812431f,     -0.17471921f,     0.34168336f,     0.12435082f, 
    0.19776145f,     0.16327100f,     -0.01935844f,     0.21944851f,     0.09763035f,     0.14627188f,     0.16885601f,     -0.07754283f, 
    0.09149832f,     -0.03989147f,     -0.03369926f,     0.11253916f,     0.03477746f,     0.03131739f,     0.02611593f,     -0.07151690f, 
    -0.07827267f,     0.04061416f,     -0.11546987f,     -0.04552789f,     -0.02910036f,     -0.16466294f,     -0.10566258f,     -0.02452451f, 
    0.08050707f,     0.03760343f,     -0.03195446f,     0.03125529f,     -0.00942553f,     0.01936611f,     0.11835064f,     0.12711759f, 
    -0.07331149f,     0.08402538f,     -0.02077510f,     0.00065077f,     0.03720033f,     -0.00878836f,     0.13578933f,     0.11171881f, 
    0.07249675f,     0.08198542f,     0.04482505f,     0.07845268f,     -0.05512158f,     0.10238703f,     0.11175188f,     -0.12399013f, 
    0.01124797f,     0.03470289f,     -0.12431373f,     -0.11424599f,     0.05380778f,     0.05410362f,     -0.19979003f,     0.24079792f, 
    0.15223065f,     0.03522093f,     -0.00415015f,     -0.07896182f,     0.01382473f,     -0.17260282f,     0.07601627f,     -0.02299907f, 
    -0.03932332f,     -0.09932647f,     0.11168700f,     -0.02426052f,     0.03191274f,     0.05483630f,     -0.00410278f,     -0.06725397f, 
    -0.02177782f,     -0.04348008f,     -0.07686242f,     0.11467283f,     -0.01854652f,     0.05609977f,     -0.13842635f,     -0.00333349f, 
    0.09138755f,     0.00709898f,     -0.04880329f,     -0.04863267f,     -0.05250820f,     -0.04652171f,     0.12865722f,     0.12535714f, 
    -0.00239579f,     -0.04005569f,     -0.00061790f,     0.06195417f,     -0.09018163f,     0.04738944f,     0.11090311f,     -0.11671990f, 
    -0.05847351f,     -0.03012713f,     -0.04699464f,     0.09702166f,     -0.13623510f,     -0.04466646f,     0.10602115f,     0.10742401f, 
    -0.06504551f,     -0.02893003f,     -0.07142829f,     0.00893527f,     0.11938709f,     0.05237679f,     0.08633300f,     0.15279578f, 
    0.07660121f,     0.03128472f,     -0.03237151f,     0.05799352f,     0.04849532f,     0.09649920f,     0.10905662f,     -0.03405610f, 
    -0.07266866f,     0.09003951f,     -0.14250945f,     0.07279041f,     0.03966205f,     0.08555545f,     0.04281573f,     -0.06437222f, 
    0.02945020f,     -0.00007405f,     -0.04837697f,     -0.11501913f,     -0.10234239f,     0.06124352f,     -0.11905758f,     -0.06784531f, 
    0.02885270f,     -0.02272235f,     -0.15490474f,     -0.00674236f,     -0.10968690f,     0.05711295f,     0.05413811f,     0.06803155f, 
    -0.09035743f,     -0.12820736f,     -0.12644528f,     0.03702141f,     -0.12890530f,     -0.09297334f,     -0.06205568f,     0.08055328f, 
    -0.02482816f,     0.11720811f,     0.07654203f,     -0.08302379f,     -0.06646012f,     0.01331563f,     -0.10223638f,     -0.05394058f, 
    0.07152709f,     0.17089725f,     0.06293465f,     -0.05118517f,     -0.11155321f,     0.10592733f,     -0.13870758f,     0.05573272f, 
    -0.06453168f,     0.15614723f,     -0.14035755f,     -0.12949605f,     -0.09099820f,     -0.13332610f,     0.01228331f,     -0.09338653f, 
    -0.22201097f,     -0.08478203f,     0.05145074f,     0.11463774f,     0.06587686f,     0.05655200f,     0.13511303f,     0.06312399f, 
    -0.02615874f,     0.13882035f,     -0.06499884f,     0.00377042f,     0.09074821f,     0.08435357f,     -0.11564682f,     0.03958219f, 
    -0.10116035f,     -0.08359741f,     -0.12763798f,     -0.01730715f,     0.00810697f,     -0.04138466f,     -0.03382518f,     -0.01043438f, 
    0.02518452f,     0.09384186f,     0.11631745f,     -0.03260465f,     0.08027587f,     0.17718300f,     0.03609775f,     -0.06940929f, 
    -0.07137814f,     0.10192202f,     -0.00329692f,     -0.09707606f,     0.05961726f,     0.13267055f,     0.08887469f,     -0.07547788f, 
    -0.07780907f,     -0.11874553f,     0.07117701f,     0.05583970f,     -0.08646104f,     0.13757585f,     0.00673614f,     -0.00644246f, 
    -0.14324023f,     0.22533047f,     -0.11044915f,     -0.03924576f,     0.12504876f,     0.08734059f,     0.04417283f,     -0.07718202f, 
    0.16901761f,     -0.12314228f,     0.08083191f,     -0.00472819f,     0.09206464f,     -0.11556587f,     0.08329284f,     0.12462413f, 
    0.03145786f,     0.10159404f,     -0.05297068f,     0.11042693f,     0.11082423f,     -0.05630302f,     0.12987183f,     0.02107266f, 
    0.12795895f,     -0.14222763f,     0.02116334f,     -0.15018792f,     -0.01215498f,     -0.02722622f,     0.13157023f,     0.13309474f, 
    0.15622088f,     -0.11116751f,     0.05316674f,     -0.08147285f,     -0.06600105f,     0.11558233f,     0.13434649f,     -0.07811091f, 
    0.01037426f,     0.02963955f,     -0.00749961f,     0.10338812f,     0.07116365f,     0.06138777f,     -0.09196984f,     -0.08867110f, 
    -0.06928410f,     0.14564578f,     -0.15042241f,     -0.00572353f,     0.08490738f,     0.04636493f,     -0.07359511f,     0.00230167f, 
    0.08386471f,     0.04240378f,     0.15022069f,     -0.08795461f,     0.14002576f,     0.17119949f,     0.14721592f,     -0.00135673f, 
    0.10669585f,     0.08207723f,     -0.02392505f,     -0.07299278f,     -0.01073323f,     -0.06527603f,     0.07709325f,     0.07985223f, 
    0.09666215f,     -0.00214781f,     0.05002197f,     0.09197831f,     -0.02999966f,     0.05135928f,     -0.05708499f,     -0.02682566f, 
    -0.05572100f,     -0.17963916f,     0.09914402f,     -0.10148450f,     -0.09203496f,     0.20183171f,     0.08495182f,     0.02687911f, 
    0.00090802f,     -0.07488954f,     -0.06026877f,     -0.07336129f,     0.11609782f,     0.16317420f,     0.02221040f,     -0.04005785f, 
    0.08482628f,     -0.15417674f,     -0.07250783f,     -0.00815061f,     0.06403575f,     0.03103816f,     0.05545164f,     -0.06324567f, 
    0.05206988f,     0.04615447f,     -0.08763906f,     -0.07774750f,     -0.06820522f,     -0.01860253f,     -0.14255169f,     0.02784880f, 
    0.10758508f,     0.10630469f,     0.11743999f,     -0.00494866f,     -0.08635537f,     0.11673308f,     0.17414263f,     0.05378036f, 
    0.08510071f,     0.11097077f,     0.08630045f,     0.19249202f,     -0.09784587f,     -0.05606911f,     -0.14254633f,     -0.05513654f, 
    -0.02902064f,     0.05657442f,     0.01671188f,     -0.04017884f,     -0.00885691f,     -0.03937052f,     -0.03298724f,     -0.14920346f, 
    0.02561485f,     0.06091131f,     -0.02021104f,     0.05625748f,     -0.11463838f,     0.13502212f,     -0.10390178f,     0.11089488f, 
    -0.07040039f,     -0.03734738f,     -0.08286341f,     -0.00210368f,     0.04634901f,     -0.00961964f,     0.10270667f,     -0.10795350f, 
    -0.04394316f,     -0.13437521f,     0.14210483f,     0.12550057f,     -0.01732230f,     -0.08139585f,     -0.16875477f,     0.05852869f, 
    0.10463176f,     0.00502548f,     0.10472164f,     -0.15683293f,     0.00836859f,     0.04932716f,     -0.02055276f,     -0.14009985f, 
    -0.12771229f,     -0.07645655f,     -0.04213564f,     -0.12166391f,     -0.04772434f,     -0.27277693f,     0.12164615f,     0.05358218f, 
    -0.04659288f,     -0.03510139f,     -0.09193718f,     -0.03458698f,     0.13020548f,     -0.00404477f,     0.12284363f,     0.08192408f, 
    -0.04645409f,     0.04291795f,     -0.20153835f,     -0.05798651f,     -0.08125819f,     0.13917261f,     -0.08500754f,     0.01531037f, 
    0.00280164f,     0.09069557f,     -0.01222175f,     0.00640617f,     -0.11486270f,     0.09473852f,     0.10397377f,     -0.05610719f, 
    -0.01739618f,     -0.02957859f,     0.13846613f,     0.06532025f,     0.18416815f,     0.11256861f,     0.10322146f,     0.08709806f, 
    0.05740309f,     -0.15417936f,     -0.16851504f,     0.06179669f,     -0.11196253f,     -0.01316018f,     0.10101387f,     -0.02360071f, 
    -0.11416668f,     -0.01074872f,     0.02134789f,     0.06608214f,     0.13277432f,     -0.09110897f,     -0.05307326f,     0.06728483f, 
    -0.10467859f,     -0.00295526f,     -0.09443041f,     0.10380419f,     -0.11429971f,     0.01264501f,     -0.31299978f,     -0.03592477f, 
    0.05099672f,     -0.11362945f,     -0.13312455f,     -0.10868721f,     0.06082334f,     -0.16628380f,     0.05217127f,     -0.07706878f, 
    -0.05201136f,     -0.00615747f,     -0.08432027f,     0.14641643f,     0.05558180f,     0.05926310f,     -0.02211723f,     0.15954499f, 
    0.03494672f,     0.10850687f,     0.07532369f,     0.13835771f,     -0.00017762f,     -0.02624922f,     0.13875653f,     -0.07268997f, 
    -0.01999070f,     0.01239054f,     -0.11916412f,     0.02479830f,     -0.09543400f,     -0.06557635f,     0.09156615f,     -0.03485475f, 
    -0.00907180f,     -0.10003811f,     0.21779756f,     0.06556848f,     -0.09960271f,     0.05894283f,     -0.05996713f,     0.07900212f, 
    0.05324060f,     -0.06321231f,     0.13889934f,     0.04559772f,     -0.12667847f,     0.02280482f,     0.06611027f,     0.10120888f, 
    0.03728383f,     0.05147537f,     -0.17925391f,     -0.09998151f,     -0.10587133f,     -0.06139135f,     0.02268507f,     -0.09272932f, 
    0.04835717f,     -0.23937459f,     -0.14947426f,     -0.04982114f,     -0.05827116f,     -0.06659091f,     -0.29157132f,     0.01654389f, 
    -0.14615980f,     0.09418021f,     0.13161209f,     0.03310908f,     0.13139455f,     0.15164337f,     0.04978529f,     0.08757061f, 
    -0.03451864f,     0.02815297f,     0.00335291f,     -0.10398551f,     0.05193136f,     0.16465281f,     0.16367978f,     0.04531720f, 
    -0.01738874f,     0.09180328f,     0.00466703f,     -0.03211369f,     -0.07050240f,     -0.06170643f,     0.06658963f,     0.11529256f, 
    -0.08903417f,     -0.00198270f,     -0.01336642f,     -0.08828271f,     -0.08572230f,     0.10814884f,     0.07019530f,     -0.00106829f, 
    0.12348828f,     -0.09620450f,     0.01968834f,     0.06961278f,     -0.06115568f,     0.04064571f,     0.00439540f,     0.10363592f, 
    -0.11279039f,     -0.11178119f,     0.10571168f,     -0.02927524f,     -0.03610209f,     0.04647703f,     -0.10273329f,     0.05318303f, 
    0.16814652f,     -0.03937766f,     0.13759916f,     -0.03736869f,     -0.05739085f,     0.08305704f,     0.04996176f,     0.05633021f, 
    -0.03422100f,     -0.06946246f,     -0.06129286f,     0.04442576f,     -0.05825688f,     0.02532465f,     -0.12870942f,     -0.15060070f, 
    -0.04516850f,     0.05573061f,     0.12291586f,     0.01005744f,     -0.09903288f,     -0.10618056f,     -0.16306901f,     0.02714610f, 
    -0.06142786f,     0.11541820f,     -0.01207315f,     0.16631731f,     0.07574466f,     0.12443691f,     -0.09056433f,     -0.05963709f, 
    0.09500716f,     -0.03552807f,     0.09512904f,     0.05969626f,     0.04962255f,     -0.11631045f,     -0.13448265f,     -0.20654269f, 
    -0.00843666f,     -0.02061985f,     0.07007232f,     -0.05886675f,     -0.18397890f,     -0.04929584f,     -0.12236506f,     0.16377220f, 
    -0.09316070f,     0.03201900f,     0.12330155f,     0.08630193f,     0.17033003f,     -0.00414064f,     -0.10913318f,     0.09619660f, 
    -0.05409164f,     -0.03029254f,     -0.08995102f,     0.14641921f,     -0.04603063f,     0.09314165f,     -0.11048216f,     0.03024222f, 
    0.01909306f,     -0.16236883f,     0.09055732f,     -0.12176492f,     -0.10650566f,     -0.06455743f,     0.06398147f,     0.07791214f, 
    -0.07111965f,     0.04266046f,     -0.08098679f,     0.10775870f,     -0.01206524f,     0.00846081f,     -0.13953713f,     -0.05040944f, 
    -0.08639754f,     -0.10018644f,     -0.02602383f,     -0.08744495f,     -0.12651637f,     0.05497668f,     -0.06646172f,     0.08984161f, 
    -0.02160020f,     -0.01306103f,     0.09966884f,     0.06409993f,     -0.02103786f,     -0.00954017f,     -0.00353718f,     -0.04589133f, 
    -0.04843396f,     -0.04493874f,     -0.08575136f,     -0.00201880f,     0.04084309f,     -0.09602001f,     -0.11960821f,     -0.06690172f, 
    -0.13050596f,     0.03956755f,     -0.06959571f,     0.01735237f,     0.07753069f,     -0.07371313f,     -0.16406706f,     -0.05620224f, 
    -0.01647058f,     -0.20493060f,     0.20147170f,     -0.05261357f,     -0.07081778f,     -0.12917136f,     -0.07795384f,     -0.10606550f, 
    -0.13480383f,     -0.14845884f,     -0.01825783f,     0.01237571f,     -0.02759307f,     0.12044638f,     -0.07321444f,     -0.07660107f, 
    -0.05365719f,     -0.14313667f,     -0.03068934f,     -0.02003082f,     -0.09480367f,     -0.02145658f,     -0.13400699f,     -0.06449447f, 
    0.10025901f,     0.02198938f,     -0.12162594f,     -0.03741303f,     -0.13964750f,     -0.10439578f,     0.05861765f,     0.01668789f, 
    -0.07405670f,     0.01554493f,     0.13761254f,     0.07540949f,     0.04144831f,     -0.15219079f,     -0.13443372f,     -0.16255374f, 
    -0.04991435f,     -0.03101168f,     0.13060647f,     -0.09667754f,     0.06764249f,     -0.09395006f,     0.00102580f,     0.09381881f, 
    -0.11892299f,     0.02092417f,     -0.04455756f,     -0.06147463f,     0.07925066f,     0.11930067f,     0.04188383f,     -0.10747757f, 
    0.03322142f,     0.00497211f,     0.18287149f,     0.06372365f,     -0.04795253f,     -0.03009548f,     -0.08760487f,     -0.08743753f, 
    -0.05177996f,     -0.06458835f,     -0.07476214f,     0.07010288f,     0.10576424f,     0.12284730f,     -0.05880072f,     0.06198171f, 
    -0.07545130f,     0.03631737f,     -0.01522190f,     0.11860164f,     0.02874139f,     -0.09098540f,     0.04831045f,     -0.07890146f, 
    -0.14409213f,     0.07495477f,     0.04538558f,     0.06989159f,     0.08638673f,     -0.11316299f,     -0.08412164f,     0.10949343f, 
    0.10182299f,     -0.08849690f,     0.02374187f,     -0.01653083f,     -0.05170430f,     -0.07018518f,     -0.03334363f,     0.01521978f, 
    0.01569400f,     -0.20696323f,     -0.03085488f,     -0.11202154f,     0.12580466f,     0.08408604f,     -0.06800158f,     0.07640520f, 
    -0.03454198f,     0.00558196f,     0.04686639f,     0.04203303f,     0.00372975f,     -0.00450932f,     -0.12188257f,     0.04065364f, 
    0.03785348f,     0.09461762f,     -0.03175098f,     -0.04839905f,     0.31987271f,     0.20357983f,     -0.06779367f,     0.06563966f, 
    -0.06501027f,     -0.09407598f,     0.02211120f,     0.05049933f,     -0.11065523f,     -0.00580449f,     -0.17296794f,     -0.03234730f, 
    -0.09236629f,     -0.14686094f,     -0.01214979f,     0.01503925f,     -0.02425415f,     0.00726772f,     0.02124855f,     0.10272918f, 
    -0.05811591f,     -0.05546758f,     -0.13876525f,     0.03823519f,     -0.11836676f,     0.02280156f,     -0.00733598f,     -0.15262036f, 
    -0.11853586f,     -0.09879161f,     0.03563021f,     -0.02958070f,     -0.04972110f,     -0.04578806f,     0.10336794f,     0.07848401f, 
    -0.10760339f,     0.05116796f,     0.02448132f,     0.05411473f,     0.05369601f,     -0.04295011f,     0.02772754f,     -0.01076951f, 
    0.09292451f,     -0.10537504f,     0.04854790f,     0.09168054f,     -0.00032840f,     0.07676555f,     0.01135804f,     0.12090342f, 
    -0.09055133f,     0.07915054f,     -0.14446102f,     -0.06688700f,     -0.27518618f,     0.11476925f,     0.01462192f,     -0.06701820f, 
    0.09404916f,     0.08264606f,     -0.01542039f,     -0.13788417f,     -0.02276553f,     -0.04304808f,     0.12233398f,     -0.01830395f, 
    -0.01682535f,     0.03121912f,     0.05753762f,     0.14805159f,     0.11976659f,     0.13945733f,     0.02779562f,     -0.02460439f, 
    0.00799264f,     -0.01249461f,     -0.07258399f,     0.04055966f,     -0.05310612f,     -0.02183310f,     -0.07501747f,     -0.02803002f, 
    -0.08622385f,     0.10790824f,     0.03504111f,     0.00604852f,     0.04088836f,     0.10126298f,     -0.00382732f,     -0.05518109f, 
    -0.11703280f,     0.05563625f,     0.00603289f,     0.05358685f,     0.01474696f,     -0.02808809f,     -0.01388536f,     0.00780741f, 
    0.03613261f,     0.05048907f,     0.07003932f,     0.13489981f,     -0.03965623f,     0.06115417f,     0.08562145f,     0.02207702f, 
    0.02369094f,     -0.17989834f,     -0.11183459f,     -0.11499581f,     0.02069094f,     -0.08038855f,     0.19622889f,     -0.11029214f, 
    -0.11596359f,     -0.14740485f,     -0.15572254f,     -0.00699987f,     -0.00100576f,     -0.22446786f,     0.00597107f,     0.16158517f, 
    0.06723450f,     -0.06520773f,     -0.00147348f,     0.14644554f,     0.01600715f,     -0.12446168f,     0.11211353f,     0.08111073f, 
    0.08403526f,     -0.03471513f,     0.13523290f,     -0.02705768f,     0.06000314f,     0.07302251f,     -0.12038490f,     0.01598785f, 
    -0.02485890f,     -0.16967095f,     -0.03176537f,     0.00868362f,     0.01842807f,     -0.01462478f,     0.04456764f,     -0.05551825f, 
    -0.04148007f,     0.09664730f,     0.09149773f,     -0.05939771f,     -0.10426154f,     -0.15845479f,     -0.03206668f,     -0.01568387f, 
    -0.01630342f,     0.04048222f,     0.04436697f,     0.04202541f,     -0.14602694f,     0.11238364f,     0.05151723f,     -0.07629803f, 
    0.13003087f,     0.01379888f,     0.05224763f,     -0.01332950f,     0.09092822f,     -0.04957056f,     0.22564392f,     0.11735206f, 
    -0.01848179f,     -0.10537917f,     -0.08470881f,     0.01972638f,     -0.15140603f,     0.01764398f,     0.06175416f,     0.08173467f, 
    -0.12105599f,     -0.14328179f,     -0.01101927f,     0.07211029f,     0.11827000f,     -0.08957347f,     -0.01535160f,     -0.03032956f, 
    -0.10186287f,     -0.04411733f,     0.03552600f,     0.09235061f,     -0.03990338f,     0.06804801f,     -0.09214707f,     0.03925728f, 
    0.11259118f,     -0.09507947f,     0.08489478f,     0.10033526f,     0.06571794f,     -0.03660085f,     -0.03416631f,     -0.00643670f, 
    0.12893370f,     -0.04372807f,     -0.12325694f,     0.07112246f,     0.04844532f,     0.02090416f,     -0.04913333f,     0.03047719f, 
    -0.03668843f,     -0.05073745f,     0.06953055f,     -0.04837278f,     0.03739664f,     -0.08462191f,     -0.06244133f,     -0.00497094f, 
    0.03888757f,     0.07271368f,     -0.08738714f,     -0.13497454f,     0.07533439f,     0.13875590f,     0.04987210f,     0.06568938f, 
    0.25700882f,     -0.05377072f,     0.14751913f,     -0.04183527f,     0.01676495f,     -0.00441757f,     -0.11684528f,     0.14724600f, 
    0.04217788f,     0.04664338f,     -0.07144017f,     -0.11122598f,     0.05176042f,     0.06417195f,     0.10698755f,     0.01274595f, 
    0.02597410f,     0.08119299f,     0.00830993f,     -0.07031914f,     0.04268906f,     0.12047593f,     0.04827851f,     0.04835790f, 
    0.10601245f,     -0.07853416f,     -0.01952675f,     0.00532416f,     0.07168885f,     -0.10547964f,     0.06688263f,     -0.10965142f, 
    -0.06988031f,     0.02452544f,     0.00534896f,     0.04449611f,     0.05871876f,     -0.02454178f,     0.10403892f,     0.11790261f, 
    0.16718860f,     0.09567848f,     0.04574815f,     0.08754947f,     -0.12856886f,     -0.08147521f,     -0.07514118f,     0.02862466f, 
    -0.04170027f,     -0.07831159f,     -0.09732981f,     -0.09289828f,     -0.00450822f,     -0.04414918f,     -0.03333447f,     0.09354915f, 
    0.03140201f,     0.02306237f,     0.06208163f,     -0.09616146f,     -0.00733523f,     -0.07949928f,     -0.10342252f,     0.08604205f, 
    -0.11994113f,     -0.16043404f,     -0.00550742f,     0.03340190f,     0.16311808f,     0.14715055f,     0.12023968f,     -0.05742257f, 
    -0.14646727f,     -0.03395133f,     -0.06452311f,     -0.04685247f,     0.01657818f,     0.04198588f,     -0.11792594f,     0.02497829f, 
    0.02329529f,     -0.02234038f,     0.01562962f,     -0.01636951f,     -0.02241928f,     0.11726549f,     0.10018359f,     -0.08739194f, 
    0.01865396f,     -0.12920466f,     -0.11204014f,     -0.04665188f,     0.01196003f,     -0.20155866f,     -0.11658684f,     0.03218575f, 
    0.11675647f,     -0.13825403f,     -0.00355418f,     -0.07682903f,     -0.10237315f,     -0.07163661f,     0.14996469f,     -0.04124094f, 
    -0.06815431f,     -0.03363479f,     -0.06091834f,     -0.00356019f,     0.14330816f,     0.20911613f,     0.04899891f,     -0.13133094f, 
    -0.08495662f,     0.06417741f,     0.05868572f,     -0.02415990f,     0.04079996f,     0.03232899f,     -0.04425870f,     -0.11328748f, 
    -0.01274345f,     0.05026776f,     -0.01434906f,     -0.05476600f,     -0.10039344f,     0.03979912f,     -0.00570196f,     0.02320357f, 
    -0.06925834f,     0.15056409f,     0.14670803f,     0.01870820f,     0.12374979f,     0.08780109f,     -0.08499897f,     -0.02993326f, 
    -0.02938958f,     -0.07157631f,     -0.01389689f,     -0.08253174f,     0.08629260f,     0.08241737f,     -0.11251555f,     -0.02682550f, 
    -0.01037202f,     -0.01798171f,     -0.01196842f,     -0.04157038f,     0.14638330f,     -0.04706323f,     0.11371280f,     0.04168246f, 
    0.03648506f,     -0.11939807f,     0.00635262f,     -0.10974459f,     -0.03961917f,     0.04339941f,     -0.09039503f,     0.08202637f, 
    -0.08535617f,     -0.00170406f,     0.08607507f,     -0.05339041f,     -0.04713625f,     0.05461210f,     -0.10343442f,     0.13137347f, 
    -0.10015842f,     0.05217714f,     0.25153267f,     -0.24276042f,     -0.06411190f,     -0.00017278f,     0.05307478f,     0.09660238f, 
    0.02274102f,     0.00026731f,     0.08549538f,     0.12811425f,     0.17096190f,     0.01699060f,     -0.10994864f,     0.04745535f, 
    0.09357568f,     0.09796356f,     -0.01902654f,     0.02328669f,     0.03032358f,     -0.01338148f,     -0.03148944f,     0.05952627f, 
    -0.04920370f,     -0.04515886f,     -0.01035564f,     0.07380465f,     0.10532431f,     -0.03832558f,     0.06089078f,     -0.06262194f, 
    -0.09334936f,     0.07406393f,     0.04079235f,     -0.14775994f,     -0.11438250f,     0.10857151f,     0.13513504f,     0.04357396f, 
    0.00708662f,     0.03992924f,     -0.09268586f,     -0.12675883f,     -0.06678517f,     -0.02291283f,     -0.07085863f,     0.09640532f, 
    -0.06197320f,     0.14497824f,     -0.08270711f,     0.02425174f,     0.14860500f,     0.14145343f,     0.09015606f,     0.12393213f, 
    -0.09896649f,     -0.08982125f,     -0.08023113f,     -0.01219251f,     -0.18588027f,     -0.04127169f,     0.02294159f,     -0.09124965f, 
    0.19533414f,     -0.06924149f,     0.00829604f,     0.11946741f,     -0.07589469f,     -0.05830313f,     -0.03538218f,     0.09167551f, 
    -0.01990295f,     -0.09329546f,     0.03056781f,     -0.05750794f,     0.05862825f,     -0.08687748f,     -0.10222192f,     -0.09961577f, 
    -0.06272483f,     0.01301254f,     0.04620931f,     0.12795871f,     -0.01175562f,     0.07374341f,     -0.06352142f,     0.00128246f, 
    -0.06197865f,     -0.06876087f,     0.13051757f,     -0.09787992f,     0.03675364f,     0.06322485f,     0.06412407f,     -0.03371132f, 
    0.06470253f,     -0.08092084f,     -0.06146793f,     0.00941397f,     0.01960984f,     0.07828721f,     -0.05193083f,     0.07514091f, 
    -0.01363113f,     -0.04747281f,     0.12000159f,     -0.03305051f,     0.12510617f,     0.00073960f,     0.01900190f,     0.13110524f, 
    -0.13959464f,     0.03889134f,     0.09259153f,     0.14133228f,     -0.15613522f,     -0.13044780f,     0.03956111f,     0.02647212f, 
    -0.00046364f,     0.00253200f,     0.00383634f,     0.01270151f,     -0.13766116f,     -0.19963080f,     -0.13307686f,     0.02331067f, 
    -0.10592007f,     -0.02470464f,     0.06548073f,     -0.12193099f,     0.05764608f,     -0.10106720f,     -0.10729510f,     -0.10973288f, 
    -0.13082127f,     -0.16564664f,     0.07899711f,     0.01771808f,     -0.13947479f,     -0.02526121f,     0.10512426f,     -0.02993294f, 
    -0.10170713f,     -0.03853281f,     -0.06972280f,     0.09699576f,     0.02791280f,     -0.05221029f,     -0.09763537f,     -0.01397885f, 
    -0.14641157f,     0.09344719f,     -0.11627540f,     0.08235230f,     0.11447343f,     0.07536528f,     -0.15731514f,     -0.17259185f, 
    -0.03829830f,     0.00665038f,     0.04008616f,     -0.14243855f,     -0.13253114f,     0.01063777f,     0.00757695f,     -0.07753281f, 
    0.02498135f,     -0.12517233f,     0.01371514f,     -0.00174636f,     0.10938695f,     -0.03193477f,     -0.19241942f,     0.10951636f, 
    0.08592553f,     -0.04444418f,     0.00975686f,     0.05443989f,     -0.01003734f,     0.10022175f,     -0.03706431f,     -0.03827500f, 
    0.06249623f,     -0.05459788f,     0.00586099f,     -0.04469620f,     -0.07930319f,     0.11485843f,     -0.00562906f,     0.14166884f, 
    0.08595262f,     0.07365841f,     -0.11919749f,     -0.04981219f,     0.01611619f,     -0.09722025f,     -0.11174356f,     0.05698670f, 
    0.01191040f,     -0.02487556f,     0.00828141f,     -0.04282162f,     0.03602459f,     -0.01447225f,     0.10220240f,     0.07253546f, 
    0.09970777f,     0.06650565f,     0.04196116f,     -0.06812687f,     -0.07874896f,     0.00585950f,     0.08599641f,     -0.08204968f, 
    0.08893508f,     -0.09476073f,     0.12222356f,     0.02494113f,     0.02583557f,     -0.07298689f,     0.07530086f,     -0.15059510f, 
    0.07118679f,     -0.10152066f,     0.11460970f,     0.11994765f,     -0.14285806f,     0.10314935f,     0.02165366f,     -0.26426810f, 
    -0.04208733f,     0.19485331f,     0.08473379f,     0.10433649f,     0.15582862f,     0.00968911f,     0.05048689f,     -0.01163826f, 
    0.02969469f,     -0.11042848f,     0.02449732f,     -0.15595149f,     -0.08383337f,     0.01818001f,     0.06944666f,     0.08005809f, 
    -0.06904011f,     0.05700541f,     0.07694124f,     -0.08470833f,     -0.09982690f,     -0.08788602f,     -0.15302399f,     -0.07247076f, 
    0.03791186f,     0.05793842f,     0.08347610f,     -0.16348955f,     0.02618217f,     -0.08650465f,     -0.09481251f,     0.11293460f, 
    -0.08535343f,     -0.11724561f,     -0.04665924f,     0.01103979f,     -0.15586828f,     -0.08833690f,     -0.03041054f,     -0.06034838f, 
    0.09584527f,     -0.05960802f,     0.04754221f,     0.07367092f,     0.04891751f,     -0.11518833f,     0.03526990f,     0.09471060f, 
    0.11988112f,     0.10405586f,     -0.14806271f,     0.07174461f,     0.07620919f,     0.00536766f,     -0.09750853f,     0.11586824f, 
    -0.01106028f,     -0.01796715f,     -0.14660357f,     -0.03155743f,     -0.05854304f,     -0.07463187f,     -0.13258806f,     0.05281698f, 
    0.09777000f,     0.17464894f,     -0.04456753f,     -0.02226675f,     0.07082344f,     -0.04570977f,     -0.01208843f,     -0.07887122f, 
    -0.07428985f,     0.06723154f,     -0.01318494f,     0.01544769f,     -0.00460342f,     -0.07390240f,     0.02543656f,     -0.15054172f, 
    0.00018483f,     -0.18620777f,     0.01954584f,     -0.01141383f,     0.02395698f,     0.06953126f,     -0.02762519f,     0.02608405f, 
    0.18687879f,     0.01740309f,     0.07683289f,     -0.12321318f,     -0.11809674f,     -0.17954068f,     -0.08433865f,     -0.04381196f, 
    0.10801191f,     0.06458129f,     0.14999679f,     -0.05435525f,     -0.08852844f,     -0.12813786f,     -0.12566032f,     -0.01408297f, 
    -0.00337458f,     0.00434881f,     -0.10686360f,     0.11336958f,     -0.14422426f,     -0.11991639f,     -0.03214321f,     0.10993210f, 
    -0.02545081f,     0.22362405f,     0.01702434f,     0.17247435f,     0.14774810f,     0.00365791f,     -0.07343737f,     -0.07351501f, 
    0.12593530f,     -0.10844792f,     0.12430778f,     0.08913083f,     0.03365747f,     -0.08405428f,     -0.05063674f,     -0.06456665f, 
    -0.09455280f,     0.08862738f,     0.01402010f,     -0.15422422f,     0.10188565f,     0.08813146f,     0.05758059f,     0.08330773f, 
    0.00497877f,     0.10766080f,     -0.02003382f,     -0.02099629f,     -0.03362077f,     -0.01702382f,     0.12860715f,     0.04373157f, 
    -0.09785445f,     0.01615215f,     0.03604877f,     0.06871212f,     -0.04206145f,     -0.02662099f,     -0.06402789f,     -0.08742420f, 
    -0.15399167f,     -0.07661802f,     -0.09486162f,     0.06607270f,     -0.11899294f,     -0.09029324f,     -0.02896427f,     -0.01070299f, 
    -0.08347163f,     -0.05480166f,     0.11442165f,     -0.12259059f,     -0.07306593f,     -0.17956646f,     0.05981591f,     0.06061735f, 
    -0.10216299f,     0.08282770f,     -0.20821850f,     -0.15923680f,     -0.09219119f,     -0.11784619f,     -0.08126337f,     -0.16255988f, 
    -0.13451473f,     -0.09735782f,     -0.07233990f,     -0.10264493f,     -0.01211330f,     -0.10273740f,     -0.03357840f,     -0.05257619f, 
    0.02401937f,     -0.13964723f,     0.02358685f,     -0.05048218f,     0.17307986f,     -0.03845784f,     -0.03974965f,     0.05642067f, 
    0.03258265f,     -0.02543285f,     0.02516345f,     0.00286010f,     0.21066040f,     0.11371846f,     -0.03027122f,     0.13110362f, 
    0.08757015f,     -0.03561012f,     -0.04131600f,     0.15820663f,     0.13889888f,     -0.02758639f,     0.04763506f,     -0.09866910f, 
    0.14910401f,     0.14674921f,     -0.09641913f,     0.04072773f,     -0.06751765f,     0.08348411f,     -0.03560961f,     -0.00272102f, 
    0.13871889f,     0.00420661f,     -0.05120735f,     0.00303147f,     -0.08375482f,     0.09298289f,     -0.06377416f,     0.10859823f, 
    0.05688629f,     -0.09205594f,     0.01195704f,     -0.16831969f,     -0.11380663f,     -0.02415178f,     0.07051206f,     -0.11810436f, 
    0.13384208f,     0.19326212f,     -0.13785675f,     -0.09455742f,     -0.08046999f,     0.10962837f,     0.07346295f,     0.07839906f, 
    -0.05347056f,     -0.04233655f,     -0.00171295f,     -0.02981510f,     0.03441412f,     -0.11683819f,     0.08512636f,     0.09078054f, 
    -0.02869138f,     -0.05746558f,     -0.09470542f,     -0.03837021f,     0.01123003f,     0.06093649f,     -0.00306409f,     0.07229025f, 
    0.06594057f,     0.04341492f,     -0.11273320f,     -0.08321595f,     -0.13103470f,     -0.11114849f,     0.05986379f,     0.03206823f, 
    0.00901940f,     -0.00268963f,     0.15189292f,     -0.08623447f,     0.05978623f,     -0.12578215f,     0.13340549f,     -0.02690916f, 
    -0.03965795f,     0.15883690f,     -0.12533966f,     -0.08335894f,     0.06074218f,     0.13257156f,     0.12355366f,     0.12770309f, 
    0.04591891f,     -0.06677313f,     0.00451529f,     -0.21591637f,     0.08861634f,     -0.11182331f,     -0.04037866f,     -0.02465696f, 
    -0.06665581f,     -0.14900771f,     0.18496524f,     -0.10680150f,     -0.04421006f,     -0.08018377f,     0.01970070f,     0.03646586f, 
    -0.05205258f,     -0.08941799f,     0.00421419f,     -0.02718858f,     -0.08052561f,     0.12920780f,     -0.01226290f,     0.00123053f, 
    0.12294737f,     -0.05683626f,     0.22833218f,     -0.04780947f,     -0.06360658f,     -0.15247624f,     -0.05539311f,     -0.05175504f, 
    -0.02364212f,     -0.06298647f,     -0.00407198f,     0.00007279f,     -0.00872627f,     0.05433980f,     0.00893309f,     -0.10128963f, 
    0.01520801f,     -0.08151094f,     0.16154897f,     0.09995523f,     0.11862857f,     0.02922862f,     -0.17666352f,     0.04096763f, 
    0.07578364f,     -0.05471658f,     -0.13519870f,     0.11733904f,     0.07762993f,     -0.13442576f,     -0.10379398f,     0.07619914f, 
    0.10861732f,     -0.11174718f,     0.12603372f,     0.04991808f,     -0.17419843f,     0.02462978f,     0.05896572f,     0.02859116f, 
    -0.00754717f,     0.07200057f,     -0.12093398f,     0.19985694f,     0.04859950f,     -0.00231033f,     0.06435980f,     -0.00128697f, 
    0.19124891f,     -0.02569691f,     0.12495979f,     -0.02023790f,     0.16062543f,     -0.10749018f,     -0.03844551f,     -0.03402543f, 
    -0.09302917f,     0.02393445f,     0.01369227f,     0.12203919f,     0.03174843f,     -0.06409682f,     0.08408342f,     0.09402637f, 
    0.07441637f,     -0.00654472f,     0.10870134f,     -0.10946941f,     -0.00412066f,     -0.06267207f,     0.08097274f,     0.05149342f, 
    0.13806000f,     0.10268813f,     0.01562838f,     -0.03249763f,     0.13177966f,     0.09615826f,     -0.01647310f,     0.09344776f, 
    -0.11437123f,     -0.03501267f,     -0.06434738f,     -0.09892501f,     0.08937065f,     0.04638422f,     0.02503044f,     -0.05164899f, 
    -0.02847615f,     -0.02801341f,     -0.15042515f,     0.02056679f,     -0.15264928f,     -0.05534081f,     0.38114008f,     0.03460982f, 
    -0.06125100f,     0.02796092f,     0.05366050f,     0.04723484f,     -0.15010203f,     -0.12542592f,     -0.08959773f,     -0.13321437f, 
    0.07935397f,     -0.01551519f,     -0.13325258f,     -0.00219077f,     -0.14779460f,     -0.10888559f,     -0.04573790f,     -0.06097089f, 
    0.00092972f,     -0.03809030f,     0.09196921f,     -0.02001624f,     0.06228797f,     -0.16128045f,     -0.13011126f,     -0.09927347f, 
    0.13320634f,     -0.12696816f,     0.06127253f,     -0.14391975f,     0.00333495f,     -0.10428397f,     -0.02661693f,     -0.07834865f, 
    0.07361272f,     -0.13793042f,     -0.09969484f,     0.03277929f,     -0.10252073f,     0.02006510f,     -0.16256142f,     -0.09251520f, 
    0.00776283f,     0.10553060f,     0.00926862f,     0.08747007f,     -0.08879124f,     -0.01340365f,     0.04555191f,     0.09705562f, 
    -0.12796043f,     0.02455350f,     -0.05671603f,     0.05003490f,     0.09518162f,     -0.16934709f,     0.09151756f,     -0.06513242f, 
    -0.11363872f,     -0.09231856f,     0.01630958f,     0.00996984f,     -0.04642673f,     0.18806168f,     0.01102419f,     0.10258429f, 
    -0.07516696f,     -0.01484715f,     0.02093989f,     -0.04980713f,     -0.02561490f,     0.02835324f,     0.00097276f,     0.00349512f, 
    0.01199637f,     0.11712371f,     -0.10983544f,     -0.04560515f,     0.09380668f,     0.02510044f,     0.13329150f,     -0.01437701f, 
    0.00056714f,     -0.04754893f,     0.12259371f,     0.07910211f,     0.08071425f,     0.01318630f,     -0.03397224f,     0.07911763f, 
    0.06541906f,     -0.04170666f,     0.10968324f,     0.16121946f,     -0.05693207f,     0.05059620f,     0.13081704f,     -0.01329090f, 
    -0.05251751f,     0.08267676f,     -0.10126343f,     0.10362472f,     0.03950400f,     0.08782669f,     -0.09257849f,     0.07098781f, 
    -0.00903046f,     -0.08707152f,     0.02740509f,     0.10358172f,     0.00716624f,     0.08637113f,     0.06200222f,     -0.27339640f, 
    0.21581993f,     -0.04178983f,     0.03487440f,     -0.09931847f,     0.08596150f,     -0.10749150f,     -0.15666293f,     -0.17227186f, 
    0.05229592f,     -0.07405532f,     0.09712514f,     -0.07963805f,     0.02354981f,     0.14376518f,     0.08930146f,     0.11544713f, 
    0.03846155f,     -0.10678268f,     -0.00614905f,     -0.12762214f,     -0.12827408f,     -0.06601576f,     0.11604531f,     0.04216641f, 
    -0.10237990f,     -0.14986789f,     -0.10989110f,     -0.00594833f,     -0.12274985f,     0.10961935f,     0.10951088f,     -0.13501611f, 
    -0.02823302f,     -0.09737737f,     -0.06069429f,     -0.01622732f,     -0.15527949f,     -0.11628681f,     0.04564011f,     -0.11323123f, 
    -0.03979665f,     -0.04737031f,     -0.01420014f,     0.04980620f,     0.00742181f,     -0.05781350f,     -0.06846409f,     0.06555230f, 
    0.00652677f,     -0.01048624f,     0.09171469f,     -0.06118610f,     -0.01816039f,     -0.07248476f,     0.00063348f,     0.06299466f, 
    -0.13354740f,     0.22799885f,     0.19735605f,     0.15943278f,     -0.15260418f,     -0.12658815f,     0.05517432f,     -0.20747338f, 
    0.17360172f,     -0.02732992f,     -0.10453025f,     -0.10499702f,     0.08647051f,     -0.07227544f,     -0.13579181f,     -0.14583746f, 
    -0.03353244f,     -0.04946355f,     -0.06499011f,     0.01236172f,     -0.02479962f,     -0.07119734f,     -0.02374040f,     -0.01962858f, 
    0.01137518f,     0.05539566f,     0.02652033f,     0.04092038f,     0.08663317f,     0.08289837f,     0.07265163f,     0.07398555f, 
    0.04463516f,     -0.08593125f,     -0.06854558f,     0.11509947f,     -0.03639310f,     -0.06121701f,     0.05825928f,     -0.15036356f, 
    -0.08507348f,     -0.04910637f,     0.03742237f,     0.07406688f,     0.12077417f,     0.08467517f,     -0.03931294f,     -0.06054303f, 
    -0.03624190f,     -0.06395651f,     -0.06581804f,     0.11036367f,     -0.09051835f,     -0.06126347f,     -0.10835357f,     0.00364714f, 
    0.01869922f,     0.24992228f,     -0.22467810f,     -0.00666838f,     -0.05038572f,     -0.06857453f,     -0.12703940f,     0.06574386f, 
    -0.11383560f,     0.04010886f,     0.14194337f,     -0.02407971f,     0.04237618f,     -0.01481932f,     0.14848050f,     -0.12984066f, 
    0.09858177f,     -0.04744253f,     -0.08889305f,     -0.02104401f,     -0.09288274f,     0.10951004f,     0.04053476f,     0.07865416f, 
    -0.13180853f,     0.13063693f,     -0.04724138f,     -0.05569765f,     -0.08895292f,     -0.00873285f,     0.06335169f,     0.02186245f, 
    0.04271859f,     0.03777172f,     -0.07647346f,     0.02047962f,     0.18950655f,     0.09151745f,     0.27391544f,     0.07069395f, 
    -0.00846689f,     0.06110802f,     -0.00031733f,     0.04848822f,     -0.06225975f,     0.00255471f,     -0.01682379f,     -0.01991453f, 
    -0.08140210f,     -0.02572187f,     -0.06764719f,     0.09497016f,     0.04439276f,     0.17562820f,     -0.02517997f,     -0.03294052f, 
    -0.04408450f,     -0.01087052f,     0.19140519f,     -0.08676336f,     -0.15481296f,     -0.17050029f,     0.06993246f,     0.02593684f, 
    0.11388472f,     0.08769420f,     0.09381019f,     -0.18976039f,     -0.09295315f,     0.10524844f,     -0.12599400f,     -0.12475605f, 
    0.01403514f,     -0.01992986f,     0.01239999f,     0.05535237f,     0.10603253f,     0.06597939f,     0.13466367f,     -0.03962043f, 
    0.15753263f,     0.07825740f,     -0.08455747f,     -0.01803673f,     -0.11354323f,     0.10315751f,     -0.06163697f,     -0.03638086f, 
    -0.12726772f,     0.10563117f,     -0.05803094f,     0.04349646f,     0.06291030f,     0.01763460f,     0.06846258f,     0.16893877f, 
    0.05261172f,     0.12763092f,     0.13564961f,     0.01995626f,     -0.04005593f,     -0.13340655f,     0.08037817f,     -0.06125361f, 
    -0.07555588f,     -0.11778358f,     0.12545086f,     0.13083346f,     0.08363571f,     0.14146927f,     -0.00491294f,     0.00650802f, 
    -0.13688137f,     0.06686448f,     0.07834402f,     -0.15381140f,     -0.09638532f,     0.09367834f,     -0.04633682f,     -0.16459216f, 
    0.01084507f,     -0.12029411f,     -0.12821981f,     -0.08134338f,     0.11851936f,     0.10577536f,     -0.05430361f,     -0.08640689f, 
    0.15724081f,     -0.02345990f,     -0.05513951f,     -0.07677548f,     -0.05386399f,     -0.03642987f,     0.15674065f,     -0.02129653f, 
    -0.10461188f,     0.09741833f,     -0.04122011f,     -0.03831313f,     -0.01784009f,     0.10631127f,     0.09743096f,     0.07472009f, 
    0.13068196f,     0.10844110f,     -0.00962637f,     -0.02247722f,     0.03456230f,     -0.04574630f,     0.04348914f,     0.13366096f, 
    -0.01472754f,     0.14103431f,     -0.08091698f,     -0.01875814f,     0.09036592f,     -0.05916928f,     0.02716436f,     -0.04588281f, 
    0.13387457f,     0.07142054f,     -0.00436847f,     0.09765527f,     -0.02353325f,     0.14680725f,     0.16622405f,     0.07806625f, 
    0.08164200f,     0.04428723f,     -0.13280983f,     0.05818538f,     0.20644875f,     -0.19536261f,     -0.05659139f,     0.07296523f, 
    -0.04659216f,     0.18329400f,     0.04938986f,     0.19600692f,     0.03305301f,     -0.05137026f,     0.04490909f,     -0.02982156f, 
    -0.00497708f,     -0.02521982f,     0.08604187f,     -0.10670900f,     -0.01813094f,     -0.15755501f,     0.04464546f,     -0.00355705f, 
    0.06593802f,     -0.06157354f,     -0.06188473f,     -0.08655392f,     -0.08432464f,     0.01128554f,     -0.12143022f,     0.03440078f, 
    -0.02951342f,     -0.06002162f,     -0.08582821f,     0.09475047f,     -0.08726189f,     -0.12517531f,     -0.00688157f,     -0.02726153f, 
    -0.08023506f,     -0.11398380f,     -0.14815085f,     0.04555964f,     0.00832149f,     0.09194383f,     -0.10056868f,     -0.02033957f, 
    -0.04473310f,     0.03980174f,     -0.00693000f,     -0.09809054f,     -0.18045686f,     -0.12638092f,     0.00289620f,     -0.00017047f, 
    0.11093242f,     -0.15894794f,     0.02699263f,     -0.04764017f,     0.04782704f,     0.02761696f,     0.12897566f,     -0.03723672f, 
    -0.17639749f,     -0.04239457f,     -0.18855488f,     0.01043809f,     -0.15026146f,     -0.12028670f,     0.06616452f,     -0.00634302f, 
    -0.07293890f,     -0.13127553f,     0.02055249f,     -0.08187418f,     -0.03348152f,     0.05932619f,     0.06436587f,     0.01963684f, 
    -0.04788870f,     -0.13303719f,     0.03059964f,     -0.08897384f,     0.08198342f,     0.20608239f,     0.06516690f,     0.05161685f, 
    -0.02636199f,     -0.13556689f,     0.00516021f,     -0.04558105f,     -0.05219171f,     0.06576815f,     0.04614678f,     0.12330535f, 
    0.02723092f,     -0.15838419f,     0.12872523f,     0.01898127f,     0.13043649f,     0.12923411f,     0.09851763f,     0.02464723f, 
    -0.09679462f,     -0.14394045f,     0.05542238f,     -0.07794315f,     0.00772107f,     0.16623010f,     0.12584616f,     -0.03906567f, 
    -0.01034097f,     -0.15451013f,     -0.08684418f,     0.10084380f,     -0.05292320f,     -0.07087013f,     0.06515811f,     0.03334372f, 
    -0.11285659f,     0.07054058f,     0.03044471f,     0.02853081f,     -0.02584337f,     0.08231978f,     -0.04439983f,     0.15423629f, 
    -0.12349568f,     -0.08569830f,     -0.02385949f,     -0.05421392f,     -0.01458384f,     -0.06412125f,     0.04415884f,     0.04159585f, 
    0.05433991f,     0.08681706f,     0.02761615f,     0.09961464f,     0.09378619f,     0.10521251f,     -0.01384081f,     0.10993610f, 
    0.01521323f,     -0.09043659f,     -0.11925729f,     0.04251164f,     -0.00926325f,     -0.05452776f,     0.10635948f,     -0.10169663f, 
    0.11610705f,     0.00799196f,     0.11444157f,     0.06286363f,     -0.06992137f,     -0.06747400f,     -0.06723930f,     0.04221684f, 
    0.14861462f,     -0.09732908f,     0.04545561f,     0.13079983f,     0.00656320f,     -0.07785788f,     0.13862647f,     -0.03908800f, 
    0.10401696f,     -0.03038272f,     -0.01940846f,     -0.00796519f,     0.01505505f,     0.12406365f,     -0.00185545f,     -0.04667547f, 
    0.26135540f,     0.12728530f,     0.06025911f,     0.05301223f,     -0.13671267f,     0.07086703f,     -0.11280843f,     0.07118289f, 
    0.13054897f,     -0.12228682f,     -0.03116391f,     0.02133482f,     -0.01789811f,     -0.10013773f,     -0.13045412f,     -0.13750410f, 
    0.10157859f,     -0.06192010f,     -0.09912615f,     -0.14349772f,     -0.15192889f,     -0.10095622f,     -0.11861134f,     -0.01763014f, 
    -0.00958677f,     -0.06846160f,     0.01595553f,     0.08653305f,     0.05512643f,     0.00883365f,     0.05527660f,     -0.01835446f, 
    0.11172212f,     -0.04906747f,     0.00745900f,     0.03285620f,     -0.12773168f,     0.04749259f,     -0.09336105f,     -0.05238293f, 
    -0.07759411f,     -0.07113115f,     0.02897353f,     0.02034959f,     0.01081448f,     -0.02792802f,     0.16488169f,     -0.06810145f, 
    -0.05619591f,     -0.03659863f,     -0.06422000f,     0.07734825f,     -0.08074986f,     -0.06900749f,     -0.06369554f,     0.06011371f, 
    -0.10104531f,     -0.03269293f,     0.07948076f,     0.08037729f,     0.12922716f,     -0.06321961f,     -0.13904399f,     -0.07681267f, 
    -0.14883700f,     -0.01438893f,     -0.02213865f,     0.00699864f,     0.00587315f,     0.04266336f,     -0.09583495f,     -0.00032701f, 
    0.14765367f,     0.13420875f,     -0.01925159f,     0.10374560f,     0.01239427f,     0.01489295f,     -0.07096549f,     0.03584395f, 
    0.13360310f,     -0.02804924f,     0.05840310f,     -0.07083227f,     0.09510864f,     0.00507675f,     -0.08326802f,     -0.07730402f, 
    0.08935673f,     -0.05496591f,     0.06706375f,     0.01094589f,     0.02698357f,     -0.04056141f,     -0.04943880f,     -0.04933079f, 
    -0.03676701f,     0.07736315f,     -0.08167215f,     -0.01462205f,     0.15787378f,     0.11216480f,     0.09441628f,     -0.10048982f, 
    -0.01950906f,     -0.09311390f,     -0.03051655f,     0.13588431f,     -0.03470474f,     -0.10838474f,     -0.09878469f,     0.06491111f, 
    0.10088075f,     0.20686805f,     -0.11165856f,     0.07461593f,     0.18916780f,     -0.11045219f,     0.11153276f,     -0.06875800f, 
    0.00936084f,     -0.06264274f,     0.16592526f,     0.00096272f,     0.04202997f,     0.00280900f,     -0.12384113f,     0.06516661f, 
    0.11740299f,     0.10112301f,     0.05802324f,     -0.02632249f,     0.01797612f,     0.12503593f,     0.06096814f,     0.12437813f, 
    0.29659596f,     -0.00003908f,     0.10319550f,     -0.04106187f,     -0.21558347f,     0.06390388f,     -0.09713487f,     -0.11293117f, 
    0.11145404f,     -0.16800483f,     0.10416745f,     -0.11659236f,     -0.01746935f,     0.12156536f,     0.15636198f,     0.14842008f, 
    0.04269311f,     -0.15883803f,     -0.03550968f,     0.00866408f,     0.16058357f,     0.02636737f,     -0.06031020f,     0.05446148f, 
    -0.00104932f,     0.01818680f,     -0.09678452f,     -0.09186292f,     -0.04105613f,     -0.01527233f,     -0.12020739f,     -0.12906343f, 
    -0.05378686f,     -0.04889792f,     0.06696229f,     0.11648767f,     0.02115903f,     0.06736789f,     -0.15362598f,     -0.14001279f, 
    -0.06706331f,     -0.08795691f,     -0.08204754f,     0.16444436f,     0.05387748f,     0.13979752f,     0.08939517f,     -0.02471057f, 
    -0.12335768f,     -0.12623137f,     -0.00424578f,     -0.06857719f,     0.05209010f,     -0.11007404f,     0.07773174f,     -0.08392935f, 
    -0.16500475f,     -0.08697098f,     0.03668312f,     -0.12650405f,     0.00703879f,     -0.04203518f,     -0.03777481f,     -0.05563631f, 
    -0.00246774f,     0.07512608f,     0.02664000f,     -0.08991013f,     -0.04615154f,     -0.13985452f,     -0.09591465f,     -0.08876286f, 
    -0.19727652f,     -0.03337548f,     0.03635764f,     -0.15864195f,     -0.06926306f,     0.01882709f,     -0.06607662f,     -0.15850946f, 
    -0.14438128f,     0.07839015f,     0.02391448f,     0.14355262f,     -0.05071319f,     0.00927000f,     0.06456853f,     0.06978210f, 
    -0.02883437f,     -0.06820659f,     -0.05947364f,     -0.15665217f,     0.13441901f,     0.07447030f,     0.14195053f,     0.00407536f, 
    0.08160336f,     0.03533176f,     -0.02348423f,     0.11839654f,     0.08944762f,     0.00780465f,     0.04638637f,     -0.08752652f, 
    0.02637223f,     0.07061508f,     0.02680288f,     0.09764101f,     -0.11784492f,     0.00134862f,     0.09460832f,     0.00688613f, 
    -0.03719968f,     -0.00206718f,     0.06194816f,     0.03189557f,     -0.08167568f,     -0.13282986f,     -0.05089518f,     -0.02299576f, 
    0.05468778f,     0.07410220f,     -0.00459339f,     -0.02511302f,     0.08445562f,     0.03280467f,     0.07855124f,     -0.09060252f, 
    0.17682460f,     -0.10152735f,     -0.12800220f,     0.07761452f,     -0.02102559f,     0.10797733f,     -0.03471243f,     -0.06729183f, 
    0.04805935f,     0.11429682f,     -0.06808864f,     -0.06969524f,     -0.10513418f,     -0.04617121f,     -0.09677070f,     -0.02867194f, 
    -0.12481203f,     -0.10347863f,     0.11855835f,     0.05801393f,     0.21317658f,     0.09329495f,     -0.03751026f,     0.20140693f, 
    -0.03049062f,     -0.10099380f,     -0.06384415f,     0.11046327f,     0.04134870f,     0.11968638f,     0.02643171f,     0.14043990f, 
    0.07479771f,     0.06396297f,     0.04300117f,     0.10492530f,     -0.00385902f,     -0.08487555f,     0.01252305f,     0.08683843f, 
    -0.13641331f,     -0.13536184f,     0.06527531f,     -0.09071558f,     0.05429590f,     -0.04728143f,     0.11258977f,     0.07141758f, 
    0.11172165f,     -0.03268436f,     -0.11473244f,     -0.07812735f,     -0.02475170f,     -0.02683952f,     0.01517805f,     -0.07163244f, 
    0.05981364f,     -0.01202962f,     0.04832334f,     0.00641434f,     0.08569520f,     -0.03313642f,     -0.12000914f,     0.03491172f, 
    -0.00637291f,     0.01587686f,     0.02204270f,     0.03060114f,     0.07925723f,     -0.09093476f,     0.08887444f,     0.03688831f, 
    -0.13915467f,     0.03865962f,     0.07722396f,     0.10347719f,     -0.00271822f,     -0.05953503f,     -0.25251284f,     -0.08152964f, 
    0.07929225f,     0.09179626f,     -0.05347077f,     -0.07163150f,     0.14494683f,     -0.09167040f,     -0.10970648f,     -0.16751114f, 
    -0.04736217f,     0.07709978f,     0.00805617f,     -0.04830351f,     0.07610483f,     -0.05335469f,     -0.06914712f,     -0.04378507f, 
    0.14650059f,     0.15135312f,     -0.00241066f,     -0.06028015f,     0.04019696f,     0.05488999f,     -0.03233810f,     -0.04016330f, 
    0.03536816f,     0.12406809f,     0.16407032f,     0.04793208f,     -0.05689604f,     -0.03234911f,     0.00236176f,     -0.05377556f, 
    0.08070334f,     -0.06618311f,     -0.07747170f,     -0.04355072f,     -0.07965345f,     0.13749081f,     -0.04665594f,     0.10303351f, 
    -0.07954992f,     0.09675972f,     0.11545802f,     0.11520632f,     -0.07768496f,     0.06924482f,     0.08185274f,     -0.04276382f, 
    -0.07676703f,     -0.05237594f,     0.02957336f,     0.07741396f,     -0.11215997f,     0.11561964f,     0.13816571f,     -0.14458743f, 
    -0.04440148f,     0.03405974f,     -0.08362605f,     0.11270329f,     -0.01580757f,     0.13937043f,     0.10678644f,     -0.08141824f, 
    0.12756920f,     -0.06117788f,     0.12814257f,     0.12608705f,     0.02294180f,     -0.08256178f,     -0.03989037f,     0.06276233f, 
    0.11204915f,     -0.03987764f,     -0.15518832f,     0.00515340f,     0.04326330f,     0.13955303f,     0.09063728f,     -0.13484222f, 
    -0.11183829f,     -0.01102090f,     0.08195045f,     -0.02027332f,     0.08320145f,     -0.08174716f,     0.08638939f,     -0.02806713f, 
    0.02292762f,     -0.00984845f,     0.10397681f,     0.10060039f,     -0.08311643f,     -0.01488678f,     0.03327185f,     -0.01618323f, 
    -0.13881394f,     -0.02294871f,     0.17261848f,     -0.06096595f,     0.01313460f,     0.05489311f,     0.11066259f,     -0.00691603f, 
    -0.16138235f,     0.02048667f,     -0.03170596f,     0.01730905f,     -0.10407507f,     0.05719250f,     -0.05985504f,     -0.03598453f, 
    0.03341642f,     0.17666063f,     0.00327099f,     -0.12169826f,     -0.03338543f,     -0.09608440f,     0.08467658f,     0.15211657f, 
    0.14128347f,     -0.13640068f,     -0.13420714f,     0.05430666f,     0.10718785f,     -0.00420593f,     0.12356430f,     0.05882041f, 
    0.01142630f,     0.06910741f,     -0.09098081f,     0.02104345f,     0.01034326f,     -0.10011635f,     0.06682411f,     0.09405346f, 
    0.06047540f,     -0.00706621f,     -0.03873208f,     0.11123375f,     0.09440218f,     0.05788682f,     0.11100358f,     0.01834389f, 
    0.07799712f,     -0.02971684f,     0.01411239f,     -0.05845404f,     -0.10432406f,     0.10945275f,     0.01067406f,     0.02859349f, 
    0.03661321f,     0.08633121f,     -0.06480871f,     0.05320178f,     -0.11656155f,     -0.02037183f,     0.00899753f,     0.05749957f, 
    -0.01533457f,     -0.09361236f,     0.00017994f,     0.07940210f,     0.03060983f,     -0.09547076f,     -0.00857464f,     -0.00506855f, 
    -0.27290824f,     -0.06401144f,     -0.07508993f,     -0.21877339f,     -0.08230074f,     0.07114436f,     -0.13421033f,     -0.28721333f, 
    -0.24014036f,     -0.12166531f,     -0.09793495f,     -0.16140355f,     0.08528720f,     -0.10105590f,     -0.09659037f,     0.11326887f, 
    0.04392306f,     -0.08971868f,     0.12248902f,     0.05550596f,     -0.01938071f,     0.08476766f,     -0.00927364f,     -0.03570209f, 
    0.11306168f,     -0.00390072f,     -0.12010811f,     -0.00142948f,     -0.09124483f,     0.05214700f,     0.13783878f,     -0.01170273f, 
    -0.05850093f,     -0.06984134f,     -0.03101512f,     0.07258851f,     -0.08311179f,     0.05308831f,     0.15515941f,     0.13527161f, 
    -0.02320844f,     0.13713685f,     -0.05137328f,     -0.04561996f,     0.01361617f,     -0.05457682f,     -0.10640222f,     -0.02893531f, 
    -0.03035350f,     0.04651745f,     -0.10096905f,     0.13842718f,     -0.05336312f,     0.00777128f,     -0.03934320f,     -0.02768707f, 
    -0.00133658f,     0.00218421f,     -0.08985677f,     0.09292165f,     -0.03688212f,     -0.01703212f,     0.07938234f,     0.07376572f, 
    0.16557421f,     0.12443195f,     0.20083247f,     0.03146449f,     0.01802062f,     -0.08039995f,     -0.02733567f,     -0.13638830f, 
    -0.12331332f,     0.14095186f,     -0.07128018f,     -0.05126283f,     0.02735795f,     0.06243256f,     -0.15807587f,     -0.00912917f, 
    0.09803496f,     0.12035387f,     0.06120437f,     0.11581525f,     0.08551194f,     -0.00498743f,     0.04865869f,     0.05961254f, 
    0.05733139f,     0.16053891f,     -0.03563668f,     -0.00435042f,     -0.04527397f,     -0.00687637f,     0.05431941f,     -0.11340193f, 
    0.02350032f,     -0.11021104f,     0.10904001f,     -0.12615164f,     -0.01409288f,     0.04240194f,     0.06783813f,     -0.10184645f, 
    -0.10009647f,     0.00380794f,     0.13594112f,     -0.08044630f,     -0.08658911f,     -0.04467066f,     -0.10794952f,     -0.05428721f, 
    -0.14482336f,     0.06940197f,     0.03434924f,     -0.19549671f,     0.00149197f,     -0.01262783f,     0.07974608f,     -0.01692279f, 
    0.03353189f,     -0.04557280f,     0.01107709f,     0.02383018f,     0.16169390f,     -0.02562297f,     0.14643854f,     0.11973405f, 
    -0.02363459f,     -0.11674169f,     0.00324740f,     0.02680137f,     0.02384234f,     -0.12639500f,     0.11998610f,     -0.10790820f, 
    -0.03326685f,     -0.13067780f,     -0.16076516f,     -0.15213986f,     0.11569748f,     0.09452566f,     -0.05318884f,     -0.06345864f, 
    -0.06654765f,     -0.01060092f,     0.01485083f,     0.05594857f,     0.03642768f,     -0.08800814f,     0.07472143f,     -0.08797207f, 
    -0.22243063f,     -0.06174415f,     0.10206296f,     -0.13482638f,     -0.00006822f,     0.06831536f,     0.08414928f,     -0.09996810f, 
    0.02820671f,     0.09816127f,     -0.02472880f,     -0.01621961f,     -0.06333350f,     0.11513644f,     -0.04997609f,     0.01107871f, 
    -0.11861129f,     -0.10318751f,     -0.07708735f,     -0.05702350f,     0.11274520f,     0.00509877f,     0.07698010f,     -0.03697530f, 
    0.08715780f,     -0.08266605f,     -0.00348075f,     0.05884156f,     -0.15321009f,     -0.01826040f,     0.02050386f,     0.03060553f, 
    -0.06772433f,     0.00505822f,     -0.06715170f,     0.06829491f,     0.01316304f,     -0.04135649f,     -0.03125669f,     0.07758275f, 
    0.08381520f,     -0.05605740f,     0.14594069f,     -0.12789081f,     -0.09618007f,     -0.01513784f,     0.05016552f,     -0.11504577f, 
    0.08120547f,     0.01813731f,     0.03554542f,     -0.03321993f,     0.04596014f,     0.00873093f,     -0.04376941f,     0.03067103f, 
    -0.10031219f,     -0.06662779f,     -0.08328087f,     0.00636298f,     -0.09661932f,     -0.08751874f,     -0.00167013f,     -0.02575869f, 
    0.09497023f,     -0.01705655f,     -0.01984857f,     0.10107920f,     0.05561934f,     -0.04900536f,     -0.09960097f,     -0.12932040f, 
    -0.10395725f,     0.00928262f,     -0.01739994f,     0.04636088f,     0.02145410f,     0.25528371f,     0.08299121f,     0.06015129f, 
    0.10217430f,     -0.00910982f,     0.10365792f,     0.02863891f,     0.16974917f,     0.05435401f,     -0.01909651f,     0.04159475f, 
    0.02369940f,     0.00955553f,     0.07980286f,     -0.09020628f,     -0.06233797f,     0.04571341f,     -0.07572018f,     0.05121377f, 
    -0.09847857f,     0.07600901f,     0.00203263f,     -0.08276706f,     -0.07803531f,     -0.07072446f,     -0.00635371f,     0.05312056f, 
    0.00303973f,     0.03699990f,     0.03407350f,     -0.10748709f,     -0.04714231f,     0.09996824f,     -0.10693703f,     0.04020036f, 
    -0.08671456f,     -0.00117504f,     0.02098907f,     -0.07012824f,     -0.02181812f,     0.00504662f,     -0.14511809f,     -0.06645038f, 
    0.04796974f,     0.13796504f,     -0.07256944f,     0.11988240f,     -0.11177380f,     0.09461095f,     -0.07866998f,     0.08124969f, 
    0.03578949f,     0.04107895f,     0.03105374f,     -0.01860975f,     -0.04715807f,     -0.25579268f,     -0.02656954f,     -0.07673876f, 
    0.07778838f,     -0.05498180f,     -0.19449075f,     -0.01385447f,     -0.03374737f,     -0.16101748f,     -0.03459058f,     -0.06588773f, 
    -0.14661735f,     0.11848722f,     0.04059010f,     -0.12780489f,     -0.14718634f,     -0.10756119f,     0.04320279f,     -0.03836112f, 
    0.00947777f,     -0.02539752f,     -0.07961828f,     -0.00243546f,     0.09292681f,     0.06526911f,     -0.06984089f,     0.04898797f, 
    0.11466344f,     -0.01033342f,     0.02962510f,     0.08131672f,     -0.08015416f,     -0.04915380f,     -0.06810780f,     -0.04109393f, 
    0.08627925f,     -0.06750637f,     -0.01480258f,     0.06722842f,     -0.00118164f,     -0.00423751f,     0.11066300f,     -0.02192683f, 
    -0.06232940f,     -0.02545477f,     -0.07581724f,     0.00277338f,     0.10398061f,     -0.07861914f,     -0.05001019f,     -0.02244627f, 
    -0.00680482f,     0.00912564f,     0.09459084f,     0.06309306f,     -0.05106226f,     0.04501472f,     -0.28908437f,     -0.08486941f, 
    0.00288909f,     -0.09090993f,     -0.16974007f,     0.08818371f,     -0.15739541f,     0.10998834f,     -0.02493373f,     0.05976266f, 
    0.07314066f,     -0.06445293f,     -0.05836707f,     0.09290750f,     0.01616621f,     -0.01023572f,     0.08206127f,     -0.04433874f, 
    0.14996724f,     -0.05408379f,     0.09168198f,     0.00868608f,     -0.02269478f,     0.07791529f,     -0.07043713f,     0.09027563f, 
    -0.15555252f,     -0.22520287f,     0.08437383f,     -0.09096942f,     -0.08921302f,     0.01607829f,     -0.16503389f,     -0.02174106f, 
    -0.08262872f,     -0.08371722f,     -0.02135421f,     0.15365086f,     0.08527074f,     -0.08674430f,     0.01716442f,     0.16633877f, 
    -0.11682022f,     -0.06524644f,     -0.07344620f,     -0.09576549f,     -0.00812254f,     -0.10526834f,     -0.15718734f,     -0.18189076f, 
    0.01760765f,     0.06984127f,     0.03439832f,     -0.22412287f,     -0.01536504f,     -0.19643579f,     -0.07150365f,     0.08387806f, 
    -0.11571506f,     -0.10779648f,     0.01929960f,     0.05987434f,     -0.09726591f,     -0.09069164f,     -0.16881448f,     -0.22512203f, 
    -0.09439775f,     0.05617539f,     0.03935859f,     0.04652618f,     0.04675493f,     0.00222643f,     0.01761823f,     0.04839403f, 
    0.00261779f,     -0.02107109f,     -0.06547181f,     0.03350572f,     -0.10543796f,     -0.09900147f,     0.06204291f,     0.10942972f, 
    -0.03875186f,     -0.06894465f,     0.13356198f,     0.07065500f,     -0.07504933f,     -0.07942995f,     0.10300975f,     0.07153098f, 
    -0.01713650f,     0.00469997f,     -0.05380226f,     0.05089914f,     0.03701277f,     0.01957423f,     0.13444462f,     -0.09058601f, 
    0.03358928f,     -0.12656188f,     0.06610265f,     0.01850632f,     0.01197764f,     0.08108982f,     -0.10254512f,     0.08220418f, 
    0.14102030f,     0.03980654f,     -0.00369015f,     0.08266714f,     0.14029221f,     -0.08811922f,     -0.02725964f,     -0.05615762f, 
    0.15841578f,     -0.27055237f,     0.12003528f,     -0.07005521f,     -0.06398427f,     0.12366175f,     -0.09063537f,     0.07796885f, 
    0.16776770f,     0.17550977f,     -0.05900292f,     0.11829573f,     0.09287824f,     0.13664317f,     -0.09274656f,     -0.12571768f, 
    -0.00805264f,     -0.07174301f,     -0.07969227f,     0.11211184f,     -0.02444748f,     -0.12656169f,     0.13073841f,     -0.04705127f, 
    -0.04097480f,     0.01843860f,     0.03361390f,     -0.05718350f,     -0.05909048f,     0.07946219f,     0.09419389f,     -0.09205600f, 
    -0.08583809f,     -0.02987887f,     -0.04399930f,     -0.09751902f,     -0.04977873f,     0.07815822f,     0.09922821f,     0.01751975f, 
    0.13127017f,     -0.00819156f,     0.04793690f,     -0.03916109f,     -0.03733069f,     -0.01892294f,     -0.10259550f,     -0.07930633f, 
    0.05274015f,     -0.04576499f,     -0.03281595f,     -0.06316437f,     0.05724097f,     0.07497396f,     0.00770314f,     0.04002889f, 
    -0.11561149f,     0.12481161f,     -0.17631745f,     0.10331310f,     -0.13058202f,     -0.00653830f,     0.13279438f,     0.10858929f, 
    -0.03502278f,     0.21539582f,     -0.12096541f,     -0.07514144f,     -0.10699587f,     -0.13561237f,     -0.17316952f,     -0.05331139f, 
    0.07574064f,     0.01695249f,     0.11050890f,     0.01340515f,     -0.05434754f,     0.05866967f,     0.09446322f,     -0.01571355f, 
    0.10160919f,     0.04299638f,     0.17781273f,     0.01774759f,     0.06355095f,     0.00531157f,     -0.09361620f,     -0.02532623f, 
    -0.15719737f,     -0.09102526f,     0.01002305f,     0.01610760f,     -0.07132380f,     0.18022068f,     0.15553267f,     0.12760839f, 
    -0.07352817f,     -0.10720078f,     0.07343182f,     0.06633238f,     0.09722586f,     0.02675587f,     0.06950384f,     -0.05979056f, 
    -0.09664377f,     -0.11495513f,     -0.05401441f,     0.02470080f,     0.06536771f,     0.08197822f,     -0.02291419f,     0.03869483f, 
    0.08124335f,     0.00737773f,     0.07204048f,     0.17036384f,     -0.05464746f,     0.06213995f,     0.01105197f,     0.03512838f, 
    0.00732996f,     -0.14920241f,     0.02682135f,     -0.06704447f,     -0.03221100f,     0.11401718f,     -0.08512249f,     0.10038970f, 
    0.15072276f,     -0.01260779f,     0.00473832f,     0.05758272f,     -0.01137069f,     0.02224380f,     0.02491981f,     0.06914671f, 
    0.01262996f,     0.09276517f,     -0.11609697f,     -0.04657612f,     0.08802523f,     0.06142921f,     0.11691184f,     -0.06123938f, 
    -0.01066465f,     -0.07268349f,     0.04477438f,     0.04782072f,     0.05864917f,     0.03319777f,     -0.02850377f,     0.02837692f, 
    0.04785113f,     -0.01631309f,     -0.05836750f,     -0.03161047f,     -0.06155246f,     -0.00829504f,     0.07588362f,     -0.05749258f, 
    -0.09991334f,     -0.15380962f,     -0.03214441f,     -0.13165210f,     0.08447117f,     -0.03366709f,     -0.06816120f,     -0.04560889f, 
    -0.06097749f,     0.09149645f,     0.05853453f,     -0.17680000f,     0.23566207f,     0.06463761f,     -0.05399426f,     -0.10550606f, 
    -0.01003387f,     0.02034696f,     0.04082118f,     0.12412529f,     -0.02765914f,     0.12442533f,     0.01943759f,     -0.00982041f, 
    0.01757952f,     0.01726016f,     -0.12779471f,     -0.10956768f,     0.03591197f,     -0.16684076f,     -0.09502369f,     0.05354299f, 
    -0.04976438f,     -0.10449953f,     -0.03591220f,     -0.00127038f,     -0.02938349f,     0.11551178f,     -0.02869265f,     -0.03550705f, 
    -0.12448749f,     -0.00736682f,     -0.04837418f,     0.10001069f,     -0.12645389f,     -0.01431167f,     0.00333111f,     0.10833294f, 
    -0.23326854f,     -0.04960667f,     -0.07820315f,     0.06220417f,     -0.00501833f,     0.14348379f,     0.12004441f,     0.04028673f, 
    -0.02714656f,     0.05434000f,     -0.08071783f,     0.11997574f,     -0.03845955f,     0.08848879f,     -0.05457846f,     -0.02990972f, 
    -0.08859321f,     -0.06359244f,     -0.06811666f,     0.02578256f,     -0.23279373f,     0.01279555f,     -0.11068945f,     0.02749038f, 
    0.03547638f,     -0.08135526f,     -0.10892729f,     -0.19437927f,     0.10461551f,     -0.12320888f,     -0.06282182f,     0.07833979f, 

};

#define linear_in_bias_size 64
const float linear_in_bias[64] = {
    -0.11918516f,     0.04622320f,     -0.03057190f,     0.00398307f,     -0.12947485f,     0.02908310f,     0.14011121f,     0.10007361f, 
    -0.01873680f,     0.00280122f,     -0.10521007f,     0.01182489f,     0.07274003f,     -0.02337589f,     0.00532702f,     0.07037842f, 
    0.01347709f,     -0.09376781f,     -0.12663013f,     -0.03609798f,     -0.04318677f,     0.01680522f,     0.08684398f,     0.04586850f, 
    0.15566263f,     -0.14332066f,     -0.11447144f,     -0.12264130f,     -0.03705598f,     -0.00016733f,     -0.06077120f,     -0.07847527f, 
    0.13969466f,     0.05272080f,     -0.12815148f,     0.08506439f,     0.11808769f,     -0.13811210f,     0.10037946f,     -0.09471843f, 
    -0.01395956f,     0.08759081f,     -0.01966722f,     0.00253895f,     0.01717302f,     0.15009141f,     -0.09981357f,     0.14039280f, 
    -0.08382107f,     -0.02867852f,     0.01915677f,     0.09205158f,     -0.09419128f,     -0.07493667f,     -0.05550456f,     -0.05879108f, 
    0.08714452f,     0.00072556f,     0.05625313f,     0.10671059f,     0.09863707f,     0.17109078f,     0.12491273f,     -0.04697204f, 

};

#define mamba_A_log_rows 128
#define mamba_A_log_cols 16
const float mamba_A_log[2048] = {
    0.02481043f,     0.72404134f,     1.14902413f,     1.41956925f,     1.63686776f,     1.82033253f,     1.98201835f,     2.11821914f, 
    2.24245000f,     2.34052801f,     2.41662693f,     2.51700902f,     2.58887291f,     2.66488886f,     2.72760916f,     2.78716016f, 
    0.00288031f,     0.69471264f,     1.09816003f,     1.38766396f,     1.61123192f,     1.79342747f,     1.94730949f,     2.08428884f, 
    2.20702362f,     2.31884146f,     2.39974880f,     2.50285792f,     2.57989645f,     2.65006733f,     2.71813178f,     2.77367711f, 
    -0.04312769f,     0.65193194f,     1.05205476f,     1.33803105f,     1.56228507f,     1.74043620f,     1.89278972f,     2.01641297f, 
    2.13496327f,     2.24315310f,     2.33469129f,     2.42729425f,     2.49737382f,     2.57201505f,     2.63356066f,     2.69255042f, 
    -0.02515061f,     0.67460412f,     1.08052409f,     1.36742795f,     1.59841752f,     1.78281558f,     1.93846941f,     2.06775260f, 
    2.19509482f,     2.29750538f,     2.38884735f,     2.48154092f,     2.55584073f,     2.63237572f,     2.70606732f,     2.77098989f, 
    0.06352075f,     0.76627111f,     1.18744528f,     1.45984793f,     1.67891145f,     1.85895836f,     2.01882100f,     2.16074228f, 
    2.28758073f,     2.38431001f,     2.45983720f,     2.56279159f,     2.64215207f,     2.71622872f,     2.77906537f,     2.83868194f, 
    0.03368282f,     0.73183596f,     1.15467656f,     1.43294489f,     1.63400507f,     1.82991457f,     1.98625100f,     2.14103079f, 
    2.26423907f,     2.36186147f,     2.43444371f,     2.53881049f,     2.60880637f,     2.68326449f,     2.75542951f,     2.81272006f, 
    0.03203747f,     0.73408026f,     1.15712893f,     1.43664694f,     1.65476143f,     1.83951831f,     2.00096750f,     2.13883138f, 
    2.26552677f,     2.35910535f,     2.43406343f,     2.53962564f,     2.61453390f,     2.68466043f,     2.75137758f,     2.80854654f, 
    0.02231993f,     0.71814334f,     1.13332260f,     1.41185045f,     1.63319683f,     1.81397533f,     1.97050893f,     2.10901284f, 
    2.23142672f,     2.33000159f,     2.41540217f,     2.51117229f,     2.58773828f,     2.65942621f,     2.72863865f,     2.79157138f, 
    0.01446942f,     0.71918774f,     1.14120507f,     1.41465402f,     1.64165258f,     1.81706953f,     1.98600733f,     2.12046051f, 
    2.25491166f,     2.33838844f,     2.41498542f,     2.51841784f,     2.59611201f,     2.66673160f,     2.73583603f,     2.78946972f, 
    -0.20300345f,     0.46513605f,     0.87726015f,     1.15072453f,     1.35967541f,     1.54645157f,     1.67379892f,     1.83180487f, 
    1.95092559f,     2.06058955f,     2.19279289f,     2.25624299f,     2.33112311f,     2.39464474f,     2.48849630f,     2.55595303f, 
    0.02599455f,     0.72537154f,     1.13043332f,     1.42293632f,     1.64791107f,     1.82673681f,     1.98244476f,     2.12013078f, 
    2.23767591f,     2.34961438f,     2.44724774f,     2.52930236f,     2.60657191f,     2.68520975f,     2.75366688f,     2.81722903f, 
    0.03394428f,     0.72996348f,     1.13288331f,     1.42025995f,     1.65486503f,     1.82721150f,     1.98384464f,     2.12357163f, 
    2.24167061f,     2.35146284f,     2.44574118f,     2.53822708f,     2.61762810f,     2.69144201f,     2.76451731f,     2.82338381f, 
    0.00078090f,     0.70025402f,     1.12314153f,     1.39786422f,     1.61294854f,     1.79587054f,     1.96601760f,     2.09221888f, 
    2.22477198f,     2.32328987f,     2.39758015f,     2.50360274f,     2.57259512f,     2.65143418f,     2.71759796f,     2.77163672f, 
    -0.00118800f,     0.68619126f,     1.09103632f,     1.37823296f,     1.60438967f,     1.78649271f,     1.94860077f,     2.09638071f, 
    2.20571589f,     2.32606816f,     2.41831589f,     2.50824428f,     2.58885765f,     2.68310070f,     2.74364424f,     2.79903817f, 
    0.00305246f,     0.69981527f,     1.11770141f,     1.39455163f,     1.61694908f,     1.79768693f,     1.95684505f,     2.08898044f, 
    2.21616554f,     2.31717134f,     2.39611912f,     2.50202823f,     2.57669067f,     2.64754343f,     2.71376896f,     2.76879954f, 
    -0.04564973f,     0.64988732f,     1.03665388f,     1.33487558f,     1.58112204f,     1.73987651f,     1.91855574f,     2.03070736f, 
    2.14510369f,     2.24643612f,     2.35855007f,     2.43338013f,     2.52497602f,     2.60247421f,     2.67182612f,     2.73490548f, 
    -0.08528778f,     0.60135615f,     0.98247832f,     1.29477262f,     1.52164328f,     1.71560276f,     1.85803902f,     1.99240279f, 
    2.10947800f,     2.25071025f,     2.35234380f,     2.44118571f,     2.51866508f,     2.60541987f,     2.67157555f,     2.72950530f, 
    0.01215430f,     0.70921701f,     1.12975311f,     1.41137469f,     1.63464129f,     1.81403220f,     1.97467399f,     2.10613918f, 
    2.23232627f,     2.33143401f,     2.41036105f,     2.51381111f,     2.58902383f,     2.65869522f,     2.72654009f,     2.78245664f, 
    0.02705170f,     0.72852707f,     1.15318465f,     1.42868888f,     1.64532578f,     1.83107007f,     1.99095321f,     2.12627888f, 
    2.26025867f,     2.35536218f,     2.41997981f,     2.53614283f,     2.60822463f,     2.67918181f,     2.74415946f,     2.79509735f, 
    0.00617720f,     0.70326185f,     1.11591887f,     1.40568435f,     1.62260664f,     1.81235647f,     1.96770525f,     2.10840702f, 
    2.22381401f,     2.33291411f,     2.42325068f,     2.51478720f,     2.59054899f,     2.66400552f,     2.73156095f,     2.80341053f, 
    -0.02316462f,     0.66345650f,     1.06281483f,     1.35691607f,     1.58785367f,     1.76287937f,     1.91626477f,     2.04627681f, 
    2.15970111f,     2.27899289f,     2.37072086f,     2.45675540f,     2.53418827f,     2.61867213f,     2.68311262f,     2.74114919f, 
    -0.01977032f,     0.68164885f,     1.07935774f,     1.36816049f,     1.59792829f,     1.77507520f,     1.93202221f,     2.06116223f, 
    2.18624973f,     2.28782463f,     2.36831737f,     2.47149873f,     2.54636908f,     2.61727715f,     2.68944192f,     2.74575806f, 
    0.01686306f,     0.71500283f,     1.12202632f,     1.41041148f,     1.63117695f,     1.81514466f,     1.97310233f,     2.10479355f, 
    2.22249126f,     2.32912922f,     2.42259812f,     2.50841022f,     2.58827734f,     2.66385007f,     2.73075366f,     2.79449010f, 
    -0.07613658f,     0.60496479f,     0.99832135f,     1.29644966f,     1.52157927f,     1.70579743f,     1.85932505f,     1.99375355f, 
    2.10554290f,     2.21377850f,     2.33753848f,     2.40801311f,     2.49797344f,     2.56510758f,     2.64407539f,     2.71332741f, 
    -0.07208937f,     0.61614996f,     1.01623893f,     1.30062270f,     1.52835953f,     1.71519971f,     1.85638261f,     2.00246835f, 
    2.11990571f,     2.25732398f,     2.36468768f,     2.45049262f,     2.51890135f,     2.60455441f,     2.66861176f,     2.73801208f, 
    0.00642904f,     0.70194328f,     1.12565231f,     1.39895844f,     1.62222672f,     1.79855645f,     1.96022272f,     2.09602904f, 
    2.21989274f,     2.31500626f,     2.40812945f,     2.49405837f,     2.57176757f,     2.64473772f,     2.71400642f,     2.78192782f, 
    0.00416287f,     0.69977701f,     1.11321199f,     1.39574897f,     1.61955953f,     1.80555665f,     1.95972645f,     2.10378623f, 
    2.22107553f,     2.32196522f,     2.41521955f,     2.50849771f,     2.58375859f,     2.65733862f,     2.73203135f,     2.80207181f, 
    -0.00632623f,     0.68504608f,     1.09724486f,     1.37973237f,     1.60952926f,     1.78548801f,     1.94135821f,     2.07190037f, 
    2.18196034f,     2.29558301f,     2.40206289f,     2.48073792f,     2.56118703f,     2.63419867f,     2.70490098f,     2.77944899f, 
    -0.04922931f,     0.64908868f,     1.06190336f,     1.34318221f,     1.53780711f,     1.74492359f,     1.90579522f,     2.03868675f, 
    2.15794063f,     2.27747297f,     2.37003899f,     2.45614934f,     2.52445221f,     2.61206675f,     2.66082811f,     2.74492574f, 
    0.03715783f,     0.72719747f,     1.11820543f,     1.39591217f,     1.61466575f,     1.79143083f,     1.93465567f,     2.05389643f, 
    2.15292811f,     2.28402662f,     2.37488174f,     2.45649266f,     2.53666425f,     2.61181831f,     2.68067765f,     2.71849823f, 
    -0.05604792f,     0.63574505f,     1.05288339f,     1.32486629f,     1.56515336f,     1.73023427f,     1.89682162f,     2.03203821f, 
    2.15469527f,     2.27056146f,     2.36217856f,     2.45454979f,     2.52983546f,     2.62144232f,     2.68341494f,     2.73447728f, 
    0.04405389f,     0.74300873f,     1.15260172f,     1.43897128f,     1.66144443f,     1.84299266f,     1.99746752f,     2.13350391f, 
    2.25339675f,     2.35593224f,     2.44782948f,     2.53642368f,     2.61702466f,     2.68876529f,     2.75932002f,     2.82097292f, 
    -0.01540945f,     0.68099415f,     1.09876394f,     1.37500095f,     1.60005748f,     1.78005958f,     1.93942070f,     2.06817484f, 
    2.19713211f,     2.29824162f,     2.37415361f,     2.48483753f,     2.55602551f,     2.62721944f,     2.69208193f,     2.74465799f, 
    -0.00634580f,     0.69220066f,     1.10741460f,     1.38797402f,     1.61874282f,     1.79630864f,     1.95783329f,     2.08828902f, 
    2.21256328f,     2.31564927f,     2.39009905f,     2.49732161f,     2.57211089f,     2.64201021f,     2.71408439f,     2.76045632f, 
    -0.01107882f,     0.68674105f,     1.09320593f,     1.37615025f,     1.59161830f,     1.77507949f,     1.93537557f,     2.07877445f, 
    2.20221257f,     2.30003095f,     2.37607169f,     2.47923326f,     2.55133915f,     2.63085961f,     2.69461918f,     2.75200272f, 
    -0.05291026f,     0.65475112f,     1.05377018f,     1.33259559f,     1.56594038f,     1.74774861f,     1.88343763f,     2.02937889f, 
    2.15194750f,     2.23652887f,     2.35310864f,     2.42675161f,     2.47895026f,     2.55677533f,     2.63167953f,     2.70815158f, 
    -0.01527015f,     0.68490201f,     1.09306812f,     1.37941122f,     1.61287642f,     1.79123557f,     1.95377052f,     2.07872915f, 
    2.21374726f,     2.31541133f,     2.38885164f,     2.50862861f,     2.57812119f,     2.65086365f,     2.71813679f,     2.76577711f, 
    0.02576355f,     0.72322512f,     1.14080930f,     1.42399979f,     1.63805914f,     1.82710862f,     1.98796594f,     2.12686229f, 
    2.25108957f,     2.34958220f,     2.42787910f,     2.53217220f,     2.60730672f,     2.68412971f,     2.74648523f,     2.80753446f, 
    0.01805451f,     0.71486145f,     1.12360609f,     1.40742588f,     1.63329196f,     1.80994880f,     1.97009087f,     2.09996223f, 
    2.22288060f,     2.32253599f,     2.40808749f,     2.50543833f,     2.58252668f,     2.65445900f,     2.72415996f,     2.77907825f, 
    0.00422289f,     0.69491982f,     1.10748625f,     1.39025402f,     1.61431408f,     1.79599738f,     1.94885743f,     2.08022356f, 
    2.20289183f,     2.30818963f,     2.39643002f,     2.49712825f,     2.57362509f,     2.64152431f,     2.70977807f,     2.76714206f, 
    0.01607633f,     0.71240878f,     1.11951029f,     1.40644562f,     1.62800002f,     1.81207836f,     1.96530938f,     2.09720945f, 
    2.21486259f,     2.32324481f,     2.41651273f,     2.50311899f,     2.58444357f,     2.65632939f,     2.72546554f,     2.79123664f, 
    -0.01064654f,     0.68683732f,     1.10949659f,     1.38065159f,     1.60655212f,     1.78877139f,     1.94934690f,     2.08094859f, 
    2.20543671f,     2.30995321f,     2.38886714f,     2.49397993f,     2.56493115f,     2.63767982f,     2.70126867f,     2.76026964f, 
    -0.01127139f,     0.68401271f,     1.09511161f,     1.37362802f,     1.60291088f,     1.77516210f,     1.93166542f,     2.06494927f, 
    2.18447709f,     2.28471470f,     2.37287927f,     2.46742892f,     2.54473495f,     2.61596012f,     2.68607402f,     2.74431467f, 
    0.00178096f,     0.69690835f,     1.11247945f,     1.39175475f,     1.62017536f,     1.80180252f,     1.95430338f,     2.08110452f, 
    2.20877647f,     2.31748247f,     2.39774036f,     2.50476217f,     2.57867336f,     2.64872360f,     2.71514606f,     2.77006006f, 
    -0.04625356f,     0.65216696f,     1.05130398f,     1.34570420f,     1.57489455f,     1.75594342f,     1.91398454f,     2.04310322f, 
    2.16325164f,     2.27388787f,     2.35566902f,     2.46130705f,     2.53855586f,     2.61157870f,     2.68162727f,     2.73308992f, 
    0.00407084f,     0.69239205f,     1.07077265f,     1.34475744f,     1.55858278f,     1.72886908f,     1.86011147f,     1.99307406f, 
    2.07039237f,     2.18765283f,     2.30206609f,     2.36125731f,     2.43656802f,     2.50259352f,     2.58694553f,     2.63182187f, 
    -0.03007219f,     0.66532302f,     1.07570267f,     1.35780609f,     1.57426870f,     1.76960409f,     1.92862117f,     2.06000519f, 
    2.18299127f,     2.29078531f,     2.37216115f,     2.46923971f,     2.54522514f,     2.62335777f,     2.68534160f,     2.74618602f, 
    0.03730108f,     0.73410630f,     1.14701784f,     1.43384826f,     1.66604304f,     1.83267820f,     1.99342906f,     2.12249422f, 
    2.24012828f,     2.34723330f,     2.43957496f,     2.52751327f,     2.60676265f,     2.68237734f,     2.74981070f,     2.80865955f, 
    -0.04774607f,     0.62825006f,     1.01884675f,     1.28345811f,     1.52074540f,     1.67429900f,     1.80868471f,     1.94527483f, 
    2.05493689f,     2.16894889f,     2.27126884f,     2.34857821f,     2.41051817f,     2.48788357f,     2.55047369f,     2.62821198f, 
    0.01741795f,     0.71982116f,     1.12447965f,     1.40703869f,     1.63232601f,     1.80703592f,     1.96992922f,     2.11386752f, 
    2.24735475f,     2.34162927f,     2.41931224f,     2.52562737f,     2.60756469f,     2.67874360f,     2.74776816f,     2.79647350f, 
    0.01131211f,     0.69546723f,     1.09626913f,     1.37665522f,     1.60642910f,     1.77606153f,     1.93348527f,     2.06093287f, 
    2.18598485f,     2.28386402f,     2.38560152f,     2.46943927f,     2.54945445f,     2.62274933f,     2.68939734f,     2.74565530f, 
    -0.08734898f,     0.60564721f,     0.99803960f,     1.28218067f,     1.51860988f,     1.68466485f,     1.83838260f,     1.96112740f, 
    2.08487773f,     2.19403911f,     2.30289984f,     2.38329887f,     2.45752048f,     2.53397608f,     2.60404134f,     2.67095470f, 
    -0.10544870f,     0.55313152f,     0.93636060f,     1.21767950f,     1.44653761f,     1.61448157f,     1.76516211f,     1.89370394f, 
    1.99815989f,     2.11489177f,     2.23010659f,     2.30350399f,     2.38095284f,     2.45128942f,     2.52967501f,     2.59708309f, 
    -0.07055353f,     0.61552972f,     1.01679444f,     1.30790973f,     1.51988876f,     1.71396804f,     1.86024511f,     1.98807430f, 
    2.09506011f,     2.22708988f,     2.31580544f,     2.40773654f,     2.48172116f,     2.55786872f,     2.62559414f,     2.67752695f, 
    -0.01209020f,     0.68475860f,     1.09399092f,     1.36913002f,     1.58642590f,     1.76758647f,     1.92277575f,     2.06999588f, 
    2.18311405f,     2.28633165f,     2.37954187f,     2.46494842f,     2.54311633f,     2.62149811f,     2.68737769f,     2.76304603f, 
    -0.01373436f,     0.66661084f,     1.05874169f,     1.34719217f,     1.57702553f,     1.75266016f,     1.89826989f,     2.02453899f, 
    2.13666606f,     2.26105165f,     2.37688303f,     2.45091367f,     2.53197169f,     2.60433221f,     2.67980027f,     2.74520922f, 
    -0.05209963f,     0.63253301f,     1.03500938f,     1.32193458f,     1.57269299f,     1.72653675f,     1.88150740f,     2.02693152f, 
    2.12351274f,     2.23791981f,     2.34421062f,     2.43072343f,     2.50650740f,     2.58250546f,     2.65074706f,     2.70612383f, 
    0.02162942f,     0.71874994f,     1.12473786f,     1.41519058f,     1.64469230f,     1.81780255f,     1.98033464f,     2.11154604f, 
    2.22769380f,     2.32891178f,     2.42261672f,     2.50549030f,     2.58964682f,     2.66488791f,     2.73374891f,     2.79584789f, 
    -0.02054168f,     0.67756665f,     1.08584130f,     1.36915433f,     1.60784245f,     1.77703917f,     1.93321991f,     2.05568624f, 
    2.18647456f,     2.28735113f,     2.37452316f,     2.48201370f,     2.55275130f,     2.62391496f,     2.69485664f,     2.74132442f, 
    -0.14713144f,     0.53402847f,     0.93404061f,     1.22409511f,     1.46622586f,     1.64020717f,     1.78834677f,     1.93128848f, 
    2.03780937f,     2.17042565f,     2.29849410f,     2.35969901f,     2.46588755f,     2.53978801f,     2.61878586f,     2.69604969f, 
    -0.01327061f,     0.67075324f,     1.07715631f,     1.36415207f,     1.59192419f,     1.76654696f,     1.91600025f,     2.05228448f, 
    2.16692543f,     2.28071165f,     2.37781525f,     2.47141171f,     2.54055333f,     2.61588240f,     2.68333673f,     2.74692488f, 
    -0.03170614f,     0.66271132f,     1.06353199f,     1.34654641f,     1.57851934f,     1.74897659f,     1.90397382f,     2.03356075f, 
    2.15300989f,     2.25719786f,     2.35031772f,     2.44429898f,     2.52078700f,     2.59433985f,     2.66526079f,     2.72052550f, 
    0.01395005f,     0.70847595f,     1.11900461f,     1.40794063f,     1.62948143f,     1.81236804f,     1.96672714f,     2.09938979f, 
    2.21876717f,     2.32592607f,     2.41924238f,     2.50641632f,     2.58735609f,     2.66168118f,     2.72801113f,     2.79413390f, 
    -0.00908876f,     0.69120842f,     1.09563065f,     1.38097227f,     1.60708392f,     1.78898656f,     1.94960082f,     2.08035088f, 
    2.21575642f,     2.31179523f,     2.38706517f,     2.50516248f,     2.57885885f,     2.64922380f,     2.72230983f,     2.78063464f, 
    0.00591578f,     0.70582479f,     1.13041937f,     1.40279210f,     1.61803257f,     1.80384314f,     1.96761560f,     2.10528064f, 
    2.23729587f,     2.32924390f,     2.40076280f,     2.51138020f,     2.58427167f,     2.65519214f,     2.72058392f,     2.78033948f, 
    -0.03211792f,     0.67296755f,     1.09306002f,     1.37144792f,     1.60155952f,     1.77749348f,     1.94411767f,     2.07607841f, 
    2.20977974f,     2.29841685f,     2.37512946f,     2.48150110f,     2.55634689f,     2.62724996f,     2.69502544f,     2.74937439f, 
    -0.00611259f,     0.69166261f,     1.08945227f,     1.38126838f,     1.60998702f,     1.78800166f,     1.94517326f,     2.06399751f, 
    2.18414569f,     2.29848599f,     2.39834404f,     2.48540616f,     2.56196284f,     2.63802266f,     2.70810437f,     2.76412916f, 
    0.00943915f,     0.70609844f,     1.12146366f,     1.40094614f,     1.62607312f,     1.80363083f,     1.96304524f,     2.09547496f, 
    2.22125912f,     2.31806850f,     2.40312338f,     2.50164342f,     2.57952738f,     2.64887524f,     2.71807861f,     2.77521300f, 
    -0.00850683f,     0.63178456f,     1.02001846f,     1.28042042f,     1.51849020f,     1.67300594f,     1.83130205f,     1.96095097f, 
    2.06317163f,     2.18784761f,     2.28825402f,     2.35231304f,     2.43815613f,     2.52825904f,     2.59762502f,     2.67175555f, 
    -0.10223959f,     0.59877604f,     0.98353916f,     1.28400648f,     1.50333881f,     1.69492447f,     1.85116315f,     1.97841477f, 
    2.08272195f,     2.20069575f,     2.29297972f,     2.39622951f,     2.46183753f,     2.53251934f,     2.60444021f,     2.65711236f, 
    0.03054999f,     0.73863602f,     1.16239130f,     1.43668413f,     1.65399909f,     1.83905959f,     2.00567007f,     2.14307117f, 
    2.26974654f,     2.36715102f,     2.43521833f,     2.54080701f,     2.61491442f,     2.69205236f,     2.75467801f,     2.81095529f, 
    -0.00291593f,     0.69502228f,     1.12418115f,     1.39585733f,     1.61107945f,     1.79852903f,     1.96096110f,     2.09866118f, 
    2.22556925f,     2.31865048f,     2.39808536f,     2.50112462f,     2.57298470f,     2.64501071f,     2.71233106f,     2.77416134f, 
    0.00110167f,     0.70221114f,     1.10997736f,     1.39291453f,     1.61244905f,     1.79908872f,     1.95773494f,     2.08876586f, 
    2.21343541f,     2.31793284f,     2.38982821f,     2.49634695f,     2.57288790f,     2.64669013f,     2.71521497f,     2.76094103f, 
    -0.03653931f,     0.65299845f,     1.05607748f,     1.33985662f,     1.56393468f,     1.74381173f,     1.89611435f,     2.02476931f, 
    2.14475822f,     2.25568461f,     2.35405016f,     2.43125248f,     2.51411152f,     2.59024429f,     2.65840125f,     2.72606683f, 
    0.00011288f,     0.68196297f,     1.08615744f,     1.36961484f,     1.60128081f,     1.77154326f,     1.92180514f,     2.05945873f, 
    2.17380524f,     2.28352427f,     2.39474559f,     2.46209311f,     2.54416847f,     2.61985087f,     2.69233656f,     2.77289343f, 
    0.00645315f,     0.70397860f,     1.12909615f,     1.39587784f,     1.61885369f,     1.79094076f,     1.95416915f,     2.08879662f, 
    2.21465635f,     2.31559896f,     2.40291953f,     2.49399877f,     2.56627321f,     2.64199972f,     2.71132922f,     2.77693057f, 
    -0.01218638f,     0.68476558f,     1.11075032f,     1.38091409f,     1.60112476f,     1.78103685f,     1.94057274f,     2.07952332f, 
    2.20603442f,     2.30487370f,     2.39050484f,     2.48641276f,     2.55933547f,     2.63783884f,     2.70500660f,     2.76789308f, 
    0.01652587f,     0.71322435f,     1.12680864f,     1.41013741f,     1.63055801f,     1.81371808f,     1.97424853f,     2.11020327f, 
    2.23675013f,     2.32966161f,     2.41431093f,     2.51050568f,     2.58789873f,     2.65970302f,     2.72885370f,     2.79113340f, 
    -0.00695449f,     0.68947917f,     1.10480106f,     1.38491154f,     1.59925187f,     1.78663623f,     1.94564891f,     2.07846403f, 
    2.19649506f,     2.30324793f,     2.39212608f,     2.48286200f,     2.56052852f,     2.63655734f,     2.70177221f,     2.76670122f, 
    0.05920463f,     0.73165959f,     1.12005842f,     1.39767635f,     1.61705410f,     1.78401732f,     1.93611479f,     2.04473329f, 
    2.15221906f,     2.27650928f,     2.36965156f,     2.45805788f,     2.53704906f,     2.61046505f,     2.68335867f,     2.73097992f, 
    0.01389455f,     0.71017098f,     1.11602235f,     1.40340233f,     1.63650858f,     1.81236994f,     1.97276556f,     2.10201621f, 
    2.22444320f,     2.33649278f,     2.42823696f,     2.51598024f,     2.59141374f,     2.66945624f,     2.73883581f,     2.79844975f, 
    -0.00755726f,     0.69230151f,     1.09963429f,     1.38043475f,     1.61099982f,     1.78520298f,     1.94527233f,     2.07171321f, 
    2.19534540f,     2.30049539f,     2.38676739f,     2.48241472f,     2.56057644f,     2.63549519f,     2.70287871f,     2.75754285f, 
    0.05084053f,     0.75042927f,     1.16199207f,     1.45061505f,     1.67414725f,     1.85374057f,     2.00756526f,     2.13980007f, 
    2.26227283f,     2.36642122f,     2.45889521f,     2.54538131f,     2.62781882f,     2.69713163f,     2.76669836f,     2.83118200f, 
    -0.10447917f,     0.60039276f,     1.00507867f,     1.30002856f,     1.55137098f,     1.72923696f,     1.88490009f,     2.02490306f, 
    2.16225576f,     2.27181339f,     2.36580276f,     2.46771073f,     2.54361320f,     2.61920023f,     2.70102930f,     2.74734640f, 
    0.03388870f,     0.72991484f,     1.14647472f,     1.42773020f,     1.63477957f,     1.82730401f,     1.98311734f,     2.11981487f, 
    2.23696899f,     2.34463668f,     2.42659950f,     2.52188897f,     2.59736967f,     2.67549515f,     2.73497725f,     2.79776096f, 
    0.01159576f,     0.70397383f,     1.13359976f,     1.40525413f,     1.61943805f,     1.80739081f,     1.96472001f,     2.10869312f, 
    2.23218298f,     2.33556175f,     2.41357279f,     2.52099466f,     2.58905005f,     2.66459918f,     2.72227144f,     2.78709006f, 
    -0.23656872f,     0.44508204f,     0.83657897f,     1.12633049f,     1.36590946f,     1.52349603f,     1.68177938f,     1.81710958f, 
    1.91600442f,     2.03994060f,     2.15524673f,     2.21087503f,     2.31599545f,     2.38316536f,     2.44494939f,     2.52517867f, 
    -0.00376044f,     0.68905717f,     1.09927630f,     1.36294460f,     1.59249389f,     1.75597823f,     1.90623593f,     2.04096270f, 
    2.15756583f,     2.24633956f,     2.35350299f,     2.41949439f,     2.50232029f,     2.56949258f,     2.64231730f,     2.69331717f, 
    -0.03829779f,     0.64788014f,     1.05880189f,     1.32823718f,     1.54690766f,     1.71673048f,     1.87902784f,     2.00765276f, 
    2.10643435f,     2.22278833f,     2.30417061f,     2.39570570f,     2.46189475f,     2.54110360f,     2.60407019f,     2.64363289f, 
    -0.01409276f,     0.67332882f,     1.08050740f,     1.35437810f,     1.57205868f,     1.74186552f,     1.89044142f,     2.02058792f, 
    2.14333129f,     2.23192286f,     2.31385875f,     2.40098953f,     2.46929383f,     2.53856874f,     2.61097479f,     2.66517925f, 
    -0.00252067f,     0.69128978f,     1.09757817f,     1.38497901f,     1.61601758f,     1.79380643f,     1.94865990f,     2.08184433f, 
    2.20888710f,     2.31556273f,     2.39516163f,     2.50255108f,     2.57984686f,     2.64939427f,     2.71943641f,     2.77203107f, 
    -0.00897504f,     0.68666863f,     1.09075725f,     1.37716913f,     1.60243475f,     1.77750635f,     1.94007182f,     2.06576157f, 
    2.18633294f,     2.29382324f,     2.38528013f,     2.47648501f,     2.54948783f,     2.63089228f,     2.68977666f,     2.75255919f, 
    0.03525730f,     0.73439151f,     1.15030897f,     1.43550146f,     1.66034317f,     1.83651650f,     1.99848127f,     2.12935853f, 
    2.25242114f,     2.35403872f,     2.43914723f,     2.53303313f,     2.60976768f,     2.68590999f,     2.75020456f,     2.81213284f, 
    0.01617079f,     0.70373857f,     1.10258567f,     1.39218831f,     1.61294830f,     1.79773128f,     1.94106674f,     2.07296133f, 
    2.17856145f,     2.30006814f,     2.39935517f,     2.48042321f,     2.56171823f,     2.63724542f,     2.70712614f,     2.77218962f, 
    -0.05572809f,     0.63462865f,     1.03920746f,     1.32155955f,     1.55510414f,     1.72659814f,     1.87164962f,     2.00449085f, 
    2.12303853f,     2.23466039f,     2.33496094f,     2.41681504f,     2.50105929f,     2.57126951f,     2.64664412f,     2.70752978f, 
    -0.00706840f,     0.68730855f,     1.09596181f,     1.37736058f,     1.60454011f,     1.78590047f,     1.93814254f,     2.07060719f, 
    2.19434404f,     2.29842901f,     2.38860774f,     2.48518276f,     2.55892420f,     2.63411140f,     2.70624328f,     2.76670241f, 
    -0.00422571f,     0.69017524f,     1.10625076f,     1.38512921f,     1.60886240f,     1.78908181f,     1.95012164f,     2.08588624f, 
    2.20429921f,     2.30534863f,     2.39231634f,     2.48539567f,     2.56577659f,     2.63906336f,     2.70552444f,     2.76672840f, 
    0.01376476f,     0.71094078f,     1.12078893f,     1.40708649f,     1.63060617f,     1.81063902f,     1.96901834f,     2.10075903f, 
    2.22256088f,     2.32312608f,     2.41205621f,     2.50233459f,     2.58431077f,     2.65643716f,     2.72727561f,     2.78359938f, 
    -0.01033554f,     0.67944145f,     1.08371985f,     1.36640060f,     1.58994532f,     1.76698446f,     1.92766607f,     2.04833245f, 
    2.17031574f,     2.27276397f,     2.36655927f,     2.45228028f,     2.53472853f,     2.60698295f,     2.67269278f,     2.72776747f, 
    0.00360243f,     0.70343167f,     1.11247706f,     1.39877689f,     1.60601926f,     1.80673230f,     1.96369946f,     2.09161425f, 
    2.21491385f,     2.33042097f,     2.40560842f,     2.51075721f,     2.58564687f,     2.66419387f,     2.72605705f,     2.77502704f, 
    -0.00671073f,     0.68856072f,     1.09884739f,     1.37819946f,     1.60018730f,     1.78047502f,     1.94630563f,     2.07388210f, 
    2.19454765f,     2.30286932f,     2.39195943f,     2.48465848f,     2.55530024f,     2.63811898f,     2.69773197f,     2.76194310f, 
    -0.00956601f,     0.68081588f,     1.09561718f,     1.37617600f,     1.59971559f,     1.78279531f,     1.93894780f,     2.07694674f, 
    2.18758607f,     2.29886818f,     2.40786433f,     2.48279548f,     2.55797148f,     2.63770628f,     2.70677114f,     2.78542447f, 
    0.02023965f,     0.71724373f,     1.12855446f,     1.41427875f,     1.64024603f,     1.81909788f,     1.97530615f,     2.10287070f, 
    2.22629094f,     2.32784724f,     2.41913605f,     2.51167130f,     2.58996177f,     2.65991879f,     2.73060274f,     2.79242015f, 
    -0.01428824f,     0.68496990f,     1.10155129f,     1.38119543f,     1.60443091f,     1.78279006f,     1.94693589f,     2.07918525f, 
    2.20996523f,     2.29918027f,     2.37799549f,     2.48282695f,     2.55798101f,     2.62799168f,     2.69739056f,     2.75114012f, 
    -0.12220562f,     0.54744285f,     0.96294349f,     1.23673546f,     1.45750690f,     1.64097238f,     1.79787707f,     1.94200599f, 
    2.05940723f,     2.17233324f,     2.26714253f,     2.35410142f,     2.44206023f,     2.50685024f,     2.57988119f,     2.64282942f, 
    -0.01609905f,     0.68433118f,     1.08897936f,     1.37070394f,     1.59924698f,     1.78164554f,     1.93388355f,     2.07035065f, 
    2.20753837f,     2.30010796f,     2.37667704f,     2.48823357f,     2.56411099f,     2.63270473f,     2.70535994f,     2.75561523f, 
    -0.00126380f,     0.69615978f,     1.09957433f,     1.37369883f,     1.59832311f,     1.77058423f,     1.92920196f,     2.05067301f, 
    2.17752743f,     2.27731824f,     2.34344602f,     2.45613742f,     2.52111125f,     2.59524512f,     2.65584087f,     2.69711685f, 
    0.01883228f,     0.71814775f,     1.13387585f,     1.42111278f,     1.64141238f,     1.82442093f,     1.98946500f,     2.12424445f, 
    2.25157905f,     2.34321642f,     2.42819190f,     2.52119231f,     2.60131526f,     2.67476726f,     2.74345613f,     2.80756068f, 
    -0.05645928f,     0.64073628f,     1.04556048f,     1.33316445f,     1.56264329f,     1.73321652f,     1.89383900f,     2.01578784f, 
    2.13780236f,     2.23277473f,     2.31426382f,     2.41734576f,     2.48873115f,     2.56158257f,     2.63679814f,     2.68576241f, 
    0.02277809f,     0.70868057f,     1.11438513f,     1.39497650f,     1.61822927f,     1.79448259f,     1.93899024f,     2.07744575f, 
    2.17974091f,     2.28832150f,     2.41468143f,     2.47121382f,     2.55476737f,     2.62821388f,     2.70441055f,     2.78215289f, 
    0.01629572f,     0.71184111f,     1.12381005f,     1.40946543f,     1.63229322f,     1.81310105f,     1.97041202f,     2.10306501f, 
    2.22054911f,     2.32779193f,     2.41500521f,     2.50786710f,     2.58664298f,     2.65997195f,     2.72679639f,     2.78905082f, 
    -0.03829909f,     0.66253996f,     1.09394765f,     1.35800707f,     1.58942175f,     1.76952291f,     1.92547846f,     2.06863976f, 
    2.19513035f,     2.28993344f,     2.37464547f,     2.47494674f,     2.54863620f,     2.62458825f,     2.69558978f,     2.76068616f, 
    0.05486386f,     0.75305527f,     1.17552805f,     1.46316350f,     1.67312741f,     1.86373258f,     2.03931189f,     2.17705631f, 
    2.29694390f,     2.36691618f,     2.46127582f,     2.53999758f,     2.64349461f,     2.68795085f,     2.78401661f,     2.83715844f, 
    -0.08173586f,     0.61716461f,     1.01231098f,     1.30192924f,     1.54049754f,     1.70847332f,     1.86386228f,     1.98763657f, 
    2.10712171f,     2.21998405f,     2.31902218f,     2.40934229f,     2.48797584f,     2.56116676f,     2.63119197f,     2.68881321f, 
    -0.04686991f,     0.64370710f,     1.04836428f,     1.33533430f,     1.56390822f,     1.74269664f,     1.89450848f,     2.02466822f, 
    2.14108491f,     2.25641608f,     2.34578991f,     2.44569111f,     2.51952553f,     2.59313369f,     2.65980601f,     2.71765280f, 
    0.04560699f,     0.76002783f,     1.17938340f,     1.45458269f,     1.67332065f,     1.85169911f,     2.01861024f,     2.14880252f, 
    2.28170800f,     2.37166142f,     2.44341087f,     2.55215120f,     2.62704158f,     2.69690228f,     2.76141429f,     2.81519699f, 
    0.03081867f,     0.72461694f,     1.13030910f,     1.41551530f,     1.64137149f,     1.81964087f,     1.97418261f,     2.10227346f, 
    2.22133541f,     2.32711768f,     2.41734457f,     2.50707293f,     2.59061909f,     2.66074824f,     2.73274660f,     2.78396654f, 
    0.00810471f,     0.71111631f,     1.12388802f,     1.40584517f,     1.62662709f,     1.80592811f,     1.97084069f,     2.10666466f, 
    2.23071599f,     2.33087158f,     2.40081310f,     2.50774121f,     2.57697201f,     2.65622878f,     2.71434426f,     2.77081847f, 
    -0.01241327f,     0.68069613f,     1.09787774f,     1.37556410f,     1.59624660f,     1.77879119f,     1.93635178f,     2.07595730f, 
    2.19487476f,     2.29307318f,     2.39121151f,     2.47044539f,     2.55866766f,     2.63300967f,     2.70437670f,     2.77205586f, 
    -0.00699411f,     0.68771189f,     1.09631264f,     1.37601769f,     1.59969509f,     1.78241789f,     1.93541563f,     2.07087827f, 
    2.19437242f,     2.30028319f,     2.38078356f,     2.48734093f,     2.56067514f,     2.63408756f,     2.69937921f,     2.75430799f, 
