/**
 * @file mamba_weights.h
 * @brief Auto-generated weight file for MambaLite-Micro.
 *
 * Copyright (c) 2025 MambaLite-Micro Authors
 * Licensed under the MIT License.
 *
 * Generated by export_weights.py from a PyTorch .pth checkpoint.
 * Do not edit manually.
 */

#ifndef MAMBA_WEIGHTS_H
#define MAMBA_WEIGHTS_H

#define mamba_d_model 64
#define mamba_d_state 16
#define mamba_d_conv 4
#define mamba_expand 2
#define mamba_dt_min 0.001
#define mamba_dt_max 0.1
#define mamba_dt_scale 1.0
#define mamba_dt_rank 4

#define linear_in_weight_rows 64
#define linear_in_weight_cols 40
const float linear_in_weight[2560] = {
    0.01745282f,     0.01679214f,     -0.00060365f,     0.07179534f,     -0.09485741f,     0.20634177f,     -0.04185968f,     0.09803774f, 
    -0.11095264f,     -0.21124166f,     -0.04516151f,     -0.12097044f,     -0.06076018f,     0.09506460f,     -0.07536071f,     0.04551134f, 
    -0.00867268f,     -0.09649726f,     0.02499027f,     -0.16137683f,     0.04696484f,     0.01032448f,     0.08692427f,     -0.04102775f, 
    0.17447956f,     0.05347383f,     -0.01570732f,     0.02667150f,     0.12145550f,     0.01234498f,     0.14324681f,     -0.11021075f, 
    0.05201994f,     -0.06064908f,     -0.06793685f,     -0.13940373f,     0.02963145f,     -0.06236671f,     -0.12980783f,     -0.02739689f, 
    0.10989257f,     0.01412078f,     0.00489667f,     -0.12979886f,     0.07877042f,     0.11161553f,     0.11843102f,     -0.00087278f, 
    -0.09147017f,     -0.05978105f,     -0.04074458f,     0.04808247f,     -0.04877094f,     -0.03698521f,     -0.13047440f,     0.17235436f, 
    -0.05971695f,     -0.03211525f,     0.09398471f,     0.03328744f,     -0.09251303f,     -0.07063635f,     -0.10173408f,     -0.08763639f, 
    -0.11320085f,     -0.00659245f,     0.16809994f,     -0.02295029f,     0.07667933f,     0.09146219f,     -0.07757898f,     -0.13056037f, 
    0.02856638f,     0.15071036f,     -0.12945317f,     -0.09572136f,     0.06139323f,     -0.04856464f,     -0.06566828f,     0.10787619f, 
    0.02635208f,     -0.03956943f,     -0.05517293f,     0.11737844f,     -0.11625042f,     0.03272307f,     -0.04695865f,     0.05983061f, 
    0.14021397f,     0.06077493f,     -0.09195529f,     0.12487157f,     -0.00588615f,     0.07164165f,     -0.18656731f,     -0.08933187f, 
    0.07360776f,     0.04512521f,     0.04756160f,     0.07133463f,     0.13325021f,     -0.13003044f,     -0.15651743f,     0.02136658f, 
    0.07801364f,     0.06936356f,     -0.10563555f,     0.12501371f,     0.09228706f,     -0.08365605f,     0.05109401f,     -0.07717972f, 
    -0.02486329f,     -0.08106219f,     0.05221204f,     0.14247613f,     0.07963892f,     -0.15041116f,     0.02887775f,     0.05330404f, 
    -0.07990970f,     -0.14367774f,     0.11117239f,     -0.08469742f,     -0.15415336f,     0.11859021f,     0.13797645f,     0.14575650f, 
    -0.09940617f,     -0.05992048f,     -0.05794184f,     -0.04074354f,     0.04335130f,     -0.05021730f,     -0.00089946f,     0.08390827f, 
    -0.10784742f,     0.00362226f,     0.08358480f,     0.12509939f,     -0.00110705f,     0.07759489f,     -0.05831594f,     -0.01487355f, 
    0.10737373f,     0.04177180f,     0.07773546f,     0.06906709f,     -0.13448629f,     -0.13672620f,     -0.13374700f,     -0.03587735f, 
    0.01189821f,     -0.08400539f,     0.03343463f,     -0.03550874f,     0.03537393f,     0.06026278f,     0.04633027f,     0.11129675f, 
    0.02559445f,     0.05361891f,     0.12149256f,     -0.03334958f,     0.03512746f,     0.02676626f,     -0.00735653f,     -0.07081272f, 
    -0.13565329f,     0.08236255f,     0.02490885f,     0.00543877f,     -0.02357881f,     -0.12539954f,     0.02636417f,     -0.02587138f, 
    0.01061667f,     0.02818851f,     0.02091493f,     -0.15024105f,     0.09119048f,     -0.15323007f,     -0.02563284f,     -0.01415409f, 
    -0.03957658f,     0.10108368f,     -0.00239046f,     0.02218011f,     -0.09554327f,     -0.08668289f,     0.02482211f,     0.09207629f, 
    -0.00034996f,     -0.01923941f,     0.01852478f,     0.01164224f,     0.06254689f,     0.06139999f,     -0.01869957f,     0.11121007f, 
    -0.07471395f,     0.13186172f,     0.00458157f,     -0.18600300f,     0.05059158f,     -0.08612218f,     -0.15146561f,     -0.01393183f, 
    0.13813893f,     -0.08830103f,     0.06619658f,     -0.05921694f,     0.03550751f,     0.15531588f,     0.16365983f,     0.04292426f, 
    -0.13630380f,     -0.09818937f,     -0.00970946f,     -0.01927143f,     0.07756029f,     -0.04433981f,     -0.11523306f,     -0.07258142f, 
    -0.01501182f,     0.00422249f,     -0.03729812f,     0.03055121f,     -0.07955716f,     0.09925645f,     0.10282650f,     -0.15608586f, 
    -0.08476476f,     -0.12108735f,     0.07870471f,     0.14162800f,     0.07629253f,     0.05464210f,     0.06469375f,     -0.06711626f, 
    0.03355313f,     0.06355514f,     0.05966890f,     -0.03635611f,     -0.03953443f,     0.08282031f,     0.07994632f,     0.13040575f, 
    -0.04338348f,     0.12402834f,     0.11561144f,     0.13721710f,     0.12489524f,     -0.04001054f,     0.05043923f,     -0.07684281f, 
    -0.18079907f,     0.04679216f,     -0.04961087f,     0.11221898f,     0.14243586f,     0.03697846f,     -0.05204090f,     0.13219960f, 
    -0.12298547f,     0.01587042f,     -0.00979713f,     -0.05747548f,     0.15106750f,     0.00730646f,     -0.03158821f,     0.00372008f, 
    -0.02959640f,     0.09286966f,     0.02382639f,     -0.09198435f,     0.04277162f,     -0.04379100f,     0.07868258f,     -0.00414562f, 
    0.02551930f,     -0.00012804f,     -0.10437715f,     0.15004727f,     0.08016405f,     -0.07519318f,     0.10878180f,     0.02863958f, 
    0.01615677f,     0.06467702f,     0.13506439f,     -0.04056214f,     0.05872897f,     0.09827058f,     -0.13141221f,     0.02817255f, 
    -0.08819686f,     0.02827462f,     -0.08299346f,     0.09755845f,     -0.11585052f,     0.14306915f,     0.10615852f,     0.07091635f, 
    -0.09820335f,     -0.05342200f,     -0.07272629f,     -0.11040384f,     0.02654111f,     -0.08632318f,     -0.12834276f,     -0.14207920f, 
    -0.05056379f,     -0.14637221f,     0.15289254f,     -0.02622345f,     0.12258541f,     0.01369635f,     0.11514296f,     0.14123046f, 
    0.02757129f,     0.05756100f,     -0.12957744f,     -0.17960884f,     -0.02109589f,     0.08111042f,     0.02086310f,     0.11611752f, 
    0.09563461f,     0.09344712f,     0.05739201f,     -0.07070468f,     0.04436034f,     -0.15518793f,     0.11733742f,     0.11702549f, 
    0.09834111f,     0.15572149f,     0.12141531f,     0.02208097f,     -0.11347581f,     -0.07334866f,     0.08603736f,     -0.16092658f, 
    -0.17109540f,     0.11542149f,     -0.07841835f,     -0.03940183f,     -0.10815585f,     0.10328217f,     0.07221501f,     -0.10227910f, 
    -0.04138135f,     0.10059633f,     0.07518754f,     -0.12473273f,     -0.00095233f,     0.08523132f,     -0.14615059f,     0.15128402f, 
    -0.06591390f,     -0.02764056f,     0.08699294f,     0.14788435f,     -0.07530978f,     0.01297747f,     0.12269320f,     0.13035394f, 
    0.00786387f,     0.10280230f,     0.12154456f,     -0.02909998f,     -0.10669903f,     -0.02632987f,     0.13259409f,     -0.02755486f, 
    -0.00617337f,     -0.01200796f,     -0.07540558f,     -0.03366295f,     0.08557621f,     -0.11110218f,     -0.15222770f,     0.10349593f, 
    0.12964804f,     -0.13162331f,     0.04571957f,     0.00074454f,     0.10493529f,     0.01770748f,     0.12071670f,     -0.02109920f, 
    -0.05531886f,     0.00176494f,     -0.05844190f,     -0.13599101f,     -0.01057967f,     0.13715923f,     0.00970481f,     0.11353219f, 
    -0.05331773f,     0.03863327f,     -0.10423193f,     -0.05680057f,     -0.07170720f,     0.08152688f,     -0.01029205f,     -0.10316096f, 
    -0.03773385f,     0.12534426f,     -0.15715417f,     -0.11269998f,     -0.02106993f,     -0.01262560f,     0.10135012f,     -0.11661681f, 
    0.01547791f,     0.17514676f,     0.15593199f,     -0.00080587f,     -0.07917808f,     0.07380966f,     -0.11496846f,     0.09316804f, 
    -0.10428303f,     0.00149562f,     -0.07571591f,     -0.04807183f,     0.02977203f,     0.15459780f,     -0.12294990f,     -0.03605859f, 
    0.01757383f,     -0.13855200f,     -0.16506293f,     -0.04645924f,     0.12411198f,     -0.03268499f,     0.02495486f,     0.16872856f, 
    -0.13686699f,     0.09893332f,     -0.05017705f,     -0.15568477f,     -0.06318828f,     -0.12210970f,     -0.05240353f,     0.08465184f, 
    -0.13624531f,     -0.01177671f,     0.06777375f,     -0.01708121f,     0.12035105f,     0.12526809f,     0.09263457f,     -0.06665827f, 
    -0.14256211f,     -0.03400873f,     0.00974041f,     0.00782638f,     -0.16402419f,     0.13249633f,     0.11759907f,     0.05238707f, 
    0.03070152f,     0.04966998f,     0.13369723f,     0.08891698f,     0.06944676f,     -0.07307627f,     0.06483308f,     0.07185704f, 
    0.12063694f,     -0.03502276f,     -0.03723548f,     -0.12739140f,     0.13486698f,     0.03000852f,     -0.02545447f,     -0.11986246f, 
    0.03490100f,     0.11566697f,     0.03950752f,     -0.06370700f,     -0.08112141f,     0.05482787f,     -0.13732450f,     0.02443139f, 
    -0.01401265f,     -0.04885933f,     0.13584664f,     0.02155731f,     0.01370016f,     -0.00175227f,     0.05974545f,     0.06855614f, 
    0.06850687f,     -0.02950581f,     -0.09533852f,     -0.01562586f,     0.05859462f,     -0.05378763f,     -0.06505781f,     -0.05584472f, 
    -0.08886135f,     0.10999092f,     -0.05796727f,     0.02615328f,     0.00142687f,     0.12438390f,     -0.02389007f,     0.08579276f, 
    -0.01583840f,     -0.07706069f,     0.09465903f,     -0.03420798f,     0.04444968f,     -0.13972779f,     -0.01620285f,     -0.08868306f, 
    -0.02111814f,     0.10790404f,     -0.00455341f,     0.12005430f,     -0.05579993f,     -0.06196815f,     -0.04081537f,     -0.11144412f, 
    -0.09882749f,     -0.02956564f,     -0.04902752f,     0.08016277f,     0.07035522f,     0.17019388f,     -0.10580111f,     0.09405520f, 
    -0.00920258f,     -0.07587432f,     -0.11559756f,     0.06944335f,     0.02520390f,     -0.11978102f,     -0.08867341f,     0.09153361f, 
    -0.08950776f,     -0.03061993f,     -0.10328235f,     0.02910386f,     -0.12825397f,     0.06004708f,     0.11566412f,     -0.03961824f, 
    0.11217026f,     0.04807360f,     0.02196214f,     0.03496668f,     0.01163210f,     0.09876773f,     -0.14900139f,     -0.01570885f, 
    0.13026451f,     0.09637129f,     -0.07352341f,     0.09597436f,     0.06856576f,     -0.13141643f,     -0.06265494f,     -0.05426183f, 
    -0.13878711f,     -0.00478403f,     0.06062327f,     -0.09437674f,     0.02005459f,     0.05347576f,     0.14959566f,     -0.06609222f, 
    -0.07779214f,     -0.08097186f,     0.17592381f,     -0.02442458f,     0.15211233f,     0.03709044f,     0.01933324f,     -0.13891874f, 
    -0.10645491f,     0.00842842f,     -0.00507996f,     -0.07686277f,     0.06805018f,     0.08504243f,     0.05945105f,     -0.07153015f, 
    -0.05272013f,     -0.08150451f,     -0.09752062f,     -0.08265179f,     0.08909256f,     0.07576605f,     0.03882805f,     0.05694593f, 
    0.11279002f,     -0.03072638f,     0.18031999f,     0.16794001f,     0.00405411f,     -0.14205328f,     0.14611872f,     -0.13825335f, 
    0.16294897f,     0.05089474f,     0.11584693f,     -0.10953127f,     -0.08466713f,     -0.12048891f,     -0.02962103f,     0.17539725f, 
    -0.10033499f,     0.15365842f,     0.01079663f,     -0.14230201f,     -0.14482856f,     0.03435955f,     0.15973385f,     0.16253993f, 
    0.01896854f,     -0.01742792f,     -0.03323408f,     0.08996528f,     -0.06598478f,     -0.01971577f,     -0.02955281f,     -0.08474938f, 
    -0.01655369f,     -0.03071420f,     -0.10636825f,     0.03946248f,     -0.12612893f,     0.02810102f,     -0.01924582f,     -0.11313312f, 
    -0.09349711f,     0.06238015f,     -0.00324348f,     -0.14222206f,     -0.10148401f,     0.03167976f,     -0.00678694f,     -0.04352164f, 
    0.08049592f,     0.01570804f,     0.15354016f,     0.00990564f,     -0.03929131f,     -0.12561616f,     0.07705048f,     -0.05065896f, 
    0.05325855f,     -0.15031728f,     0.03433802f,     0.02926244f,     -0.02401695f,     0.07878994f,     -0.01665488f,     -0.02152916f, 
    -0.08397359f,     0.00604938f,     0.13916114f,     -0.03707003f,     -0.13048190f,     0.11971717f,     0.04362888f,     -0.03578930f, 
    0.12471576f,     -0.01876126f,     0.00701621f,     0.01409279f,     0.06431433f,     -0.04671321f,     0.02936935f,     -0.08573810f, 
    -0.05132232f,     0.05222724f,     -0.05995239f,     0.13123028f,     0.01515411f,     0.12160680f,     0.06569940f,     0.05231763f, 
    0.12674744f,     -0.15085469f,     -0.00669986f,     -0.17959540f,     -0.07420224f,     -0.08961172f,     -0.00716144f,     -0.00918949f, 
    0.04600578f,     0.02537311f,     -0.12591900f,     0.12098891f,     -0.18997192f,     0.12528180f,     0.05783331f,     -0.05399895f, 
    0.09305725f,     0.03605864f,     0.08062091f,     0.12546892f,     0.10595941f,     0.15729463f,     -0.06201532f,     0.07806049f, 
    0.06769471f,     -0.05074141f,     -0.10038003f,     0.11678410f,     -0.10941260f,     -0.01868247f,     -0.14324906f,     -0.02610171f, 
    -0.07254747f,     0.08532200f,     -0.02808837f,     0.07441733f,     -0.09994284f,     0.03336182f,     -0.14082381f,     0.11304855f, 
    0.01753590f,     0.12923171f,     0.03686010f,     -0.13158856f,     -0.03172901f,     0.12908423f,     -0.02338881f,     -0.02225780f, 
    -0.18837477f,     -0.03405356f,     0.03451407f,     0.06183779f,     -0.12045596f,     0.05681129f,     0.13748157f,     -0.01463506f, 
    0.14380337f,     0.13132919f,     0.13402891f,     -0.11690975f,     -0.03324649f,     -0.07017753f,     0.11288001f,     -0.13713764f, 
    0.09553263f,     0.05137200f,     -0.03694766f,     -0.01448079f,     0.10495552f,     -0.05635778f,     0.05792031f,     -0.16266504f, 
    0.02477951f,     -0.01595113f,     -0.01398660f,     -0.12284820f,     0.07327467f,     0.00216806f,     -0.05561964f,     -0.15029930f, 
    0.02303949f,     0.07858161f,     0.03428598f,     -0.11958548f,     -0.12206407f,     -0.03747759f,     -0.06361336f,     -0.05787662f, 
    0.13447772f,     0.16693045f,     0.08790594f,     0.10119599f,     0.04653843f,     0.11347215f,     -0.01647064f,     -0.07196464f, 
    -0.15277436f,     0.09607742f,     0.06570864f,     -0.01101325f,     0.13130902f,     0.08377015f,     -0.08022632f,     -0.01455279f, 
    -0.13417736f,     0.12082709f,     -0.00286004f,     0.03686186f,     -0.03745821f,     -0.04226544f,     -0.06522591f,     0.14294876f, 
    -0.08709919f,     0.00571315f,     -0.07181636f,     0.16655451f,     0.15176652f,     0.02693384f,     0.01451513f,     0.04469815f, 
    -0.15484142f,     0.07484297f,     -0.13321653f,     -0.12373704f,     0.06101619f,     0.00029620f,     0.03575290f,     -0.02676600f, 
    0.00056408f,     0.06126356f,     0.09763379f,     0.05621215f,     -0.08508667f,     -0.10340607f,     -0.01496371f,     0.05081365f, 
    -0.13235304f,     0.13673842f,     0.05915981f,     -0.14096358f,     0.02539247f,     -0.00103038f,     -0.07326276f,     0.03550662f, 
    -0.01300497f,     0.02796072f,     -0.04561990f,     0.09847608f,     0.10999048f,     -0.11057540f,     -0.03628542f,     -0.12280022f, 
    0.00582630f,     0.07739452f,     -0.02203623f,     0.10551883f,     -0.13092189f,     0.05639369f,     -0.15172251f,     -0.13070446f, 
    -0.04866510f,     -0.05353050f,     0.11689653f,     0.14299908f,     0.10505816f,     -0.05315694f,     -0.11665860f,     0.10362791f, 
    0.05023132f,     -0.09760761f,     -0.02502177f,     0.03763147f,     0.08879551f,     -0.11559136f,     -0.10859443f,     0.05929026f, 
    0.00832864f,     -0.08259327f,     -0.13745150f,     0.10730596f,     0.06996565f,     0.09411639f,     -0.07567067f,     0.06487960f, 
    0.09904306f,     -0.02562100f,     0.08871756f,     -0.02420601f,     0.08397968f,     -0.16057797f,     -0.16124500f,     0.15050800f, 
    0.03437899f,     0.14525396f,     0.08511464f,     0.06860734f,     -0.09094234f,     0.02781267f,     -0.01731185f,     0.08708378f, 
    0.07461784f,     -0.18263488f,     0.00408596f,     0.08716759f,     -0.03038830f,     -0.06498469f,     0.00978665f,     -0.06872636f, 
    -0.03367650f,     0.07764595f,     -0.12894042f,     0.08449429f,     -0.09926322f,     -0.13822222f,     0.12444438f,     0.08440985f, 
    -0.12169732f,     -0.03790854f,     0.09137602f,     -0.02873363f,     0.02432422f,     0.06951867f,     -0.03229355f,     0.03231083f, 
    0.08030446f,     0.00285155f,     -0.01364875f,     0.07183039f,     -0.02024417f,     0.04742429f,     -0.04136136f,     0.11409176f, 
    -0.01059408f,     0.12542132f,     0.11954258f,     -0.05708957f,     -0.01876192f,     0.08587527f,     -0.19143851f,     -0.05074405f, 
    -0.13680238f,     0.04312569f,     0.10555504f,     0.06487866f,     0.09820271f,     -0.00960261f,     -0.00919436f,     0.07743540f, 
    0.04509123f,     -0.01970997f,     -0.04140398f,     0.06320402f,     -0.07481240f,     0.04990282f,     -0.01735652f,     0.12705971f, 
    -0.04421419f,     -0.10392956f,     0.13229594f,     -0.01149692f,     0.03745382f,     0.11281983f,     -0.15191624f,     0.04045699f, 
    0.09241068f,     0.06389286f,     -0.09963242f,     -0.05304675f,     -0.05281534f,     -0.08462078f,     0.08382072f,     -0.05437140f, 
    0.05926439f,     -0.14061728f,     0.03626190f,     -0.08670924f,     -0.07498937f,     -0.01717020f,     0.17408156f,     0.17764744f, 
    0.01515892f,     -0.07714500f,     -0.07412308f,     -0.08458363f,     -0.08358705f,     0.06318993f,     0.04895608f,     0.14212692f, 
    0.06389751f,     -0.09825550f,     -0.04179989f,     -0.04943212f,     0.05027436f,     -0.14468433f,     0.13936317f,     -0.09238782f, 
    0.09741739f,     0.01193204f,     -0.14797658f,     0.12853362f,     -0.00976830f,     0.06110316f,     0.14787258f,     -0.04449131f, 
    -0.08985293f,     0.13074371f,     -0.02528873f,     0.07256614f,     -0.05980752f,     0.03762283f,     0.02787580f,     -0.09457964f, 
    0.11760057f,     -0.05960294f,     0.05463295f,     -0.03782248f,     0.02231826f,     0.09190959f,     0.09728468f,     -0.08544050f, 
    0.04636925f,     -0.16855460f,     0.02728686f,     -0.08277123f,     -0.05850992f,     0.12139995f,     -0.15912081f,     -0.01449828f, 
    0.07607358f,     0.06076631f,     0.09701888f,     0.04129917f,     -0.01896931f,     0.15975283f,     -0.12842342f,     0.04009654f, 
    0.03509235f,     -0.10493395f,     -0.15706359f,     0.03485081f,     -0.09888639f,     0.00903238f,     -0.03085175f,     -0.07051977f, 
    -0.06529836f,     0.17157477f,     -0.04135068f,     0.13312532f,     -0.09957052f,     -0.04441907f,     -0.09202999f,     0.13910681f, 
    0.09283493f,     0.09054126f,     0.12195840f,     -0.08240499f,     -0.02620006f,     0.09654777f,     -0.10518102f,     -0.13878641f, 
    0.04026892f,     0.08954816f,     0.02630146f,     -0.15001900f,     -0.02781275f,     -0.02954907f,     0.06226074f,     -0.00943600f, 
    0.17472114f,     0.04122388f,     -0.14724658f,     0.03143371f,     -0.09575167f,     0.11257905f,     -0.11029908f,     -0.07229708f, 
    0.12422661f,     -0.03549318f,     0.04423249f,     -0.09801409f,     -0.10944351f,     -0.14784162f,     -0.08317673f,     -0.03663110f, 
    0.07329240f,     -0.07006811f,     -0.06266414f,     -0.03568071f,     0.02088121f,     0.00150141f,     0.03349448f,     0.06564071f, 
    0.08349800f,     0.00203148f,     0.05590988f,     0.11440796f,     -0.15235373f,     -0.07197139f,     -0.11618587f,     -0.14735626f, 
    -0.07138622f,     -0.06037968f,     0.05766774f,     -0.03030729f,     0.11819751f,     0.03646454f,     -0.08213925f,     0.08952274f, 
    0.14746840f,     -0.13005106f,     0.13248935f,     0.14023705f,     0.03089693f,     -0.04635333f,     -0.05756956f,     -0.06117448f, 
    0.12100589f,     -0.08648439f,     0.06743994f,     0.10693809f,     -0.10188846f,     0.01506538f,     -0.06507127f,     0.07624856f, 
    0.12708360f,     -0.07892931f,     0.06104226f,     -0.08772847f,     0.08182947f,     -0.10584511f,     -0.05424927f,     -0.08207618f, 
    0.11937997f,     -0.10534745f,     0.08260965f,     0.01639311f,     -0.07021859f,     -0.03762361f,     0.00615588f,     -0.09793166f, 
    -0.13169751f,     -0.07090048f,     0.04621626f,     0.12845555f,     0.06578567f,     -0.03103463f,     -0.14168148f,     -0.00040436f, 
    0.02912713f,     0.06993721f,     0.17211965f,     -0.10605135f,     0.12000366f,     -0.11638193f,     -0.05826650f,     -0.02906604f, 
    0.16336209f,     -0.03914559f,     -0.16416013f,     0.14468071f,     0.11794997f,     0.02472523f,     0.14914401f,     0.05116441f, 
    -0.02384429f,     0.08833946f,     -0.13316599f,     -0.06370453f,     0.03650389f,     -0.12531900f,     0.02901890f,     -0.11370823f, 
    -0.03211278f,     0.10340910f,     -0.08352508f,     0.13649011f,     0.07119080f,     0.12879807f,     -0.15905361f,     -0.14604931f, 
    -0.08359101f,     -0.08468311f,     0.07217690f,     -0.02315367f,     -0.02841710f,     0.05327745f,     0.07684688f,     -0.00108322f, 
    0.09166574f,     -0.03893959f,     -0.02124379f,     0.04982499f,     -0.12918778f,     0.14333491f,     -0.08514047f,     -0.07702494f, 
    -0.09551363f,     0.05984758f,     0.08903523f,     -0.00231329f,     -0.07752399f,     0.14241424f,     -0.15072367f,     -0.00001540f, 
    0.06739059f,     0.07473934f,     0.04695522f,     0.07830207f,     0.06229964f,     -0.13297215f,     0.04983998f,     -0.01308807f, 
    0.13278711f,     -0.01615539f,     0.08518852f,     0.11359439f,     -0.03964205f,     -0.16043000f,     -0.11813033f,     -0.00905148f, 
    -0.07717955f,     -0.11255587f,     -0.00331298f,     0.12119965f,     0.04072823f,     0.11876494f,     0.11084006f,     0.08849098f, 
    -0.04543309f,     0.05256498f,     -0.06330900f,     -0.10536059f,     0.07497054f,     0.06759953f,     -0.05126163f,     -0.02740887f, 
    0.08704054f,     0.08486532f,     0.01637040f,     0.11608320f,     -0.13293251f,     0.08952176f,     0.08833785f,     -0.05695591f, 
    -0.15338109f,     -0.11981613f,     -0.00694538f,     -0.13679065f,     -0.14805239f,     -0.01732301f,     0.14621980f,     0.03450806f, 
    0.00853120f,     -0.02673650f,     0.14013632f,     -0.06211319f,     -0.03226341f,     0.07871514f,     0.16069396f,     0.03574984f, 
    -0.03344256f,     -0.10866817f,     0.02794789f,     0.04336942f,     -0.09989998f,     -0.03064835f,     0.02650717f,     -0.00206262f, 
    0.10768980f,     -0.12676707f,     0.07447621f,     -0.10870834f,     -0.12947887f,     -0.03880337f,     0.08719787f,     -0.06783409f, 
    0.00466519f,     0.11449690f,     0.07180636f,     -0.09646259f,     -0.01636892f,     -0.01089474f,     0.03236442f,     0.00782559f, 
    -0.13336089f,     0.01902027f,     -0.00824016f,     0.10520139f,     -0.03383644f,     0.06151507f,     -0.03829765f,     0.13354145f, 
    -0.04749238f,     0.00864601f,     -0.01492668f,     0.13877307f,     -0.05609346f,     -0.09794232f,     -0.04676281f,     -0.13770042f, 
    -0.03068781f,     0.14744598f,     0.03051064f,     -0.07577077f,     0.07180719f,     0.01022441f,     0.02545705f,     -0.00988301f, 
    0.07731774f,     -0.04489318f,     -0.08816348f,     -0.06492883f,     0.09350067f,     -0.03784481f,     0.04674113f,     -0.02357074f, 
    0.15279104f,     0.13464969f,     0.01735144f,     -0.01265318f,     -0.15323712f,     -0.07122047f,     0.06765167f,     -0.08769727f, 
    -0.05072945f,     -0.11919873f,     -0.07246110f,     0.12998112f,     -0.08878071f,     -0.01750630f,     0.08499850f,     0.01073359f, 
    0.08666818f,     -0.00463899f,     -0.04017566f,     0.09116925f,     -0.11772063f,     0.10379877f,     0.00126694f,     -0.07284918f, 
    0.09808575f,     -0.02389908f,     -0.00695240f,     -0.09282702f,     0.04560965f,     0.10402425f,     0.08892263f,     -0.10637318f, 
    -0.15920810f,     -0.12266588f,     -0.05821190f,     0.03189470f,     0.05542730f,     0.07372678f,     0.05238071f,     0.12785658f, 
    -0.13568518f,     0.13671191f,     0.09140361f,     0.13185699f,     -0.16520348f,     -0.03388856f,     -0.01262669f,     0.01191995f, 
    0.06573730f,     -0.09728189f,     -0.12304871f,     0.13013330f,     -0.10061616f,     0.07843065f,     -0.09165359f,     -0.01258751f, 
    -0.16183366f,     0.12056974f,     0.15396093f,     -0.01566848f,     -0.14087331f,     0.06650591f,     -0.00337255f,     0.07762986f, 
    0.03041161f,     -0.03963048f,     0.11078596f,     -0.11256532f,     -0.02316538f,     -0.10984372f,     0.16500919f,     -0.01038408f, 
    -0.13661669f,     -0.04019641f,     0.15653482f,     0.04305860f,     -0.12864685f,     -0.14332616f,     -0.03181088f,     0.05860263f, 
    0.03229045f,     -0.02319871f,     0.12110394f,     0.11659499f,     0.10961912f,     -0.08245882f,     -0.12248996f,     0.07570210f, 
    0.00782438f,     0.06653951f,     -0.11339381f,     0.01968179f,     0.12903854f,     -0.05897054f,     -0.13272043f,     0.06615849f, 
    0.10593507f,     0.04133695f,     -0.17236699f,     -0.05587975f,     0.03271155f,     0.07813834f,     0.04697063f,     -0.06847397f, 
    0.01904514f,     0.05711140f,     0.07788225f,     0.14212929f,     0.00606691f,     0.13987157f,     -0.16016516f,     -0.06189341f, 
    -0.10224508f,     -0.05195317f,     0.09343202f,     0.02312436f,     0.04349392f,     -0.12708823f,     0.09665642f,     0.01091438f, 
    0.14196119f,     -0.05699732f,     0.13627069f,     -0.15416181f,     0.08299889f,     -0.00153723f,     0.08994431f,     -0.08449981f, 
    -0.10908446f,     -0.10313912f,     0.17374589f,     0.16510230f,     0.07603886f,     -0.01794451f,     -0.10238717f,     -0.14354962f, 
    0.14156401f,     -0.15228988f,     -0.05514917f,     0.03667039f,     -0.06457590f,     -0.10218664f,     0.02877633f,     -0.08751534f, 
    0.06212152f,     -0.04784221f,     0.16024898f,     0.06996080f,     0.05600851f,     0.02552638f,     -0.09370145f,     0.15422471f, 
    0.14586802f,     -0.00053504f,     0.10870720f,     -0.12283968f,     -0.13081977f,     -0.07695873f,     0.11641367f,     0.10494810f, 
    0.01159797f,     -0.06906419f,     -0.09044352f,     -0.00160144f,     -0.02860209f,     0.14669307f,     -0.07485438f,     -0.10802570f, 
    0.06302358f,     -0.11709520f,     0.00477031f,     -0.04768764f,     0.15768676f,     0.01283954f,     -0.07938255f,     0.06770639f, 
    -0.06367600f,     -0.10689369f,     0.12965275f,     -0.11458902f,     -0.07775847f,     0.07570683f,     0.10456426f,     -0.07787609f, 
    -0.07013669f,     0.12966387f,     0.13800745f,     0.12316006f,     0.14760138f,     -0.00491977f,     0.11910897f,     0.08729352f, 
    0.10306927f,     -0.10378245f,     -0.19317448f,     -0.20546058f,     -0.19108936f,     -0.14074422f,     -0.00573174f,     0.00944735f, 
    0.02833962f,     -0.13024050f,     0.02629123f,     0.13868733f,     0.01077927f,     0.14258805f,     -0.00843500f,     -0.14048511f, 
    0.12568709f,     0.00063114f,     -0.12429293f,     0.12802808f,     -0.04362708f,     0.06001097f,     -0.05946655f,     0.14007547f, 
    -0.00270378f,     -0.04671463f,     -0.12279335f,     0.07249723f,     -0.03369122f,     -0.06149096f,     0.01952309f,     0.02734063f, 
    0.07820050f,     0.05736148f,     0.11056520f,     0.01047052f,     -0.12933268f,     0.02523034f,     -0.00050435f,     0.01578556f, 
    0.01808606f,     0.08070112f,     -0.05352284f,     -0.03847865f,     -0.10549861f,     -0.06675033f,     0.06509037f,     -0.12231534f, 
    0.06714447f,     0.02750572f,     -0.03248546f,     -0.11655927f,     0.16979721f,     -0.03636816f,     0.06622360f,     -0.05634410f, 
    -0.12081425f,     0.06675318f,     -0.00755345f,     0.08992166f,     -0.00693599f,     0.14913270f,     -0.05583901f,     -0.04620828f, 
    -0.10184248f,     -0.07809401f,     -0.00808485f,     0.08048748f,     0.07833051f,     -0.01876684f,     -0.06528716f,     0.11917268f, 
    -0.02782152f,     -0.05816906f,     -0.16295283f,     0.09170213f,     0.11190740f,     0.08636865f,     -0.01184850f,     0.03467389f, 
    0.12086324f,     0.14638057f,     0.01846125f,     -0.07935658f,     -0.12627740f,     -0.06907908f,     -0.00065298f,     0.10195362f, 
    -0.12345375f,     -0.13240187f,     -0.05922219f,     -0.03221516f,     0.00816150f,     -0.00433921f,     0.09369946f,     -0.06056471f, 
    0.13042907f,     -0.07007334f,     0.00980797f,     0.07874614f,     -0.12960608f,     0.13905434f,     0.12038288f,     -0.11757793f, 
    0.14038788f,     -0.09496117f,     0.11626597f,     -0.04678311f,     -0.10645551f,     0.12417105f,     -0.02647744f,     -0.12324185f, 
    -0.02617225f,     0.16266620f,     0.02882551f,     0.14137751f,     -0.00417698f,     -0.10518949f,     -0.04599735f,     -0.02113768f, 
    -0.06165768f,     0.11041218f,     0.10558151f,     -0.07385322f,     -0.03337990f,     -0.02244464f,     0.07205760f,     -0.13083042f, 
    -0.08956924f,     0.03245942f,     0.09248843f,     0.06502853f,     -0.11224841f,     -0.05969522f,     -0.02929743f,     -0.04855745f, 
    0.03724954f,     0.09974179f,     -0.09868820f,     -0.06412398f,     0.14141983f,     -0.05523077f,     -0.05085181f,     -0.08890024f, 
    -0.01838631f,     -0.06917611f,     -0.03434201f,     0.00369458f,     0.03103346f,     0.15486982f,     0.05050025f,     0.12961094f, 
    -0.06663339f,     -0.20274748f,     0.07238709f,     0.03216871f,     0.07303085f,     0.04941121f,     -0.12301398f,     -0.08731268f, 
    -0.13843550f,     -0.10360817f,     0.16309328f,     -0.07065665f,     0.01766967f,     -0.05568976f,     0.10006636f,     -0.11492722f, 
    -0.09991029f,     0.07658880f,     -0.00295405f,     0.06019520f,     -0.01528696f,     0.08791022f,     0.15122573f,     -0.08646704f, 
    -0.05311666f,     0.04671132f,     0.02589756f,     -0.08275528f,     0.07821544f,     -0.10430963f,     0.14279659f,     -0.07595207f, 
    0.03470398f,     0.08561534f,     0.14407010f,     0.17742637f,     0.14139880f,     0.12635556f,     -0.11342271f,     -0.14634179f, 
    -0.04842350f,     -0.20487088f,     0.04742785f,     0.06493921f,     -0.13511318f,     -0.16922231f,     -0.05449888f,     0.14746079f, 
    0.06722554f,     0.07732776f,     -0.13195622f,     0.03356625f,     -0.10965003f,     0.11706745f,     0.07270097f,     -0.03779876f, 
    0.07352886f,     -0.10895960f,     -0.05678589f,     -0.08764524f,     0.08252149f,     0.12633152f,     0.12711115f,     -0.03768613f, 
    -0.12893543f,     -0.15902093f,     -0.05730244f,     0.07299478f,     0.12784570f,     -0.05360383f,     -0.05021540f,     0.05737341f, 
    0.06022947f,     0.05776275f,     -0.03294303f,     -0.03302152f,     -0.05131607f,     -0.01241189f,     -0.09621020f,     0.14467324f, 
    0.09439245f,     0.06083937f,     -0.15934812f,     0.02181687f,     -0.07739653f,     0.09370770f,     -0.06843705f,     -0.11885725f, 
    0.10551883f,     0.05197437f,     0.11461130f,     -0.13862807f,     0.03197248f,     0.02636825f,     0.11270961f,     -0.16795652f, 
    0.09609091f,     -0.07446072f,     0.06864408f,     0.12443154f,     0.09936185f,     -0.04735733f,     0.08463366f,     -0.00372376f, 
    -0.00177624f,     -0.08043227f,     0.01291645f,     -0.01258823f,     0.04709826f,     -0.15315151f,     -0.07923575f,     0.01218858f, 
    -0.05766597f,     -0.08399151f,     0.00955620f,     -0.00530217f,     -0.07532070f,     0.07526296f,     -0.01998664f,     0.06678514f, 
    0.14409310f,     0.14726125f,     0.07728077f,     -0.10757773f,     -0.07606049f,     -0.05420857f,     0.12600580f,     0.15069138f, 
    0.06977995f,     -0.10141516f,     0.16765819f,     -0.00684783f,     0.02511752f,     0.09041555f,     -0.04939941f,     -0.07893016f, 
    -0.05805967f,     0.08491285f,     -0.03781617f,     -0.06412090f,     -0.04990597f,     -0.02283594f,     -0.02346785f,     -0.00899501f, 
    0.01611361f,     -0.01284940f,     -0.08190333f,     -0.09021968f,     -0.08108141f,     -0.03125978f,     0.10332984f,     0.00577147f, 
    -0.05903549f,     -0.00001696f,     -0.08819547f,     -0.12142570f,     0.03863167f,     -0.02173031f,     -0.10205773f,     -0.01672669f, 
    -0.15831238f,     0.15722071f,     0.05246112f,     -0.00904031f,     0.02105885f,     0.04235463f,     -0.12054452f,     -0.05827726f, 
    -0.13742247f,     0.14206505f,     0.13977790f,     0.08168899f,     -0.06529759f,     0.12685603f,     0.13522696f,     -0.13521354f, 
    0.14414836f,     -0.01472641f,     -0.05849415f,     -0.05959955f,     -0.09390094f,     0.03011205f,     -0.00107762f,     -0.04625769f, 
    0.08912652f,     0.00180628f,     0.04276631f,     -0.10416174f,     -0.11160122f,     -0.05588418f,     -0.11358868f,     -0.11702067f, 
    -0.09333359f,     0.08292361f,     0.06735002f,     0.14042607f,     0.09944352f,     -0.01307154f,     0.09262680f,     -0.15091394f, 
    -0.06550565f,     -0.03541133f,     0.01344470f,     -0.06132677f,     0.09823874f,     0.06278585f,     0.03941134f,     0.03066453f, 
    0.10534759f,     0.13233814f,     0.14860421f,     0.06058124f,     0.06174338f,     -0.13085593f,     -0.06923532f,     -0.17194811f, 
    -0.15240031f,     0.09074389f,     0.05621513f,     0.08554248f,     -0.08187918f,     0.04354522f,     0.06728314f,     0.11080813f, 
    0.02110280f,     -0.08265226f,     -0.14296731f,     -0.07836961f,     -0.00418966f,     0.00524326f,     -0.06109722f,     -0.15353002f, 
    -0.05036306f,     -0.17662017f,     0.11002111f,     0.00997071f,     0.10266050f,     0.05135601f,     0.08808936f,     -0.01578301f, 
    -0.09792256f,     -0.13674504f,     -0.02430938f,     -0.15508386f,     0.15272541f,     0.12794140f,     0.15306276f,     -0.14748181f, 
    -0.05452437f,     0.02748196f,     -0.14254087f,     0.14209370f,     0.08031773f,     -0.10194251f,     -0.02097040f,     -0.01198202f, 
    -0.15035290f,     -0.00755371f,     0.08691292f,     0.01552008f,     -0.10559011f,     0.06766877f,     0.03255783f,     0.06181419f, 
    0.01637176f,     -0.00700913f,     0.04359000f,     0.08936409f,     -0.01136225f,     -0.08691974f,     -0.10676584f,     0.07945293f, 
    -0.09168058f,     -0.05277017f,     -0.10547314f,     0.16149244f,     0.02324351f,     -0.03063093f,     -0.06386903f,     0.07323111f, 
    0.14463153f,     0.10764308f,     0.13401459f,     0.03274707f,     0.05892039f,     0.03964074f,     0.00560074f,     0.02666407f, 
    0.08908635f,     0.02940776f,     -0.01481296f,     0.11483501f,     0.00385602f,     -0.15370862f,     0.02882774f,     0.11498504f, 
    -0.03599664f,     -0.10985615f,     0.09696900f,     -0.11598321f,     -0.18068045f,     -0.04913546f,     0.09675683f,     0.07200126f, 
    0.03920720f,     0.11175244f,     -0.12890266f,     -0.11078251f,     0.06917071f,     -0.04767856f,     -0.09186541f,     0.09544268f, 
    0.12003089f,     0.15613878f,     -0.00980657f,     -0.11367890f,     0.01495750f,     -0.12622745f,     -0.05674283f,     0.12341829f, 
    0.16359133f,     -0.10201566f,     -0.12174650f,     0.15766762f,     0.14420514f,     0.13671325f,     -0.00907032f,     -0.10409708f, 
    0.06715731f,     -0.07851843f,     0.01282086f,     0.11585837f,     0.03950881f,     -0.08008444f,     -0.12132727f,     -0.09172390f, 
    -0.10732525f,     -0.02654866f,     0.06848140f,     0.00573443f,     -0.09226803f,     0.01034510f,     0.01365505f,     0.10796747f, 
    -0.03470502f,     -0.09773064f,     -0.01637739f,     -0.09253496f,     -0.08791156f,     0.04477363f,     -0.03732733f,     -0.08528594f, 
    0.05527525f,     -0.02626865f,     -0.02409636f,     0.14770429f,     0.15371001f,     0.01280461f,     -0.04439374f,     0.12935784f, 
    -0.02623408f,     -0.07700153f,     -0.11831200f,     -0.07964096f,     -0.11399722f,     -0.05362419f,     -0.03897355f,     0.03664309f, 
    0.08883625f,     -0.07904550f,     -0.06440742f,     -0.05427226f,     0.02040821f,     -0.07142682f,     -0.13012990f,     0.04162407f, 
    0.06042759f,     0.03948631f,     0.01494697f,     -0.04734936f,     -0.02622713f,     0.13709888f,     -0.01780031f,     0.03577162f, 
    0.06661624f,     -0.10186298f,     0.06787601f,     -0.06432179f,     0.07680137f,     0.07288893f,     -0.14308907f,     -0.03150358f, 
    0.07531942f,     -0.15587851f,     -0.04221359f,     0.05327106f,     -0.04069538f,     0.10662515f,     0.12886404f,     -0.10220148f, 
    0.01098275f,     0.01959721f,     -0.13708366f,     0.01414285f,     0.13974282f,     -0.02057419f,     0.17196342f,     -0.10680788f, 
    0.07243210f,     -0.09967998f,     0.09760739f,     -0.14860119f,     0.08319268f,     -0.05027955f,     -0.13799262f,     -0.03671636f, 
    -0.00736310f,     -0.07000469f,     -0.07457903f,     0.04942107f,     0.13567305f,     -0.11050068f,     -0.13795570f,     0.08001856f, 
    0.12286207f,     0.15956415f,     0.09255899f,     0.05077086f,     -0.07403867f,     -0.06391367f,     0.05324666f,     -0.06446656f, 
    0.08517258f,     -0.09033182f,     0.11319370f,     -0.11069872f,     -0.06894612f,     0.03869809f,     0.05911631f,     -0.11245347f, 
    0.03749707f,     0.08425366f,     -0.09825071f,     0.07315744f,     0.06414165f,     0.05245746f,     -0.12086898f,     -0.06764267f, 
    -0.08928275f,     -0.09050667f,     -0.08536676f,     0.18524015f,     -0.01516994f,     0.09393832f,     -0.11968953f,     -0.02262914f, 
    0.05850651f,     -0.10543131f,     0.05129996f,     -0.03094139f,     0.04581377f,     0.17446056f,     -0.06553160f,     -0.05349599f, 
    -0.03486022f,     0.03344394f,     -0.10748302f,     0.02112301f,     0.11831027f,     -0.00736357f,     -0.00981619f,     -0.08363485f, 
    0.01002457f,     0.09097642f,     -0.10954844f,     -0.11064725f,     0.05609266f,     0.10894600f,     -0.03552016f,     0.09878419f, 
    0.00866171f,     0.04400772f,     -0.16608648f,     -0.09631514f,     0.03761490f,     0.05144897f,     0.13757265f,     -0.10113835f, 
    0.00778515f,     0.03595243f,     -0.08811624f,     0.16172241f,     -0.03038288f,     0.06774008f,     0.03217356f,     0.02732212f, 
    -0.16739942f,     -0.15563111f,     0.10902401f,     0.02684465f,     0.00228539f,     0.11783686f,     0.10904679f,     -0.05033151f, 
    -0.07790460f,     -0.12977318f,     -0.02645116f,     -0.02249780f,     -0.00181700f,     0.01423790f,     0.03538448f,     0.13422464f, 
    0.02643007f,     -0.07459323f,     0.03295595f,     -0.13848500f,     -0.05839609f,     -0.02431358f,     -0.03630732f,     0.14249629f, 
    0.04945062f,     0.09205677f,     -0.18668261f,     0.06231276f,     0.13615099f,     -0.15925092f,     -0.05852510f,     0.12362268f, 
    0.07725476f,     0.13023084f,     -0.09266272f,     0.08636517f,     -0.02698011f,     -0.05547839f,     -0.14789866f,     0.04188015f, 
    0.02099673f,     0.05792709f,     0.05543880f,     -0.08006082f,     -0.03844512f,     -0.13079906f,     0.06723746f,     -0.13660538f, 
    0.12084136f,     0.08362252f,     -0.13083062f,     0.01625781f,     -0.02067964f,     0.08824141f,     -0.00789434f,     0.05213185f, 
    0.09262015f,     -0.10465853f,     -0.03174568f,     0.11905868f,     0.12851685f,     0.07526498f,     -0.07506792f,     -0.12200593f, 
    -0.12305623f,     -0.17696129f,     -0.01985085f,     0.02654558f,     0.01792068f,     0.09102672f,     0.13382870f,     0.07383623f, 
    0.06916615f,     0.08762862f,     0.03033288f,     0.10279461f,     -0.02817106f,     0.04232077f,     0.10815170f,     -0.17310812f, 
    -0.00197608f,     0.12185445f,     0.05521306f,     -0.08035748f,     -0.06574817f,     0.01946882f,     -0.12518255f,     -0.09373195f, 
    0.03177920f,     0.01483777f,     -0.16668369f,     0.04294357f,     -0.14145465f,     0.12383378f,     -0.07923806f,     0.12512192f, 
    -0.13971819f,     0.11288650f,     -0.08984908f,     -0.01711714f,     0.11067961f,     -0.00329080f,     -0.12115996f,     -0.09581180f, 
    0.14602989f,     -0.02466667f,     -0.05635639f,     -0.02859814f,     0.11280816f,     0.04077129f,     -0.14312544f,     -0.08256523f, 
    0.12521905f,     -0.04644132f,     0.13038936f,     -0.15950777f,     -0.13630231f,     0.00161463f,     -0.00347511f,     -0.10047123f, 
    -0.02048649f,     0.04529579f,     0.12403774f,     0.02357173f,     0.09228776f,     -0.01898928f,     -0.00210628f,     0.02418823f, 
    -0.10348177f,     0.09425169f,     -0.11667164f,     0.08127254f,     -0.15444052f,     0.07562607f,     0.08896848f,     0.00921927f, 
    0.00935812f,     -0.03183490f,     0.08504641f,     -0.03967499f,     0.09784122f,     -0.16551380f,     0.07465011f,     -0.08459321f, 
    0.00505700f,     0.09593885f,     -0.03448804f,     0.02227215f,     -0.00928942f,     0.00798865f,     0.03735458f,     0.08671895f, 
    -0.02974779f,     0.13161640f,     0.04715339f,     0.12936969f,     -0.15634519f,     -0.03879610f,     0.03454297f,     -0.08072665f, 
    -0.01465305f,     -0.05821758f,     0.06289721f,     -0.07234058f,     -0.02049943f,     -0.04821384f,     -0.04478969f,     -0.08452551f, 
    0.00088930f,     0.10443653f,     -0.09691190f,     0.10108584f,     0.09200834f,     -0.06233653f,     0.08216127f,     -0.05464920f, 
    0.06095020f,     -0.12543637f,     -0.07486133f,     0.07917570f,     -0.10184450f,     -0.01119245f,     -0.05121088f,     -0.14589870f, 
    -0.02599618f,     -0.11796053f,     -0.03656209f,     0.01051594f,     0.02736841f,     0.01216097f,     -0.13966230f,     0.04830039f, 
    0.06043667f,     -0.00622093f,     0.04662280f,     0.14782731f,     -0.06311990f,     -0.15246876f,     0.11720182f,     0.11737570f, 
    -0.02871577f,     0.08923760f,     -0.04416202f,     0.06005536f,     -0.03146244f,     -0.09433951f,     0.11355706f,     0.10693081f, 
    -0.13431326f,     0.11555176f,     0.15334851f,     -0.06971267f,     -0.02836840f,     -0.13903964f,     -0.07491139f,     -0.11793107f, 
    0.10548092f,     -0.05302876f,     0.01394217f,     -0.04964414f,     -0.10163042f,     -0.09491600f,     0.01888119f,     0.04403100f, 
    -0.11772091f,     -0.03170887f,     0.15116984f,     -0.11166613f,     -0.03816571f,     -0.10766500f,     0.00093805f,     0.02229278f, 
    0.03952311f,     0.04798921f,     0.06025755f,     -0.15475006f,     -0.05040453f,     -0.19611995f,     0.02137574f,     0.08601558f, 
    -0.04362744f,     0.02626198f,     -0.00856447f,     0.10153170f,     -0.16144851f,     0.07303779f,     0.04075724f,     0.02922881f, 
    -0.00185338f,     -0.04446109f,     -0.01388957f,     0.06484088f,     0.10229312f,     0.09520711f,     0.05721574f,     0.06351080f, 
    -0.14848553f,     0.04397344f,     -0.14132614f,     0.11930156f,     0.11956369f,     0.04992320f,     0.02481620f,     -0.16178119f, 
    0.07956497f,     -0.02506529f,     0.10206541f,     -0.00167559f,     0.13272475f,     -0.07992794f,     0.03124641f,     0.06415282f, 
    -0.03276562f,     0.07032180f,     0.00822287f,     -0.05665248f,     0.08301625f,     -0.10147844f,     -0.11807187f,     0.09315029f, 
    0.00623221f,     0.15314342f,     -0.13747327f,     0.03707258f,     0.08225208f,     -0.13443576f,     -0.12388675f,     -0.03592778f, 
    -0.04426397f,     -0.09817778f,     0.04439778f,     -0.02166951f,     0.07593701f,     -0.13576710f,     0.09799740f,     0.13482288f, 
    0.04044402f,     0.04761657f,     0.01792509f,     0.05497690f,     -0.07311459f,     -0.13122103f,     0.03803544f,     -0.01797643f, 
    0.13805135f,     0.01573581f,     -0.01618430f,     -0.04914473f,     0.08193170f,     -0.03258984f,     -0.10116838f,     0.08500538f, 
    -0.12454012f,     -0.09014598f,     -0.14219351f,     0.10733537f,     0.12011963f,     0.05389125f,     0.10375746f,     -0.14662190f, 
    0.03425963f,     -0.08315664f,     0.01774282f,     0.05233893f,     0.11874110f,     -0.04199549f,     -0.04601266f,     0.05721334f, 
    0.00496697f,     0.00270044f,     -0.02367934f,     0.03868213f,     0.08178145f,     -0.02164340f,     -0.15379913f,     0.14862803f, 
    -0.10075507f,     0.05172546f,     0.09795799f,     0.05234875f,     -0.09122932f,     -0.01107135f,     0.13702384f,     0.07525574f, 
    -0.02830069f,     0.09003956f,     0.08643123f,     -0.10775515f,     -0.10970450f,     -0.00050632f,     0.04487981f,     -0.11015663f, 
    -0.10103692f,     -0.10913831f,     -0.11345962f,     0.13031435f,     0.04117425f,     -0.03868734f,     -0.08952704f,     0.14594263f, 
    0.12186752f,     -0.11203436f,     -0.09814890f,     -0.00016632f,     -0.11120772f,     -0.03892769f,     0.09191021f,     0.14164405f, 
    -0.09221863f,     0.08087637f,     0.05731907f,     -0.06866735f,     0.04064072f,     0.14235629f,     -0.14943647f,     0.06604455f, 
    -0.13790075f,     0.03625483f,     -0.06322967f,     0.03512310f,     -0.02322359f,     0.02583307f,     -0.10358611f,     0.04715876f, 
    -0.00142394f,     0.07641911f,     -0.03074945f,     0.13608713f,     0.10495139f,     -0.02586657f,     -0.09193793f,     -0.01240141f, 
    0.14082846f,     0.13702950f,     0.02544773f,     -0.15838031f,     -0.03336045f,     0.12479027f,     -0.11896643f,     -0.11309325f, 
    -0.08998111f,     0.06594481f,     -0.11934916f,     -0.02750581f,     0.07972600f,     0.07077169f,     0.05344297f,     -0.05223817f, 
    0.02890834f,     0.06427877f,     0.00649835f,     0.07493886f,     0.01128528f,     0.07461737f,     0.09603259f,     -0.17452681f, 

};

#define linear_in_bias_size 64
const float linear_in_bias[64] = {
    -0.05966226f,     -0.19984452f,     -0.06473633f,     0.01389378f,     0.01460648f,     0.01427293f,     -0.02308092f,     -0.13695912f, 
    -0.02964590f,     0.10336126f,     -0.26050401f,     0.23713188f,     -0.07981011f,     0.03343781f,     0.20170328f,     0.05581797f, 
    -0.00037259f,     0.08036847f,     0.21040480f,     0.17270657f,     -0.18168828f,     0.05580943f,     0.05897500f,     0.10051744f, 
    -0.00762161f,     -0.17833762f,     -0.22327696f,     -0.08427104f,     -0.00115697f,     0.20688400f,     0.05939542f,     -0.17072649f, 
    -0.01668606f,     -0.03527192f,     -0.20924145f,     -0.04249255f,     0.02953090f,     -0.07436151f,     0.17246364f,     -0.01247887f, 
    -0.05067203f,     0.02061778f,     -0.07446776f,     0.02709520f,     0.17233445f,     0.10817608f,     -0.01413515f,     -0.24871877f, 
    -0.08631244f,     0.02397232f,     -0.10526039f,     -0.10806680f,     0.15847467f,     -0.07447863f,     0.15978801f,     0.04837153f, 
    -0.02805661f,     0.10094495f,     -0.14111915f,     0.25649512f,     -0.13871147f,     -0.12648924f,     -0.01035414f,     0.26905656f, 

};

#define mamba_A_log_rows 128
#define mamba_A_log_cols 16
const float mamba_A_log[2048] = {
    -0.03106261f,     0.61172098f,     1.16912150f,     1.42213738f,     1.87562597f,     1.64988196f,     1.90234172f,     2.06240511f, 
    2.08908510f,     2.39721727f,     2.63052964f,     2.62297463f,     2.78565979f,     2.63125348f,     2.63686347f,     2.90021372f, 
    -0.03196388f,     0.75462139f,     1.11112142f,     1.41596937f,     1.58370924f,     1.75595176f,     1.96146405f,     2.07321405f, 
    2.24806356f,     2.33937359f,     2.39467740f,     2.47755623f,     2.59473825f,     2.64978623f,     2.70069885f,     2.80230570f, 
    0.03406664f,     0.71907187f,     1.16320646f,     1.40829313f,     1.50717509f,     1.87653005f,     1.82418430f,     2.05693746f, 
    2.18076253f,     2.30095196f,     2.33464098f,     2.46017170f,     2.60940576f,     2.63446760f,     2.73126316f,     2.95397878f, 
    0.02153132f,     0.67116833f,     1.05784929f,     1.45536721f,     1.64928114f,     1.80191815f,     1.98226273f,     2.08268023f, 
    2.20707989f,     2.34945321f,     2.41939878f,     2.54696488f,     2.49015260f,     2.67663789f,     2.76300311f,     2.76771927f, 
    0.16838838f,     0.71136779f,     1.33044899f,     1.49801457f,     1.56152833f,     2.09824705f,     1.91342759f,     2.22571516f, 
    2.12968445f,     2.58947229f,     2.37977004f,     2.35335159f,     2.41545439f,     2.75018001f,     2.72260809f,     2.61374521f, 
    0.16855630f,     0.61851752f,     1.08706009f,     1.30271685f,     1.77456748f,     1.72217047f,     2.19061828f,     2.11168003f, 
    2.18483710f,     2.36854696f,     2.50997019f,     2.37630749f,     2.65311599f,     2.54715180f,     2.83402896f,     3.05157590f, 
    -0.15188634f,     0.88526165f,     1.09412718f,     1.44565749f,     1.77451646f,     1.79628801f,     2.02285266f,     2.06766367f, 
    2.27698183f,     2.16945839f,     2.23721027f,     2.59019232f,     2.41745162f,     2.41837597f,     2.59812212f,     2.59704137f, 
    0.03351289f,     0.62603158f,     1.12177551f,     1.49141538f,     1.55195832f,     1.80431581f,     1.96718776f,     2.14881277f, 
    2.26059127f,     2.38417792f,     2.41296196f,     2.46504974f,     2.48224258f,     2.63980007f,     2.76940656f,     2.58846927f, 
    -0.10074922f,     0.59756839f,     1.32868123f,     1.34119618f,     2.01022625f,     2.02611399f,     1.90096736f,     2.12291193f, 
    2.38588715f,     2.55565071f,     3.06115270f,     2.40708232f,     2.74233222f,     2.75143290f,     2.65723705f,     2.31355429f, 
    -0.16600735f,     0.56830847f,     0.77786976f,     1.16415203f,     1.63118899f,     1.41364479f,     1.88577473f,     2.25302744f, 
    2.46570301f,     2.27092862f,     2.28014517f,     2.81032181f,     2.61708307f,     2.61918902f,     2.61371398f,     2.75528359f, 
    0.15514894f,     0.95932591f,     1.07203031f,     1.48043954f,     2.25966477f,     1.81554914f,     2.13937950f,     2.29507041f, 
    2.46495700f,     2.39904594f,     2.90936637f,     2.87207747f,     2.65455222f,     2.70459008f,     2.65518713f,     2.96529746f, 
    -0.11683235f,     0.93496346f,     1.21718097f,     1.25257492f,     1.62718201f,     1.91956222f,     1.94094348f,     2.13765740f, 
    2.72165298f,     2.69225764f,     2.37913728f,     2.39335680f,     2.66844845f,     2.73944092f,     2.36206198f,     2.46227145f, 
    -0.01624543f,     0.68885005f,     1.12761641f,     1.48331273f,     1.53963506f,     1.77072608f,     2.03078103f,     2.14339924f, 
    2.24505877f,     2.43672442f,     2.35693145f,     2.42623472f,     2.61120415f,     2.69827747f,     2.77332735f,     2.71469355f, 
    0.05853136f,     0.66516638f,     1.08311188f,     1.38515520f,     1.65675068f,     1.71599090f,     1.91271746f,     2.05092096f, 
    2.19449568f,     2.35286498f,     2.26818085f,     2.68358874f,     2.60201979f,     2.46578074f,     2.84096503f,     2.83674598f, 
    -0.05287487f,     0.79715335f,     1.14198828f,     1.39287102f,     1.63181794f,     1.80195832f,     1.92382240f,     2.06112504f, 
    2.26302218f,     2.37928343f,     2.37269306f,     2.50196195f,     2.52306890f,     2.65847301f,     2.79206872f,     2.73205972f, 
    0.09852666f,     0.91746962f,     1.14196706f,     1.50003326f,     1.77110052f,     1.91800940f,     2.00798988f,     2.46709490f, 
    2.47914362f,     2.09970331f,     2.42897034f,     2.22613597f,     2.48521638f,     2.71591902f,     3.05124569f,     2.73677778f, 
    -0.00448004f,     0.61894411f,     0.73415071f,     1.16126156f,     1.76734293f,     1.72676122f,     1.91492724f,     2.00786185f, 
    2.06765318f,     2.35612893f,     2.24618459f,     2.35780025f,     2.55734992f,     2.53377032f,     2.52730465f,     2.86332989f, 
    -0.07630080f,     0.80976093f,     1.11443758f,     1.40129995f,     1.36693656f,     1.50727558f,     2.04203820f,     2.32801247f, 
    2.15550566f,     2.07576799f,     2.20318723f,     2.68516994f,     2.53261328f,     2.85114169f,     2.87403893f,     2.88418937f, 
    0.01793490f,     0.75989115f,     0.95665038f,     1.40975940f,     1.71320724f,     1.83733058f,     1.93959296f,     2.13691497f, 
    2.26423216f,     1.99743021f,     2.15860438f,     2.73382568f,     2.88045645f,     2.60195541f,     2.80557609f,     2.85470223f, 
    0.06625975f,     0.86004668f,     1.05975664f,     1.42265058f,     1.77279508f,     1.64420402f,     1.88706839f,     2.06316066f, 
    2.41934371f,     2.10809946f,     2.28460026f,     2.37413335f,     2.47084284f,     2.64557266f,     2.96810961f,     2.63269401f, 
    0.07333244f,     0.79949331f,     1.34593296f,     1.55146027f,     1.50210965f,     2.13803434f,     2.10465860f,     2.11254597f, 
    2.21710443f,     2.38396192f,     2.31890845f,     2.51103497f,     2.48888803f,     2.79576540f,     2.82037807f,     2.81552863f, 
    -0.10658682f,     0.60780126f,     1.29810989f,     1.37160027f,     1.68320715f,     2.17969656f,     1.81770217f,     2.10700583f, 
    2.13030100f,     2.41086721f,     2.43521142f,     2.42468929f,     2.39370799f,     2.40493941f,     2.81142640f,     2.65776372f, 
    0.09337749f,     0.52879691f,     1.34255397f,     1.56080866f,     1.62785733f,     1.78383923f,     1.89244068f,     2.05503988f, 
    2.21049833f,     2.24008727f,     2.34779882f,     2.41499686f,     2.60497546f,     2.71860623f,     2.78895783f,     2.75627375f, 
    -0.05394499f,     0.69511491f,     1.00006747f,     1.28767598f,     1.42661440f,     1.57443166f,     1.94776273f,     2.12501025f, 
    2.04824972f,     2.42548037f,     2.34731412f,     2.51032829f,     2.73211074f,     2.44940090f,     2.81370568f,     2.95104384f, 
    0.00344601f,     0.09169513f,     0.83607692f,     1.22487664f,     1.76619959f,     1.91052401f,     2.01644516f,     2.22814560f, 
    2.37143207f,     2.49936247f,     2.47612000f,     2.38837314f,     2.33421516f,     2.70465755f,     2.80098844f,     2.33478975f, 
    -0.00470018f,     0.72755963f,     1.00071990f,     1.41179943f,     1.59749174f,     1.64576244f,     1.97604465f,     2.04151535f, 
    2.18474936f,     2.33227324f,     2.38573909f,     2.42214823f,     2.64235663f,     2.66952586f,     2.72670102f,     2.77866125f, 
    0.01486277f,     0.66892344f,     1.05490029f,     1.38537514f,     1.56325364f,     1.76773655f,     1.90385914f,     2.08038425f, 
    2.16380692f,     2.23981905f,     2.33531713f,     2.46744561f,     2.51154375f,     2.72839713f,     2.64990306f,     2.76931286f, 
    0.05308747f,     0.91498071f,     1.03648186f,     1.38154399f,     1.59337759f,     1.75675547f,     1.97472119f,     2.12304044f, 
    2.25953317f,     2.33882213f,     2.23480320f,     2.50581574f,     2.64960575f,     2.57669282f,     2.57861376f,     2.89607739f, 
    0.00676754f,     0.70229733f,     1.09157813f,     1.37882721f,     1.61799860f,     1.77939653f,     1.95615327f,     2.08701372f, 
    2.19229007f,     2.30184102f,     2.40357256f,     2.49150252f,     2.55561018f,     2.64582467f,     2.71632195f,     2.80150676f, 
    -0.01164550f,     0.64903861f,     1.10504615f,     1.41254020f,     1.34196031f,     1.75313866f,     2.03247952f,     1.98945594f, 
    2.25029612f,     2.35343432f,     2.31775379f,     2.49551272f,     2.55012655f,     2.73198223f,     2.65319347f,     2.74938059f, 
    -0.07808962f,     0.93735898f,     1.16879785f,     1.56409562f,     1.35166609f,     1.73309767f,     2.16218996f,     2.29368162f, 
    1.82561278f,     2.11558914f,     2.09929991f,     2.21975112f,     2.29521346f,     2.66182566f,     2.68572545f,     2.80638337f, 
    -0.01595577f,     0.76453286f,     1.17447412f,     1.44837856f,     1.62417626f,     1.80742896f,     2.03476501f,     2.06108546f, 
    2.23219967f,     2.21007919f,     2.30882812f,     2.57795930f,     2.50731325f,     2.59145284f,     2.72033668f,     2.75349355f, 
    -0.01512652f,     0.86442566f,     0.94898123f,     1.24818897f,     1.74200368f,     1.81118858f,     1.95248330f,     2.25229573f, 
    2.27939725f,     2.28090334f,     2.24083185f,     2.41716933f,     2.54800129f,     2.47492218f,     2.50285625f,     2.69007397f, 
    0.10500720f,     0.71422189f,     1.03237045f,     1.39569080f,     1.70311689f,     1.87415004f,     2.13017130f,     1.96106279f, 
    2.25308490f,     2.12960124f,     2.61855364f,     2.68290973f,     2.65967226f,     2.77595067f,     2.71282411f,     2.81031632f, 
    -0.00152255f,     0.68273580f,     1.10713422f,     1.37631667f,     1.67005026f,     1.82422197f,     1.94449353f,     2.06546426f, 
    2.14273071f,     2.27849388f,     2.44117999f,     2.50207591f,     2.55306077f,     2.62731147f,     2.68870664f,     2.75765896f, 
    0.01449695f,     0.69839144f,     1.19174695f,     1.48690140f,     1.43178904f,     1.75362384f,     2.10511994f,     2.05744958f, 
    2.34857035f,     2.51159501f,     2.42305398f,     2.60348821f,     2.51805544f,     2.79028130f,     2.86569357f,     2.52594900f, 
    0.03759982f,     0.53895444f,     1.12582469f,     1.28158915f,     1.23433065f,     1.32987475f,     1.93404555f,     2.07717299f, 
    1.85539317f,     2.21950817f,     2.02610445f,     2.66832137f,     2.83460331f,     2.53688455f,     2.77231860f,     3.23280668f, 
    -0.04595565f,     0.55285949f,     1.05108500f,     1.27381563f,     1.76967978f,     1.85890424f,     1.98684108f,     1.90510821f, 
    1.59749901f,     1.99240744f,     2.63720703f,     2.72408652f,     2.57984734f,     2.58555818f,     2.76079345f,     2.85029459f, 
    0.38704357f,     0.69681418f,     1.15999484f,     1.45556009f,     1.80862927f,     1.98283482f,     1.70050704f,     2.03730321f, 
    2.09412432f,     2.09503078f,     2.57575130f,     2.39400506f,     2.54773879f,     2.48641062f,     2.80185556f,     2.71038866f, 
    -0.04224759f,     0.79363847f,     1.21729767f,     1.39605033f,     1.63508332f,     1.84580207f,     1.85713279f,     2.18114424f, 
    2.10298228f,     2.40204430f,     2.53058457f,     2.41560507f,     2.44377065f,     2.70002651f,     2.75669694f,     2.67677593f, 
    -0.00166594f,     0.72496367f,     1.09763551f,     1.38832569f,     1.61728477f,     1.70105338f,     1.93386173f,     2.07552576f, 
    2.20092797f,     2.27937531f,     2.16636539f,     2.48156381f,     2.56265569f,     2.57744908f,     2.66792774f,     2.71827531f, 
    -0.03614837f,     1.00011432f,     1.16906333f,     1.33545840f,     1.76778603f,     2.12734723f,     1.97558808f,     2.00812697f, 
    2.53120422f,     2.59327722f,     2.88952470f,     2.43010879f,     2.63648462f,     2.84829736f,     2.41799927f,     2.66786718f, 
    -0.01398015f,     0.79107898f,     1.08981740f,     1.42575872f,     1.44554472f,     1.73312199f,     2.06263423f,     2.09178901f, 
    2.12164474f,     2.34298038f,     2.34443641f,     2.52728772f,     2.73889923f,     2.60571623f,     2.74254251f,     2.72446012f, 
    -0.03668829f,     0.31856921f,     0.96430296f,     1.42631805f,     1.53604877f,     1.83218253f,     1.69569361f,     2.05643439f, 
    2.20616293f,     2.17352390f,     2.14803386f,     2.47574830f,     2.17283106f,     2.65017986f,     2.45901966f,     2.49939442f, 
    0.11079133f,     0.65234601f,     0.88342154f,     1.06359196f,     1.53229332f,     1.51861072f,     1.87641215f,     1.96216297f, 
    2.20275235f,     2.53932095f,     2.39576006f,     2.45227098f,     2.55300927f,     2.67819524f,     2.65318060f,     2.73909283f, 
    -0.00589574f,     0.59678167f,     1.08586478f,     1.25886607f,     1.50139046f,     1.85489500f,     1.91228056f,     2.09520745f, 
    2.17418337f,     2.36203146f,     2.37738490f,     2.34215140f,     2.42965412f,     2.51742554f,     2.71765995f,     2.70731306f, 
    0.13693795f,     0.76252222f,     1.00443578f,     1.21173084f,     1.42495084f,     1.99302053f,     1.94350982f,     2.02887940f, 
    2.24205995f,     2.37568998f,     2.23261237f,     2.39751577f,     2.71184659f,     2.77863908f,     2.82122445f,     2.82442856f, 
    0.23140728f,     0.73328263f,     1.16709006f,     1.41038609f,     1.60715139f,     1.87237895f,     1.79271674f,     2.03201604f, 
    2.17401743f,     2.29847026f,     2.29149652f,     2.47520280f,     2.57487893f,     2.63941073f,     2.84235215f,     2.79584336f, 
    -0.00412860f,     0.78509820f,     1.13841486f,     1.45602953f,     1.70161247f,     2.00481915f,     1.81771564f,     1.93891513f, 
    1.98838270f,     2.24225450f,     2.48366070f,     2.70633721f,     2.61385393f,     2.49581194f,     2.63101912f,     2.71772575f, 
    -0.08962007f,     0.68617558f,     0.93342423f,     1.29985845f,     1.73514354f,     1.63453627f,     2.04185104f,     2.19927025f, 
    2.39117503f,     2.32495213f,     2.52187371f,     2.56571627f,     2.68029165f,     2.72301483f,     2.52009726f,     2.77116060f, 
    0.17694107f,     1.07063925f,     1.43412900f,     1.60610247f,     1.38733792f,     1.83993578f,     2.04014826f,     2.48541117f, 
    2.22450423f,     2.60869813f,     2.32742286f,     2.54529881f,     2.66731334f,     2.64686275f,     2.77507281f,     2.77223134f, 
    -0.01782898f,     0.75543523f,     1.11005759f,     1.40650368f,     1.78686965f,     1.69391096f,     1.87357116f,     1.99488997f, 
    2.20733118f,     2.32065964f,     2.38018441f,     2.44528365f,     2.65047073f,     2.66320133f,     2.56778288f,     2.81955791f, 
    -0.02975439f,     0.65519685f,     0.98123354f,     1.31387305f,     1.67230844f,     1.88195693f,     1.95666683f,     2.04616117f, 
    2.51234603f,     2.28725266f,     2.41691303f,     2.48770261f,     2.44510937f,     2.55385041f,     2.64051962f,     2.74946165f, 
    0.07733347f,     0.66467774f,     1.18617761f,     1.44710016f,     1.63989985f,     1.79463363f,     2.10133338f,     2.06997490f, 
    2.18933821f,     2.42833233f,     2.31478572f,     2.49062443f,     2.53873587f,     2.52242875f,     2.75836468f,     2.65010357f, 
    -0.00326846f,     0.71301502f,     1.09103918f,     1.38535833f,     1.63029397f,     1.72046924f,     1.90622199f,     2.12314391f, 
    2.17403221f,     2.35010529f,     2.44439149f,     2.47549653f,     2.60250664f,     2.58989525f,     2.75719285f,     2.86821842f, 
    -0.04283841f,     0.42450929f,     0.94195986f,     1.50205564f,     1.45847273f,     2.06976628f,     2.07336688f,     2.29064035f, 
    2.10704064f,     2.27028346f,     2.45193863f,     2.82462788f,     2.43933153f,     2.49432230f,     2.72523594f,     2.72071362f, 
    -0.08636450f,     0.75702059f,     1.07580900f,     1.29187834f,     1.51685286f,     1.60687459f,     1.98472536f,     2.09756398f, 
    2.18677855f,     2.19227457f,     2.25567055f,     2.36905122f,     2.59856796f,     2.52345157f,     2.53839922f,     2.81795502f, 
    0.01680554f,     0.74942952f,     1.15872180f,     1.41545677f,     1.55099750f,     1.81367135f,     1.89925992f,     2.09040141f, 
    2.20656729f,     2.26124358f,     2.29704738f,     2.47629237f,     2.56026053f,     2.62877774f,     2.69933963f,     2.76454544f, 
    0.00962385f,     0.78169048f,     1.21746325f,     1.51174724f,     1.42124915f,     1.99567211f,     2.03636479f,     2.21812582f, 
    2.20425296f,     2.45628309f,     2.59000659f,     2.37280774f,     2.48944712f,     2.80197430f,     2.67680931f,     2.80422807f, 
    -0.11746288f,     0.55482489f,     1.04747748f,     1.30692303f,     1.41350055f,     1.67052495f,     1.92808676f,     1.93904936f, 
    2.28104162f,     2.26123381f,     2.19467330f,     2.39002180f,     2.50112343f,     2.57597613f,     2.86616564f,     2.87889385f, 
    0.15100446f,     0.70781535f,     1.10985923f,     1.32139099f,     1.60950506f,     1.91312635f,     1.93145669f,     2.02570796f, 
    2.15632844f,     2.15868044f,     2.46124101f,     2.47670293f,     2.55352950f,     2.67822003f,     2.57223368f,     2.92799139f, 
    -0.08488096f,     0.86260843f,     1.09307456f,     1.47609806f,     1.28816366f,     1.80025768f,     2.28355789f,     1.93887401f, 
    2.25271010f,     2.40794826f,     2.41989255f,     2.45177102f,     2.55381894f,     2.42306662f,     2.42416787f,     2.64877462f, 
    -0.08162451f,     0.65248859f,     0.99040258f,     1.20902979f,     1.33421504f,     1.71659756f,     2.13211203f,     2.11349392f, 
    2.02239370f,     2.14286017f,     2.30550742f,     2.76422024f,     2.52176142f,     2.87712431f,     2.75072360f,     2.94706869f, 
    -0.15467876f,     0.65999091f,     0.98932600f,     1.29953718f,     1.51426899f,     1.76382601f,     2.03913403f,     1.96903729f, 
    2.11415815f,     2.20833492f,     2.39854097f,     2.48431087f,     2.67808127f,     2.51589966f,     2.82784510f,     2.67896605f, 
    0.07228124f,     0.76006639f,     1.26427782f,     1.43117428f,     1.54951751f,     1.81369507f,     1.88887143f,     2.04360652f, 
    2.04208899f,     2.31044316f,     2.34346700f,     2.38631296f,     2.62054181f,     2.72424316f,     2.66023016f,     2.79862380f, 
    -0.03601875f,     0.71820509f,     1.25846112f,     1.46675551f,     1.56436026f,     2.07233906f,     1.89825773f,     1.91581202f, 
    2.20373058f,     2.56850910f,     2.62231278f,     2.42237997f,     2.57393885f,     2.61540031f,     2.73789477f,     2.78314447f, 
    0.05923872f,     0.87880290f,     1.14574623f,     1.63861620f,     1.30554342f,     2.23502779f,     1.60749376f,     2.13769984f, 
    1.86443281f,     1.89097536f,     2.03861332f,     2.51174235f,     2.36159134f,     2.77059698f,     3.02545714f,     2.36341333f, 
    0.12169059f,     0.76340479f,     1.25790250f,     1.52457166f,     1.61308837f,     1.93585682f,     1.87730896f,     2.17023039f, 
    2.19876909f,     2.36839652f,     2.68601584f,     2.39972067f,     2.50245452f,     2.79532409f,     2.94963074f,     2.86878610f, 
    0.00618805f,     0.68389380f,     1.10880041f,     1.39251304f,     1.59524453f,     1.78811908f,     1.95171916f,     2.06806064f, 
    2.19275737f,     2.31559086f,     2.41537666f,     2.48101044f,     2.57868433f,     2.64130616f,     2.70723748f,     2.78769994f, 
    -0.07499021f,     0.77996123f,     0.98922890f,     1.30275369f,     1.63693237f,     1.80735147f,     1.98888826f,     1.98383534f, 
    2.37727809f,     2.36298060f,     2.74968600f,     2.54503441f,     2.62295365f,     2.71745396f,     2.73859453f,     2.80108333f, 
    -0.02185691f,     0.70577657f,     1.20113838f,     1.43566954f,     1.53839695f,     1.78634679f,     1.95347941f,     2.09264922f, 
    2.18024564f,     2.29266357f,     2.37271929f,     2.47555375f,     2.61054254f,     2.62251711f,     2.60985589f,     2.67550039f, 
    -0.01839548f,     0.68142855f,     1.11493552f,     1.58338571f,     1.80331993f,     2.05807996f,     2.11058998f,     2.10754013f, 
    2.40903783f,     2.64825940f,     2.35677552f,     2.80479360f,     2.42372251f,     2.72859073f,     2.80105424f,     2.74494195f, 
    -0.00844135f,     0.65985900f,     1.14888895f,     1.48326147f,     1.64984560f,     2.02542257f,     1.83970559f,     2.10736370f, 
    2.32427812f,     2.18365645f,     2.33911014f,     2.43294668f,     2.61027384f,     2.65635896f,     2.63850236f,     2.94455838f, 
    0.02535372f,     0.67480522f,     1.09677005f,     1.37461698f,     1.59777987f,     1.63062334f,     1.97747552f,     2.10285783f, 
    2.10588956f,     2.36425400f,     2.48507547f,     2.45506167f,     2.47558475f,     2.82203269f,     2.64814663f,     2.61535430f, 
    0.00482442f,     0.70475137f,     1.09790015f,     1.38494301f,     1.74035549f,     1.77778733f,     1.93536174f,     2.07630682f, 
    2.28312707f,     2.34449744f,     2.44949412f,     2.51315403f,     2.59288216f,     2.73780656f,     2.71564364f,     2.82167673f, 
    0.08183496f,     0.75978613f,     1.06157696f,     1.37246680f,     1.52070391f,     1.85290146f,     1.90811217f,     2.09495878f, 
    2.49597669f,     2.53865337f,     2.18142629f,     2.46223164f,     2.55193424f,     2.49305415f,     2.68199611f,     2.67933154f, 
    0.19369385f,     0.86059535f,     0.56746167f,     1.21996617f,     1.31842530f,     1.74206996f,     1.75323272f,     2.26908183f, 
    2.53937626f,     2.37498951f,     2.24552059f,     2.21271420f,     2.71543384f,     2.60982060f,     2.49052334f,     3.00874233f, 
    0.21956608f,     0.77843320f,     1.23083234f,     1.77094734f,     1.79692781f,     1.95420134f,     2.17712188f,     2.19144940f, 
    2.16999626f,     2.07955670f,     2.35367322f,     2.71018600f,     2.84242249f,     2.57666349f,     2.98075628f,     2.92236590f, 
    0.09878688f,     0.68456036f,     1.13476121f,     1.35581195f,     1.49810171f,     1.90531242f,     2.03737998f,     2.14864254f, 
    2.35368133f,     2.99590826f,     2.47539830f,     2.85685134f,     2.41978860f,     2.74449611f,     2.33710027f,     2.44670057f, 
    0.07542513f,     0.46802086f,     1.11470795f,     1.55760181f,     1.27758205f,     2.05352378f,     1.96623409f,     1.87072182f, 
    2.12356901f,     2.42119288f,     2.25702310f,     2.64667106f,     2.42842746f,     2.42556572f,     2.46883988f,     2.60654616f, 
    0.03139655f,     0.81988704f,     1.14898956f,     1.31946456f,     1.61193550f,     1.79285467f,     2.23934746f,     2.10753846f, 
    2.22625899f,     2.37444139f,     2.33229375f,     2.69209743f,     2.77407098f,     2.64743042f,     2.81440687f,     2.89649343f, 
    -0.12065687f,     0.93171024f,     1.12768173f,     1.52735794f,     1.61636448f,     2.02805781f,     2.36633420f,     2.42475605f, 
    2.21774030f,     2.14268899f,     2.60699153f,     2.59167886f,     2.48779368f,     2.86980367f,     2.99025655f,     2.95766878f, 
    0.00603519f,     0.82355070f,     1.09963238f,     1.36847389f,     1.52250898f,     1.80784416f,     2.11894131f,     2.19334245f, 
    2.06565905f,     2.33915734f,     2.48899174f,     2.37246466f,     2.73583198f,     2.82970858f,     2.83695102f,     2.81876564f, 
    0.27182701f,     0.87091434f,     1.15626371f,     1.58804762f,     1.77464402f,     1.73009789f,     1.95982194f,     2.42792535f, 
    2.39579439f,     2.28771067f,     2.34154367f,     2.70683813f,     2.52942634f,     2.80554104f,     2.65130115f,     2.62140322f, 
    -0.02201661f,     0.67347687f,     1.01571453f,     1.32369828f,     1.48777997f,     1.79847276f,     1.94292545f,     2.11354852f, 
    2.17106223f,     2.24288249f,     2.44353700f,     2.49933124f,     2.57153487f,     2.67328525f,     2.74529076f,     2.91600204f, 
    0.02764642f,     0.64515924f,     1.10316420f,     1.35251248f,     1.57998884f,     1.83457971f,     2.06830907f,     2.04198837f, 
    2.11554646f,     2.15356469f,     2.52472043f,     2.61065245f,     2.69086552f,     2.66885567f,     2.61268616f,     3.02716303f, 
    0.08208913f,     0.78996867f,     1.14501143f,     1.28451705f,     1.33973956f,     1.78009856f,     1.92710996f,     2.15640497f, 
    2.12129784f,     2.34104943f,     2.49991083f,     2.63551688f,     2.67690444f,     2.74995017f,     2.74105668f,     2.79665518f, 
    0.09813164f,     0.58548594f,     1.09147358f,     1.20420170f,     1.83597243f,     1.66088390f,     1.84771931f,     1.83979380f, 
    2.17015648f,     2.37551713f,     2.50077629f,     2.47609067f,     2.45400071f,     2.46827459f,     2.65301633f,     2.38467741f, 
    0.01889060f,     0.78237903f,     1.11322784f,     1.39591146f,     1.57848883f,     1.88977504f,     1.88794327f,     2.10917330f, 
    2.30314016f,     2.49363208f,     2.39300013f,     2.53609395f,     3.00355768f,     2.67190576f,     2.64750528f,     3.17641449f, 
    0.16145603f,     0.78783345f,     1.28980863f,     1.45328641f,     1.94763100f,     1.94275641f,     1.95419073f,     2.28180122f, 
    2.39246035f,     2.20692420f,     2.30103278f,     2.54717684f,     2.41614127f,     2.62075305f,     2.51117015f,     2.72657847f, 
    0.00664755f,     0.62769198f,     1.07597542f,     1.36712706f,     1.57557833f,     1.75015056f,     1.86859310f,     2.10818672f, 
    2.24568820f,     2.29028606f,     2.15826011f,     2.42627716f,     2.41989446f,     2.57755947f,     2.70390987f,     2.62257648f, 
    -0.12070668f,     0.84421903f,     1.24825335f,     1.52520978f,     1.27595770f,     1.98325062f,     2.03406906f,     2.28217125f, 
    2.06352854f,     2.20597076f,     2.18735313f,     2.75948691f,     2.78708601f,     2.55421138f,     2.68984318f,     2.98612666f, 
    -0.48290280f,     0.21612982f,     0.49530247f,     0.87755573f,     1.88082802f,     1.95146859f,     1.90006948f,     2.38192296f, 
    2.03156805f,     1.91762149f,     2.50350261f,     2.44248223f,     2.59674168f,     2.69802928f,     2.77390218f,     3.04367590f, 
    0.08427992f,     0.76072514f,     1.01201069f,     1.40412652f,     1.51486290f,     2.01169419f,     1.96145940f,     2.12954164f, 
    2.32212615f,     2.57041693f,     2.36839056f,     2.56103587f,     2.52613091f,     2.74723434f,     2.79749990f,     2.57954884f, 
    -0.32040414f,     0.56576008f,     0.92936933f,     1.13265800f,     1.66761506f,     1.79645658f,     2.05237317f,     2.23234034f, 
    2.05304003f,     2.22867966f,     2.67193723f,     2.34528565f,     2.55613422f,     2.52572656f,     2.39789534f,     2.97548461f, 
    0.00892573f,     0.73199326f,     1.07971406f,     1.36135721f,     1.65824378f,     1.65391088f,     1.99592590f,     2.11701083f, 
    2.20510268f,     2.34838986f,     2.49821091f,     2.50080037f,     2.56260610f,     2.64931417f,     2.75511289f,     2.77945781f, 
    -0.02355655f,     0.81006849f,     1.09806454f,     1.39227927f,     1.43472457f,     1.44753647f,     2.12627792f,     2.14047551f, 
    2.33562422f,     2.08410430f,     2.15143156f,     2.45551944f,     2.55809379f,     2.56608009f,     2.63768077f,     2.65051579f, 
    0.04960885f,     0.69069213f,     1.09879398f,     1.40091419f,     1.61478817f,     1.75595415f,     1.86299646f,     1.93156755f, 
    2.11374378f,     2.22617388f,     2.51047015f,     2.51209164f,     2.61077833f,     2.69269419f,     2.69261909f,     2.77613235f, 
    -0.01324176f,     0.63603127f,     1.07782578f,     1.20674896f,     1.61869359f,     1.64732492f,     1.98077869f,     2.02527308f, 
    2.15552449f,     2.28485680f,     2.21271062f,     2.47042680f,     2.56115174f,     2.59731340f,     2.81312251f,     2.76761580f, 
    0.11593387f,     0.82898301f,     1.10446393f,     1.33826029f,     1.50291061f,     1.72145844f,     1.93824935f,     2.11654758f, 
    2.15135550f,     2.31755400f,     2.35599518f,     2.48714399f,     2.53824806f,     2.64161658f,     2.71864057f,     2.89841175f, 
    0.06659494f,     0.93439746f,     1.32817340f,     1.52892375f,     1.50142682f,     1.92811906f,     1.97332847f,     2.13863707f, 
    2.11906409f,     2.30361342f,     2.27471042f,     2.51287079f,     2.58808899f,     2.50727654f,     2.65333509f,     2.75961637f, 
    0.12964256f,     1.00626540f,     1.21331108f,     1.58142376f,     1.78321278f,     1.97875655f,     1.88779128f,     2.21440315f, 
    2.23077655f,     2.42977285f,     2.48043346f,     2.55216432f,     2.33882809f,     2.63200855f,     2.81080103f,     2.63684177f, 
    0.05226955f,     0.81238008f,     1.30208671f,     1.46507823f,     1.84053314f,     1.80700207f,     1.96079719f,     1.87994552f, 
    2.23191381f,     2.34884381f,     2.34223080f,     2.61113501f,     2.72429538f,     2.59200764f,     2.65747881f,     2.75913954f, 
    0.01169136f,     0.73203409f,     1.10753882f,     1.42572713f,     1.62813044f,     1.82513356f,     1.95451915f,     2.09076595f, 
    2.17057323f,     2.26928616f,     2.37201786f,     2.47986984f,     2.60260272f,     2.58471489f,     2.69714022f,     2.76089573f, 
    0.06066709f,     0.89022982f,     1.33920252f,     1.63637221f,     1.73308492f,     1.78064823f,     2.10259962f,     1.97835755f, 
    1.95741975f,     2.05580139f,     2.40594935f,     2.46845937f,     2.68288040f,     2.56779766f,     2.67102003f,     2.59814262f, 
    -0.00221476f,     0.67192090f,     1.10312688f,     1.38956130f,     1.52110720f,     1.79757833f,     1.94722068f,     2.07631230f, 
    2.19316149f,     2.31426978f,     2.44324756f,     2.48924828f,     2.57301879f,     2.65717578f,     2.73290062f,     2.76041126f, 
    0.17785370f,     0.52938437f,     1.16513896f,     1.33174360f,     1.64065683f,     1.90277767f,     1.85129440f,     1.92276800f, 
    2.09228897f,     2.22384405f,     2.38919544f,     2.39027405f,     2.61369157f,     2.58081841f,     2.76100349f,     3.02142954f, 
    -0.06546887f,     0.71256155f,     1.13530648f,     1.48358107f,     1.54103625f,     1.92308986f,     1.96291518f,     2.27563357f, 
    2.29743671f,     2.44045019f,     2.40815711f,     2.54878283f,     2.57884359f,     2.71344733f,     2.73322701f,     2.74411678f, 
    -0.00808468f,     0.63139421f,     1.12694800f,     1.43497491f,     1.67598784f,     1.79178953f,     1.87607324f,     2.16119766f, 
    2.24046731f,     2.48430109f,     2.40952063f,     2.45816898f,     2.39541245f,     2.46237707f,     2.72008204f,     2.68092752f, 
    -0.00415756f,     0.67206281f,     1.09426880f,     1.38403559f,     1.55950475f,     1.78706515f,     1.93417442f,     2.11308885f, 
    2.23807645f,     2.27993441f,     2.28978252f,     2.48618221f,     2.54066110f,     2.58858371f,     2.68252063f,     2.68741632f, 
    0.04391192f,     0.59694523f,     1.02778268f,     1.35722101f,     1.36408317f,     1.56304646f,     1.99154925f,     2.20124507f, 
    2.09499669f,     2.25099611f,     2.21724439f,     2.61314249f,     2.49196529f,     2.56709599f,     2.86312962f,     2.60742640f, 
    -0.01484251f,     0.71969754f,     1.03915203f,     1.33051121f,     1.95412028f,     1.55368102f,     1.88398325f,     2.25052834f, 
    2.41864228f,     2.58224511f,     2.38480711f,     2.83554339f,     2.60949326f,     2.74223280f,     2.63748598f,     3.07993531f, 
    -0.00738379f,     0.75062656f,     1.14469600f,     1.29387498f,     1.35048401f,     1.52125895f,     2.07936835f,     2.24438739f, 
    2.42322779f,     2.17929053f,     2.34023118f,     2.78002262f,     2.48052716f,     2.64446402f,     2.72389174f,     3.01325130f, 
    0.00266070f,     0.56691241f,     1.03786063f,     1.34743428f,     1.37701392f,     1.78350139f,     1.94245327f,     2.35200238f, 
    2.22516370f,     2.38199210f,     2.16532278f,     2.55933428f,     2.45806885f,     2.77584267f,     2.99118543f,     2.87853503f, 
    0.25661963f,     0.85352403f,     1.12584519f,     1.34530854f,     1.25206387f,     1.47681522f,     2.14517283f,     2.26257849f, 
    2.54508305f,     2.68784022f,     3.06034184f,     2.75204229f,     2.70424891f,     3.08904076f,     3.02060580f,     2.22927499f, 
    0.01716039f,     0.75991660f,     1.11450887f,     1.43522704f,     1.55005097f,     1.86932302f,     2.13757253f,     2.00000262f, 
    2.25659204f,     2.38967800f,     2.33159709f,     2.50986505f,     2.62587786f,     2.74312663f,     2.61218262f,     2.77215815f, 
    0.04787520f,     0.66984898f,     1.18615460f,     1.31725109f,     1.71099269f,     1.77910805f,     2.22331285f,     2.06584644f, 
    2.15026116f,     2.52584958f,     2.36136985f,     2.34749222f,     2.50545001f,     2.45233226f,     2.65058184f,     2.75775456f, 
    0.01907223f,     0.60029095f,     0.87313908f,     1.21315455f,     1.68871760f,     1.75443745f,     1.75826764f,     1.97548687f, 
    2.01677227f,     2.02411795f,     2.54336882f,     2.58735132f,     2.67245889f,     2.67000628f,     2.92442632f,     3.12283325f, 
    -0.01680868f,     0.68838292f,     1.19170833f,     1.51509356f,     1.56719458f,     1.84952033f,     2.10494065f,     1.97462952f, 
    1.87670147f,     2.37387109f,     2.48529005f,     2.45979857f,     2.64356756f,     2.43613005f,     2.71848655f,     2.75281668f, 
    0.12957197f,     0.69261903f,     1.12737525f,     1.47877204f,     1.85783815f,     1.76891673f,     1.74464750f,     2.05752659f, 
    2.15310192f,     2.19236112f,     2.48103070f,     2.42229295f,     2.45909667f,     2.39484000f,     2.65674925f,     2.81652808f, 
    0.00093762f,     0.69432515f,     1.10562730f,     1.39315081f,     1.60084736f,     1.79679513f,     1.95043862f,     2.07170773f, 
    2.20571852f,     2.30378151f,     2.40539432f,     2.47647452f,     2.57231402f,     2.63203335f,     2.69945836f,     2.77513409f, 
    0.01270983f,     0.69362879f,     1.10538650f,     1.36798906f,     1.62854183f,     1.80572772f,     1.97697544f,     2.07566333f, 
    2.15567470f,     2.33305264f,     2.47219849f,     2.48870587f,     2.56605077f,     2.64622593f,     2.67036462f,     2.77702165f, 
    0.01841627f,     0.66926533f,     1.09667230f,     1.38298047f,     1.62810373f,     1.58331800f,     1.88058221f,     2.01569891f, 
    2.20543289f,     2.31786895f,     2.34422946f,     2.50501800f,     2.55121684f,     2.61832809f,     2.78938007f,     2.94088769f, 
    0.06670167f,     0.72830170f,     1.20762372f,     1.48568869f,     1.52229095f,     1.77223468f,     1.96204126f,     2.03710055f, 
    2.24267793f,     2.50158381f,     2.22485352f,     2.65973520f,     2.80794573f,     2.81043386f,     2.19942880f,     2.72930121f, 
    -0.00507740f,     0.69559866f,     0.78808802f,     1.25140345f,     1.65831339f,     1.63722003f,     1.99908602f,     2.19766736f, 
    2.08734250f,     2.07733226f,     2.55325055f,     2.57957029f,     2.76671124f,     2.50010538f,     2.72554326f,     2.79643655f, 
    0.00536671f,     0.67511487f,     1.10630810f,     1.41940784f,     1.67269969f,     1.83745146f,     1.89267266f,     1.97421944f, 
    2.22714758f,     2.36247277f,     2.32322812f,     2.53048563f,     2.56140900f,     2.68047118f,     2.81311536f,     2.60444427f, 
    -0.00905009f,     0.68470716f,     1.10656309f,     1.39136946f,     1.58854496f,     1.77620912f,     1.93665814f,     2.08181214f, 
    2.18949342f,     2.27254152f,     2.38148594f,     2.48205972f,     2.56185317f,     2.62386370f,     2.69908762f,     2.76567602f, 
    0.00410721f,     0.69579649f,     1.09927797f,     1.38881433f,     1.55165303f,     1.76231349f,     1.91017270f,     2.06942296f, 
    2.20669174f,     2.31766319f,     2.29582977f,     2.47582579f,     2.55103683f,     2.65356946f,     2.70326829f,     2.80134177f, 

};

#define mamba_D_size 128
const float mamba_D[128] = {
    1.00755465f,     1.02213645f,     1.06749856f,     0.91584617f,     1.27603936f,     1.29410744f,     0.99811512f,     1.14224815f, 
    1.79866016f,     0.75456256f,     1.22398102f,     1.58862770f,     0.92947912f,     1.03752279f,     1.13583064f,     0.80918860f, 
    1.06087661f,     1.01302373f,     1.08746636f,     0.92398685f,     1.10073292f,     1.14087427f,     1.07461250f,     0.99234629f, 
    1.03376210f,     1.01746821f,     1.05608559f,     1.04318476f,     0.99884969f,     0.90066576f,     1.25699127f,     0.94768685f, 
    0.97157711f,     1.22855604f,     1.01482701f,     1.15118647f,     0.73286515f,     1.11081660f,     1.18155789f,     1.10432220f, 
    0.87618065f,     1.39953625f,     1.23812246f,     1.00253773f,     1.09730220f,     1.10070336f,     1.10855162f,     1.02481282f, 
    1.19408965f,     1.00091243f,     1.40000474f,     1.10943091f,     0.93201286f,     1.21169436f,     0.99828398f,     1.20879078f, 
    0.90340829f,     1.03240430f,     1.06402028f,     1.06271470f,     1.28474581f,     1.22294462f,     1.06853378f,     1.12281024f, 
    0.96066540f,     1.07599676f,     1.14276385f,     1.16150153f,     1.03388679f,     1.11249876f,     1.17936838f,     1.62168658f, 
    1.14180946f,     1.00580204f,     1.12663996f,     1.30410707f,     0.88007820f,     1.34521830f,     1.08710015f,     0.96125597f, 
    1.05859172f,     1.39999914f,     0.92822790f,     1.11658633f,     0.87309670f,     0.99846429f,     1.05410671f,     1.01113796f, 
    1.26432359f,     1.28789735f,     0.86735594f,     0.96226990f,     1.13588309f,     1.21679664f,     1.10441279f,     1.02287984f, 
    1.40032923f,     0.95056695f,     0.92755133f,     0.97045791f,     1.06379831f,     1.40937114f,     1.13301778f,     1.00187826f, 
    1.30041862f,     0.94435626f,     1.00633347f,     1.01381516f,     0.86962342f,     0.92143309f,     0.91336584f,     1.35351324f, 
    1.00407732f,     1.04368854f,     1.14845300f,     1.23989332f,     1.31748235f,     0.89999586f,     1.06938362f,     1.07844543f, 
    0.99376559f,     1.00319290f,     1.04484797f,     1.36459124f,     1.21589279f,     0.96121526f,     0.95159566f,     0.99113137f, 

};

#define mamba_in_proj_weight_rows 256
#define mamba_in_proj_weight_cols 64
const float mamba_in_proj_weight[16384] = {
    -0.05588046f,     0.01385852f,     -0.06338507f,     -0.01883917f,     0.00933080f,     -0.06915785f,     0.08536151f,     0.02790635f, 
    0.13006644f,     0.06641988f,     0.00547218f,     -0.03504471f,     0.03773265f,     0.02305309f,     -0.08424507f,     0.00876191f, 
    0.04954785f,     0.05769111f,     -0.09153290f,     0.02694018f,     0.02492699f,     0.03426077f,     -0.08326132f,     0.08750219f, 
    0.06209390f,     0.08687251f,     0.06935020f,     0.08081672f,     -0.02191123f,     -0.09026623f,     0.07178952f,     0.01561981f, 
    -0.11290496f,     -0.03406014f,     0.10030045f,     0.10721961f,     0.08940873f,     -0.03488856f,     0.04000952f,     0.00102145f, 
    -0.08513062f,     -0.11089636f,     0.07012383f,     0.02919007f,     -0.06270397f,     -0.00052373f,     -0.04203635f,     -0.06764486f, 
    -0.06607237f,     -0.14384733f,     -0.11094739f,     -0.03419949f,     -0.14015496f,     -0.02924699f,     0.10756745f,     -0.01605273f, 
    -0.15141559f,     0.07522449f,     0.02406720f,     -0.08471698f,     -0.10333029f,     0.09237332f,     -0.11624099f,     0.07759573f, 
    0.01535789f,     -0.12215385f,     0.06914009f,     -0.02586437f,     0.05841134f,     0.09569557f,     0.05911691f,     0.08086859f, 
    0.14265613f,     0.04363382f,     -0.02179757f,     -0.03395499f,     0.09284780f,     -0.00821149f,     -0.07848050f,     -0.04298405f, 
    0.06742847f,     0.09819473f,     0.04602153f,     -0.03711772f,     0.01845588f,     -0.00597160f,     -0.08668388f,     -0.09298164f, 
    -0.11179622f,     0.11088245f,     -0.04670185f,     -0.12077771f,     0.07623848f,     -0.12659118f,     0.03455412f,     0.12328012f, 
    0.00587231f,     -0.04536907f,     -0.04946539f,     -0.06312558f,     0.01506858f,     -0.01950856f,     0.08177997f,     -0.11647296f, 
    -0.07661200f,     -0.04215398f,     -0.00829645f,     0.09815536f,     -0.05100240f,     -0.00271292f,     -0.05728252f,     -0.10240126f, 
    -0.08647627f,     0.02150767f,     -0.15223743f,     0.03054655f,     0.04727576f,     -0.06525432f,     0.13668032f,     -0.00013256f, 
    -0.15019125f,     -0.09894776f,     -0.07128926f,     0.10010491f,     -0.02811483f,     -0.05686080f,     0.06770248f,     -0.09504856f, 
    0.09747877f,     -0.08027112f,     0.11858876f,     -0.06004723f,     0.07383941f,     -0.00211550f,     0.10657973f,     0.10146107f, 
    -0.09455640f,     -0.03114230f,     0.05553727f,     -0.07630463f,     0.06084931f,     0.03866388f,     0.10165673f,     0.10685588f, 
    -0.03830259f,     0.12184992f,     0.01313987f,     0.09074022f,     -0.06982333f,     -0.12675363f,     0.10815180f,     0.06375619f, 
    -0.08051811f,     0.12183752f,     -0.07699034f,     -0.00541850f,     -0.05866466f,     0.03995275f,     -0.01734601f,     -0.09195244f, 
    0.11041494f,     -0.00886596f,     0.04862423f,     -0.07458854f,     0.07435059f,     0.00604334f,     0.11793458f,     0.03105499f, 
    0.01918048f,     0.09853754f,     -0.09146706f,     0.08668064f,     -0.10961282f,     -0.08056252f,     0.06512398f,     0.11001991f, 
    0.01686846f,     0.02324574f,     -0.01313667f,     -0.06693455f,     -0.03539689f,     0.07275540f,     0.08966510f,     0.03491995f, 
    0.11137510f,     -0.01984165f,     0.01914428f,     0.05220113f,     -0.01709045f,     -0.06503907f,     -0.08145009f,     0.06553499f, 
    -0.00177263f,     0.06063523f,     -0.06420042f,     -0.08162509f,     0.01360794f,     -0.02062508f,     -0.03727105f,     -0.02618456f, 
    0.04751678f,     -0.02884473f,     0.10388762f,     0.13000406f,     -0.05162117f,     -0.04777656f,     0.05569004f,     0.06635317f, 
    0.11187295f,     -0.07821712f,     0.04486603f,     0.03885083f,     -0.08400032f,     -0.05665753f,     -0.09872553f,     0.11415852f, 
    0.02629363f,     -0.11340728f,     -0.09779335f,     0.07182756f,     0.08349680f,     -0.01446771f,     0.08091936f,     0.06063136f, 
    -0.06903049f,     0.01707228f,     -0.01553203f,     0.07526828f,     0.04587993f,     -0.14246599f,     -0.06600526f,     0.05866946f, 
    0.07176192f,     -0.09958944f,     -0.00497370f,     -0.06768059f,     -0.04319736f,     -0.06419879f,     0.11389140f,     0.09114928f, 
    0.01569512f,     0.06107822f,     0.00355248f,     0.06595615f,     0.05084883f,     0.03111125f,     0.02458468f,     -0.09644138f, 
    0.00817005f,     0.09537408f,     0.09739417f,     -0.05238112f,     0.04929627f,     0.03106152f,     -0.11434086f,     -0.09935953f, 
    0.04342277f,     0.08414225f,     0.07228947f,     0.05254723f,     0.09904947f,     -0.04429182f,     0.10304352f,     -0.01049809f, 
    -0.06213355f,     -0.04088255f,     0.02097104f,     0.09529280f,     -0.00139435f,     0.07859263f,     0.09291898f,     -0.00705908f, 
    -0.10666049f,     -0.11237819f,     -0.08599872f,     0.10265353f,     -0.12718882f,     -0.02224951f,     -0.06179771f,     -0.12777281f, 
    0.09424122f,     -0.05711701f,     -0.09482228f,     -0.07825739f,     0.07893474f,     0.06254255f,     0.00787412f,     -0.14909022f, 
    0.03415855f,     0.12122187f,     -0.08750273f,     -0.04285696f,     0.10748561f,     -0.00415813f,     -0.11653603f,     0.04907694f, 
    -0.09103353f,     -0.09436414f,     -0.07567070f,     0.07981498f,     -0.17825118f,     -0.04973341f,     -0.01513337f,     -0.11949161f, 
    0.02276815f,     -0.06982195f,     -0.10392159f,     -0.10745537f,     -0.03605564f,     -0.01106480f,     -0.12980649f,     0.09078599f, 
    -0.06261184f,     -0.06249128f,     -0.08117411f,     0.06819186f,     0.10072099f,     0.11657273f,     0.05620323f,     -0.01319411f, 
    0.02339133f,     0.05159109f,     -0.09167998f,     -0.19960238f,     -0.30371907f,     -0.02508887f,     0.15189548f,     0.02375836f, 
    0.13109832f,     -0.05707933f,     -0.24866788f,     -0.17510995f,     0.19528398f,     -0.05345002f,     0.12554012f,     0.20361546f, 
    -0.08895846f,     0.03943883f,     0.03341561f,     -0.35254130f,     0.08411504f,     -0.08315153f,     -0.04921930f,     0.18668355f, 
    -0.17445417f,     0.11817068f,     0.11406671f,     -0.05043792f,     0.01139621f,     -0.13581242f,     0.27161241f,     -0.04931217f, 
    0.02953176f,     -0.05741812f,     0.09557699f,     -0.01293624f,     -0.00691758f,     0.10286991f,     -0.09087904f,     0.06957846f, 
    0.09792464f,     0.13750353f,     -0.15285820f,     0.06826074f,     0.20720689f,     0.01673076f,     0.10459737f,     0.07887718f, 
    -0.04693036f,     0.11297163f,     0.00014665f,     -0.06352984f,     0.03093647f,     -0.17074382f,     -0.19944872f,     -0.02892089f, 
    -0.14137791f,     -0.04443481f,     -0.06909747f,     -0.20725963f,     0.29928821f,     -0.05095406f,     -0.09301562f,     -0.10188796f, 
    -0.01778249f,     -0.12441324f,     -0.02914832f,     -0.09211852f,     -0.08301734f,     0.11927538f,     0.02062876f,     0.02755250f, 
    0.08214319f,     0.07043903f,     0.00400376f,     -0.00550971f,     0.01625785f,     0.00240017f,     0.04525069f,     -0.06331588f, 
    0.03971750f,     -0.00768680f,     0.06681103f,     0.10174556f,     0.12833512f,     0.07274939f,     0.00470219f,     0.15007646f, 
    0.13442898f,     0.01992920f,     0.03827632f,     0.12280727f,     0.15383445f,     0.09943406f,     0.01543669f,     -0.00710760f, 
    0.11967019f,     0.06231033f,     -0.04372114f,     -0.00588279f,     0.12453029f,     0.08160701f,     0.13405426f,     0.07025269f, 
    -0.01362153f,     -0.02838574f,     0.12415431f,     -0.02885208f,     0.14341202f,     -0.02476754f,     0.16391441f,     0.06797239f, 
    -0.03193825f,     -0.01459558f,     0.07679080f,     -0.07594230f,     -0.10888836f,     -0.00393792f,     -0.08994816f,     0.14547020f, 
    -0.19297765f,     0.16727507f,     -0.06927060f,     -0.02149771f,     -0.03221312f,     -0.04911453f,     -0.04730304f,     0.01670125f, 
    0.05029260f,     0.10241613f,     -0.06400106f,     -0.02975968f,     -0.02031297f,     0.05991818f,     0.00507375f,     -0.07939854f, 
    0.05449148f,     -0.08476099f,     0.09351383f,     0.06853226f,     -0.09272452f,     -0.06763592f,     0.04567526f,     0.09926634f, 
    0.07829908f,     -0.06083819f,     -0.03280258f,     -0.08639610f,     -0.05002687f,     0.04563796f,     -0.06683554f,     0.01600932f, 
    -0.03506308f,     0.04471443f,     0.07877672f,     -0.06719910f,     -0.01545410f,     0.03189980f,     0.06231068f,     0.04865433f, 
    -0.11319380f,     -0.09962598f,     0.02752406f,     -0.02338634f,     0.06442697f,     -0.04293706f,     0.00929345f,     -0.06017533f, 
    -0.11848113f,     0.01317487f,     -0.04204482f,     0.06134679f,     0.11038981f,     -0.07987688f,     0.01442115f,     -0.11775354f, 
    0.08792456f,     0.01468186f,     -0.11263791f,     -0.08737737f,     0.07722918f,     -0.08411710f,     -0.07593186f,     -0.06519441f, 
    -0.13737431f,     -0.07502659f,     -0.03347647f,     0.05258523f,     0.06298506f,     0.11275317f,     -0.15987271f,     0.02968894f, 
    -0.04892336f,     -0.09694654f,     0.12047727f,     0.09032376f,     -0.07668480f,     -0.06073373f,     0.18544675f,     0.03138532f, 
    0.12896438f,     -0.08685698f,     0.03243451f,     -0.07560158f,     -0.15386255f,     0.08826040f,     0.10291359f,     0.09330103f, 
    -0.04792848f,     -0.07967016f,     0.07226790f,     0.06953304f,     0.01310466f,     0.10279016f,     0.12458233f,     0.05946711f, 
    -0.03254041f,     0.18581998f,     -0.01306330f,     0.02186465f,     -0.00914476f,     -0.00280088f,     -0.13753405f,     0.03374837f, 
    0.06604777f,     -0.09072024f,     -0.05456449f,     0.14473988f,     0.17397586f,     -0.30395326f,     -0.11964525f,     -0.00404115f, 
    0.12302067f,     0.03709073f,     0.01241771f,     -0.01690177f,     0.14293177f,     0.07894060f,     0.12742613f,     0.06466928f, 
    0.06186425f,     -0.05518249f,     -0.19264963f,     -0.01525640f,     -0.08306921f,     0.11762154f,     -0.07174180f,     -0.04323140f, 
    -0.21326208f,     0.04570121f,     -0.02176008f,     -0.04165219f,     -0.00992958f,     0.06388126f,     -0.04352141f,     -0.04635239f, 
    -0.07036129f,     0.10214865f,     -0.09889292f,     0.01155540f,     -0.00620509f,     -0.01548744f,     -0.11699971f,     -0.11848864f, 
    -0.09944210f,     -0.03939016f,     0.15496045f,     0.07174509f,     -0.01755045f,     0.03460592f,     -0.12953767f,     -0.09913576f, 
    -0.04640747f,     -0.09051172f,     -0.15290709f,     -0.07270837f,     0.09199996f,     0.03498303f,     -0.06979049f,     -0.07543370f, 
    0.04610140f,     -0.07088946f,     -0.04113121f,     0.07480057f,     0.11112986f,     -0.03583877f,     -0.01555109f,     0.10025281f, 
    0.06109840f,     -0.13472356f,     0.02559817f,     -0.16405231f,     0.14390472f,     0.22137234f,     0.16814359f,     0.10165411f, 
    0.13182676f,     -0.07117368f,     -0.07750993f,     0.15107864f,     -0.04088638f,     0.09004180f,     -0.01644300f,     0.10310163f, 
    -0.10135935f,     0.09081130f,     0.04098270f,     0.01031276f,     0.01665040f,     0.11181968f,     -0.01091953f,     0.04854521f, 
    0.11422023f,     0.01977428f,     -0.04681087f,     -0.04503395f,     0.10533149f,     0.10584144f,     -0.09518408f,     -0.05719062f, 
    0.06935756f,     -0.02409099f,     0.01399150f,     0.08445857f,     0.00119845f,     0.07319940f,     -0.01512178f,     -0.06144959f, 
    0.09220154f,     -0.02846261f,     0.11336959f,     -0.10871635f,     -0.01512315f,     -0.11830094f,     -0.03951855f,     -0.08281305f, 
    0.07489988f,     0.06588478f,     0.04210281f,     -0.13568723f,     0.12909870f,     -0.02209453f,     -0.11731429f,     -0.04895165f, 
    0.10818338f,     -0.10645395f,     -0.12419260f,     0.11805800f,     -0.06937465f,     0.07800575f,     -0.08492681f,     0.03153801f, 
    -0.10607583f,     -0.02181912f,     -0.04151626f,     -0.03248882f,     -0.09580344f,     0.09585650f,     -0.03170781f,     -0.11522304f, 
    -0.05661649f,     0.02254320f,     -0.08673783f,     -0.08713935f,     -0.04363776f,     0.07265098f,     -0.10716885f,     -0.09216265f, 
    -0.07712206f,     0.12146865f,     0.12994537f,     -0.08593037f,     -0.10927454f,     0.09901120f,     -0.01750645f,     0.08837023f, 
    -0.06270143f,     0.08874420f,     -0.01291659f,     -0.07788593f,     0.03244001f,     0.07148250f,     0.01101219f,     -0.00958449f, 
    -0.02433265f,     -0.12104617f,     -0.15590921f,     0.00159802f,     -0.09211989f,     0.03026213f,     -0.07294733f,     -0.00853412f, 
    -0.10312407f,     0.11406196f,     0.02961269f,     0.03897621f,     -0.00097834f,     0.11902884f,     -0.08130442f,     0.10480357f, 
    0.03769620f,     0.04779066f,     0.21325925f,     -0.06959114f,     -0.05857079f,     0.07653956f,     0.12242941f,     0.15582390f, 
    0.03754402f,     0.02230827f,     -0.08426449f,     0.02936194f,     0.07562667f,     -0.04442479f,     -0.07947544f,     -0.10552830f, 
    0.01429564f,     -0.00370416f,     -0.13835448f,     0.03043158f,     0.01515993f,     0.05170879f,     0.07240856f,     -0.09871853f, 
    -0.18731587f,     0.04519448f,     0.02153588f,     -0.13308257f,     -0.13103643f,     -0.04596489f,     -0.10168509f,     -0.08977970f, 
    -0.07379398f,     -0.16686322f,     -0.10505890f,     0.02209028f,     -0.09223340f,     -0.03104484f,     -0.06848513f,     -0.01753118f, 
    -0.10620237f,     0.02032795f,     0.10562824f,     0.12927538f,     -0.18044843f,     -0.03809571f,     0.11559365f,     0.01685371f, 
    -0.04303492f,     0.10976189f,     -0.09066978f,     -0.08319162f,     -0.01254429f,     0.18812658f,     0.03805526f,     -0.13754983f, 
    -0.00266640f,     0.09904781f,     0.05701930f,     0.09007826f,     -0.00424548f,     -0.13409333f,     0.00407718f,     -0.05260504f, 
    -0.03842675f,     0.00633573f,     -0.10109507f,     0.15870064f,     -0.11279909f,     -0.05791769f,     -0.05261832f,     -0.05954667f, 
    0.16673689f,     0.03163986f,     -0.10361186f,     -0.04494765f,     -0.00477975f,     -0.06754158f,     -0.11725475f,     -0.04156805f, 
    -0.09371162f,     -0.22044380f,     0.21416345f,     -0.09330250f,     0.11721773f,     0.09987757f,     0.17301743f,     -0.10696386f, 
    -0.07290591f,     0.00426646f,     -0.13740808f,     0.13070890f,     0.19809526f,     0.05594380f,     0.02065302f,     -0.13397403f, 
    -0.05892929f,     -0.07294454f,     -0.15238324f,     -0.05598835f,     -0.00535653f,     0.18012005f,     0.10394141f,     -0.04897207f, 
    0.06315430f,     0.03799793f,     0.02134596f,     -0.04926952f,     -0.14828540f,     0.08618625f,     -0.04450990f,     0.04527807f, 
